{
  "learningRate": 0.005,
  "layers": [
    {
      "type": "input",
      "shape": [
        1,
        28,
        28,
        1
      ]
    },
    {
      "type": "conv2d",
      "strideH": 1,
      "strideW": 1,
      "padTop": 0,
      "padBottom": 0,
      "padLeft": 0,
      "padRight": 0,
      "activation": "relu",
      "kernel": [
        -0.014313188381493092,
        -0.005512685980647802,
        -0.05501988157629967,
        0.057983629405498505,
        0.0875687450170517,
        0.007036726921796799,
        -0.060667071491479874,
        0.05960676074028015,
        -0.015043993480503559,
        0.10034492611885071,
        -0.010031400248408318,
        0.07441398501396179,
        0.08122050017118454,
        -0.04179593548178673,
        -0.07891456037759781,
        0.06213633343577385,
        -0.0496370829641819,
        0.0934373140335083,
        0.15439574420452118,
        0.04646740481257439,
        0.09228594601154327,
        0.01568165235221386,
        0.11839212477207184,
        0.031174780800938606,
        -0.04261809587478638,
        -0.13931825757026672,
        -0.13335385918617249,
        -0.0572986826300621,
        0.05096445977687836,
        -0.02102496102452278,
        -0.12578922510147095,
        -0.0013300508726388216,
        0.009336031042039394,
        -0.02478638105094433,
        0.05813457816839218,
        -0.009955949150025845,
        0.03779768943786621,
        -0.0021041622385382652,
        0.014608372934162617,
        -0.0895036831498146,
        -0.03725310415029526,
        0.12208225578069687,
        0.13097752630710602,
        0.0007430065888911486,
        0.07255960255861282,
        -0.01129765622317791,
        0.10420312732458115,
        0.02900996431708336,
        -0.0023690026719123125,
        -0.09289979189634323,
        -0.20968663692474365,
        0.048547256737947464,
        0.052455347031354904,
        0.0005639490555040538,
        -0.1253381073474884,
        -0.01746675744652748,
        0.004334450699388981,
        -0.12804029881954193,
        -0.06761962920427322,
        -0.011730448342859745,
        0.09804680198431015,
        -0.004000273533165455,
        0.02359103038907051,
        -0.0944516658782959,
        0.017153555527329445,
        -0.0023140227422118187,
        0.05089491233229637,
        -0.026402996852993965,
        0.09587894380092621,
        0.0021627566311508417,
        0.06424234807491302,
        -0.07132862508296967
      ],
      "kernelShape": [
        3,
        3,
        1,
        8
      ],
      "bias": [
        -0.0032601295970380306,
        0.10426118224859238,
        0.12300601601600647,
        0.02237757295370102,
        -0.054794128984212875,
        -0.004125602543354034,
        0.0850180983543396,
        0.12281724065542221
      ],
      "outShape": [
        1,
        26,
        26,
        8
      ]
    },
    {
      "type": "pool",
      "windowH": 2,
      "windowW": 2,
      "strideH": 2,
      "strideW": 2,
      "outShape": [
        1,
        13,
        13,
        8
      ],
      "channels": 8
    },
    {
      "type": "conv2d",
      "strideH": 1,
      "strideW": 1,
      "padTop": 0,
      "padBottom": 0,
      "padLeft": 0,
      "padRight": 0,
      "activation": "relu",
      "kernel": [
        -0.0265188030898571,
        -0.042753346264362335,
        -0.04437211528420448,
        -0.02655206434428692,
        -0.03644450753927231,
        -0.022818228229880333,
        0.020292798057198524,
        -0.0420440211892128,
        -0.039690468460321426,
        0.018283145502209663,
        0.011060161516070366,
        -0.031922124326229095,
        0.023135006427764893,
        -0.041538920253515244,
        -0.044504158198833466,
        -0.03773999214172363,
        -0.01826951466500759,
        -0.04124889895319939,
        0.06067664548754692,
        0.009215331636369228,
        -0.01234235055744648,
        -0.04109111800789833,
        0.006631579250097275,
        -0.016115913167595863,
        0.05339265614748001,
        0.016490241512656212,
        0.04835464432835579,
        -0.02082563005387783,
        0.029857954010367393,
        0.0295040775090456,
        0.0455063171684742,
        -0.00011281153274467215,
        0.003497182624414563,
        -0.028359314426779747,
        0.06987151503562927,
        0.002111432608217001,
        0.04348304495215416,
        0.042614009231328964,
        0.06516546756029129,
        0.0012570475228130817,
        -0.01797490566968918,
        0.07488231360912323,
        0.004459797870367765,
        0.0053375354036688805,
        -0.027036242187023163,
        0.030648168176412582,
        -0.024640096351504326,
        0.0015813815407454967,
        -0.04157101735472679,
        0.0167403407394886,
        0.0003772617783397436,
        -0.011136003769934177,
        0.04304298385977745,
        0.04334259778261185,
        0.0021311736200004816,
        -0.030908877030014992,
        0.029626747593283653,
        0.001064577605575323,
        0.035713307559490204,
        0.0071050068363547325,
        0.0023952943738549948,
        -0.020279034972190857,
        -0.02939767763018608,
        0.0040193479508161545,
        -0.02074713073670864,
        -0.02657313272356987,
        -0.02308778278529644,
        -0.03786637261509895,
        0.04625687003135681,
        0.02446701191365719,
        -0.028843682259321213,
        -0.03598329424858093,
        -0.012410907074809074,
        -0.020330365747213364,
        0.0449807271361351,
        -0.052059490233659744,
        -0.003298258874565363,
        0.04346328228712082,
        -0.023693261668086052,
        -0.006501670461148024,
        -0.03963964059948921,
        0.019109290093183517,
        -0.005589884240180254,
        -0.017469437792897224,
        -0.042763371020555496,
        -0.013520739041268826,
        0.00445252051576972,
        -0.0431361086666584,
        -0.025422193109989166,
        -0.008050075732171535,
        0.046544477343559265,
        0.01703505404293537,
        0.033549610525369644,
        0.039157021790742874,
        -0.013892030343413353,
        0.009005439467728138,
        -0.018503151834011078,
        -0.03939526528120041,
        0.05710127204656601,
        0.009914669208228588,
        0.0239702221006155,
        -0.010255314409732819,
        0.05434708669781685,
        -0.04792332649230957,
        0.014163908548653126,
        -0.006629618350416422,
        0.03303263336420059,
        0.0619070827960968,
        -0.016664942726492882,
        -0.013422230258584023,
        -0.01941903866827488,
        -0.037707582116127014,
        -0.020141946151852608,
        0.05205332487821579,
        0.05772269517183304,
        0.03523639217019081,
        -0.014790945686399937,
        0.04107533022761345,
        0.009954876266419888,
        -0.03593757003545761,
        0.05307523533701897,
        0.04859575256705284,
        -0.03615942597389221,
        -0.01856316439807415,
        -0.01658727414906025,
        -0.008966460824012756,
        0.007445742841809988,
        0.048949938267469406,
        0.005669865291565657,
        -0.006682370789349079,
        0.015340007841587067,
        0.00455013383179903,
        0.015327808447182178,
        -0.03879428654909134,
        -0.025370582938194275,
        0.03655710071325302,
        0.005438071675598621,
        -0.015541549772024155,
        0.04884631186723709,
        -0.022610049694776535,
        0.008411182090640068,
        0.00674859993159771,
        -0.042692631483078,
        -0.030768318101763725,
        0.03026999533176422,
        0.04922483116388321,
        0.06818325817584991,
        -0.041647206991910934,
        0.025365212932229042,
        -0.013142040930688381,
        0.05533697456121445,
        -0.028811918571591377,
        0.03188967704772949,
        0.06617800146341324,
        -0.0408688560128212,
        -0.027695603668689728,
        0.06399795413017273,
        0.03594612330198288,
        0.005021199584007263,
        0.09019310772418976,
        0.02824823558330536,
        0.059297915548086166,
        0.07404060661792755,
        -0.04235219210386276,
        0.060112420469522476,
        0.05281645432114601,
        0.01412577461451292,
        -0.0035345929209142923,
        0.017814332619309425,
        0.0002900020917877555,
        -0.03280258551239967,
        0.011540408246219158,
        0.03492112457752228,
        0.05226786062121391,
        0.019696854054927826,
        0.0648031085729599,
        0.036697495728731155,
        -0.01094635110348463,
        0.035677261650562286,
        -0.015667852014303207,
        -0.007149106822907925,
        -0.029547637328505516,
        0.001458731829188764,
        0.029492903500795364,
        0.04433309659361839,
        0.022454287856817245,
        -0.01816556043922901,
        -0.039792630821466446,
        0.016520123928785324,
        0.015678172931075096,
        -0.019795533269643784,
        0.012000661343336105,
        -0.04772338271141052,
        0.00018514589464757591,
        0.010448961518704891,
        -0.016093578189611435,
        0.0076920692808926105,
        -0.001849306863732636,
        0.05320673808455467,
        0.027334457263350487,
        -0.0303470641374588,
        -0.0008350021089427173,
        -0.019273580983281136,
        0.007868414744734764,
        0.013566656969487667,
        0.020423103123903275,
        -0.013698944821953773,
        -0.04689910635352135,
        0.013659227639436722,
        -0.025247780606150627,
        0.010275853797793388,
        -0.01709449663758278,
        -0.0487603023648262,
        -0.018554532900452614,
        0.010426231659948826,
        -0.029844092205166817,
        0.0016399710439145565,
        0.021941592916846275,
        0.01724163629114628,
        -0.015344244427978992,
        0.029539380222558975,
        -0.006189534440636635,
        -0.0424589067697525,
        0.028310472145676613,
        -0.0012172955321148038,
        0.06822880357503891,
        -0.022466585040092468,
        -0.003957121632993221,
        -0.026360992342233658,
        0.029112091287970543,
        0.04391656443476677,
        0.01000048965215683,
        -0.01741519756615162,
        0.01217513345181942,
        0.0372808463871479,
        0.06179121881723404,
        -0.026344971731305122,
        -0.02732461504638195,
        -0.0404333733022213,
        0.06317499279975891,
        -0.02299637347459793,
        0.03286060318350792,
        0.008708841167390347,
        0.004554290324449539,
        0.028622323647141457,
        0.03910129517316818,
        0.014744063839316368,
        -0.02109573408961296,
        0.012251649051904678,
        0.027926737442612648,
        0.04365285858511925,
        -0.05468941479921341,
        0.04033251479268074,
        0.019834058359265327,
        -0.043482743203639984,
        0.05189990997314453,
        0.03880976885557175,
        0.02611609920859337,
        -0.04089602828025818,
        0.04088231548666954,
        0.018642745912075043,
        -0.019891837611794472,
        -0.031099287793040276,
        -0.04156356677412987,
        -0.044931333512067795,
        0.015853682532906532,
        -0.011454357765614986,
        -0.023525172844529152,
        -0.030103152617812157,
        0.02392323687672615,
        0.011495021171867847,
        -0.006454684771597385,
        0.0277219507843256,
        0.030233101919293404,
        0.0339154489338398,
        0.03292003273963928,
        -0.0070488341152668,
        0.007452479097992182,
        0.016396215185523033,
        0.03587888181209564,
        0.009785511530935764,
        0.00826238002628088,
        0.005096327979117632,
        0.032193511724472046,
        0.02091745287179947,
        0.009893457405269146,
        -0.03474723547697067,
        0.06217484921216965,
        -0.011123905889689922,
        0.07624702155590057,
        0.008033457212150097,
        -0.044421110302209854,
        0.06479241698980331,
        -0.00565219484269619,
        0.05088156461715698,
        0.0018401490524411201,
        -0.024633631110191345,
        0.06207161769270897,
        -0.0042927879840135574,
        0.021341750398278236,
        0.053575124591588974,
        0.039538267999887466,
        -0.030447522178292274,
        0.06632038950920105,
        -0.016549458727240562,
        0.02633596584200859,
        -0.013399168848991394,
        -0.040309011936187744,
        0.00870602112263441,
        0.007381922099739313,
        0.01890055648982525,
        0.04775114730000496,
        0.01419071014970541,
        0.03908322751522064,
        0.048413507640361786,
        0.024199463427066803,
        -0.04689088463783264,
        0.0027275935281068087,
        0.033790070563554764,
        0.05492500215768814,
        -0.04629581421613693,
        0.03682559356093407,
        0.045187413692474365,
        -0.0013740994036197662,
        -0.051887329667806625,
        0.017837002873420715,
        -0.0011589180212467909,
        -0.021654529497027397,
        0.014135046862065792,
        0.053136829286813736,
        -0.0388944111764431,
        0.058502379804849625,
        0.04669477790594101,
        -0.015574468299746513,
        -0.005619377829134464,
        0.043927520513534546,
        -0.0016045190859586,
        0.010336647741496563,
        -0.01878250762820244,
        -0.003841056954115629,
        -0.0005424349219538271,
        0.04429955780506134,
        -0.02637610398232937,
        0.04361480101943016,
        0.012694009579718113,
        0.04173174500465393,
        0.024505699053406715,
        -0.0392620824277401,
        0.004511718172580004,
        0.014773453585803509,
        0.03029288724064827,
        0.02608054131269455,
        -0.0012586370576173067,
        -0.018722929060459137,
        -0.029738740995526314,
        -0.01663576066493988,
        0.033139001578092575,
        0.07004906982183456,
        0.024908246472477913,
        -0.01128675788640976,
        0.007868608459830284,
        -0.0036189721431583166,
        0.010326624847948551,
        0.016985761001706123,
        0.0421145036816597,
        -0.010796948336064816,
        0.035584282130002975,
        0.05336708948016167,
        0.03536627069115639,
        -0.029204607009887695,
        -0.014451653696596622,
        0.045649077743291855,
        0.04192871227860451,
        0.00867033377289772,
        0.015849899500608444,
        0.03452802449464798,
        0.03224395588040352,
        0.05813349410891533,
        0.04323176294565201,
        0.03903669863939285,
        -0.010849382728338242,
        0.023584911599755287,
        0.03746401146054268,
        0.012017753906548023,
        0.026809824630618095,
        -0.01265567634254694,
        0.03997118026018143,
        0.031675223261117935,
        -0.03752497583627701,
        0.018375160172581673,
        -0.04707112908363342,
        -0.020761694759130478,
        0.014026007615029812,
        -0.049314044415950775,
        0.014988449402153492,
        0.04846467450261116,
        -0.017601003870368004,
        -0.0016246282029896975,
        -0.0024545781780034304,
        -0.03941429406404495,
        0.020515715703368187,
        -0.01621786504983902,
        0.011379487812519073,
        -0.004610603209584951,
        -0.03075934387743473,
        0.002833222271874547,
        0.06720663607120514,
        -0.046265602111816406,
        0.05566675215959549,
        0.08104243874549866,
        -0.0014205879997462034,
        -0.040999654680490494,
        -0.015034746378660202,
        -0.019970376044511795,
        -0.04637444019317627,
        0.009969949722290039,
        -0.010690448805689812,
        -0.006229239050298929,
        -0.020401235669851303,
        -0.019027819857001305,
        0.017645006999373436,
        0.06252812594175339,
        -0.0054909116588532925,
        -0.03284446522593498,
        0.007517147809267044,
        0.03231889382004738,
        0.037407368421554565,
        -0.015737995505332947,
        0.07160191237926483,
        -0.004933601710945368,
        0.04433416947722435,
        0.03869818523526192,
        -0.04622785747051239,
        0.03702375665307045,
        -0.009893063455820084,
        -0.03956711292266846,
        0.045913416892290115,
        -0.037751637399196625,
        -0.052566979080438614,
        0.00481050368398428,
        0.03134229779243469,
        0.02029455453157425,
        -0.01662253774702549,
        -0.04686698317527771,
        0.03176498040556908,
        -0.009173240512609482,
        -0.001941054593771696,
        0.04374576359987259,
        -0.022563086822628975,
        0.03927648440003395,
        -0.017323458567261696,
        -0.001254286034964025,
        0.0025500545743852854,
        -0.030581941828131676,
        -0.05085700377821922,
        -0.007145449053496122,
        0.049439407885074615,
        -0.07104579359292984,
        -0.04642467573285103,
        0.042379241436719894,
        -0.04798199608922005,
        -0.04740076884627342,
        -0.032004937529563904,
        0.05414788797497749,
        -0.02630852535367012,
        0.003916658461093903,
        -0.0336025208234787,
        0.047889843583106995,
        -0.011489410884678364,
        -0.028809333220124245,
        -0.016062820330262184,
        -0.02755296789109707,
        -0.011425551027059555,
        -0.018253590911626816,
        0.036121517419815063,
        0.033085040748119354,
        -0.006840923335403204,
        0.040149372071027756,
        0.03532853350043297,
        -0.03081229142844677,
        -0.043261002749204636,
        0.01378668937832117,
        0.04847492650151253,
        0.04032125696539879,
        -0.011652912013232708,
        0.0441846065223217,
        0.06738182157278061,
        -0.029487481340765953,
        0.010568021796643734,
        0.050768088549375534,
        -0.016779854893684387,
        0.0349615253508091,
        0.025661593303084373,
        0.013209358789026737,
        0.0016616822686046362,
        -0.028364894911646843,
        -0.046375520527362823,
        0.041396476328372955,
        0.02800164185464382,
        0.04435765743255615,
        -0.013337121345102787,
        -0.028793660923838615,
        -0.022115619853138924,
        -0.001956299412995577,
        0.015045263804495335,
        0.0719132050871849,
        -0.0019582686945796013,
        -0.00867372564971447,
        -0.04063951224088669,
        -0.004259184002876282,
        -0.04118907079100609,
        0.009244701825082302,
        0.048451442271471024,
        0.014009126462042332,
        0.025860559195280075,
        0.018442941829562187,
        0.021552979946136475,
        0.03144863620400429,
        0.020214717835187912,
        0.02330479957163334,
        -0.045756805688142776,
        0.022705959156155586,
        -0.030439075082540512,
        -0.0024070895742625,
        0.044486116617918015,
        0.03700502961874008,
        -0.023983659222722054,
        -0.008388404734432697,
        0.02557552047073841,
        0.048468511551618576,
        -0.0051412396132946014,
        0.01021330151706934,
        0.02198823168873787,
        0.012556072324514389,
        0.028860975056886673,
        -0.024367695674300194,
        0.06192156299948692,
        0.07302719354629517,
        0.02579730749130249,
        0.039213813841342926,
        0.049473974853754044,
        0.031070616096258163,
        0.00737722497433424,
        0.04344703257083893,
        0.010027584619820118,
        -0.0002464444260112941,
        -0.02258126251399517,
        0.03785678371787071,
        0.020502595230937004,
        0.09751670062541962,
        0.06346786022186279,
        -0.042159553617239,
        0.03687566891312599,
        0.10624580830335617,
        -0.015974927693605423,
        -0.009459675289690495,
        -0.02900625392794609,
        -0.0195673368871212,
        0.005544236395508051,
        -0.01391442958265543,
        0.01636655069887638,
        -0.029129769653081894,
        0.023462718352675438,
        0.02059900388121605,
        -0.0022940696217119694,
        -0.03443675860762596,
        -0.020818788558244705,
        -0.014491287991404533,
        0.016254182904958725,
        -0.012113779783248901,
        0.01579408347606659,
        -0.015605687163770199,
        -0.019955340772867203,
        0.04114370048046112,
        0.044495608657598495,
        -0.03193971887230873,
        -0.0028010192327201366,
        -0.044299185276031494,
        -0.03712351992726326,
        0.013702272437512875,
        -0.0787607729434967,
        -0.02431107498705387,
        0.029047086834907532,
        -0.03521232306957245,
        -0.021241797134280205,
        -0.01701485551893711,
        -0.023141425102949142,
        0.013236859813332558,
        -0.02670608088374138,
        -0.02096841111779213,
        0.0374433696269989,
        -0.04845167696475983,
        0.01418021135032177,
        -0.011117083951830864,
        -0.01738564297556877,
        -0.027805166319012642,
        -0.012648887000977993,
        0.02350458689033985,
        0.04580684378743172,
        -0.002393365139141679,
        0.03472436964511871,
        -0.03539035841822624,
        0.03785894438624382,
        -0.013818356208503246,
        -0.030618911609053612,
        0.03390735387802124,
        0.00355532462708652,
        -0.03916477784514427,
        -0.024532411247491837,
        0.03771579638123512,
        0.0217233058065176,
        0.04279535263776779,
        -0.002557499101385474,
        0.08367276191711426,
        0.05073464289307594,
        -0.00824758317321539,
        -0.002505867974832654,
        0.06679075956344604,
        0.048464883118867874,
        -0.000500608526635915,
        0.008489228785037994,
        -0.030368700623512268,
        0.01585312932729721,
        0.045634880661964417,
        -0.044296253472566605,
        0.03398289903998375,
        0.01590432971715927,
        -0.025650665163993835,
        0.038248639553785324,
        0.0010506483959034085,
        0.05382092297077179,
        -0.00405452586710453,
        0.05772826448082924,
        0.08618780225515366,
        -0.023171870037913322,
        -0.051664598286151886,
        -0.0007264906307682395,
        -0.011833732016384602,
        0.007993470877408981,
        -0.016243742778897285,
        0.004738716408610344,
        0.045005135238170624,
        0.006170634180307388,
        0.007049694657325745,
        -0.007177326828241348,
        0.013046739622950554,
        0.0022782261949032545,
        0.011717068962752819,
        -0.009109619073569775,
        0.0293604526668787,
        0.034953709691762924,
        0.029497724026441574,
        -0.024846477434039116,
        0.048502326011657715,
        -0.02129092998802662,
        -0.046209122985601425,
        0.022350981831550598,
        -0.0006228808197192848,
        0.050980594009160995,
        0.0028471697587519884,
        0.06802748143672943,
        -0.009019316174089909,
        -0.017444761469960213,
        0.004310428164899349,
        0.01776965893805027,
        0.07926703989505768,
        0.008763017132878304,
        0.03994787856936455,
        -0.0009839908452704549,
        0.049556877464056015,
        -0.0432821549475193,
        0.07205266505479813,
        0.006350417155772448,
        0.05107487738132477,
        0.059645187109708786,
        -0.0249274093657732,
        0.005138714797794819,
        0.05712107568979263,
        0.04062189534306526,
        -0.008017442189157009,
        0.008047085255384445,
        0.1051388755440712,
        0.010923076421022415,
        0.018348664045333862,
        -0.03227095678448677,
        0.03209034726023674,
        0.035518303513526917,
        0.00009658344060881063,
        0.04232838377356529,
        -0.04355791211128235,
        -0.0018677430925890803,
        -0.035666752606630325,
        -0.023035479709506035,
        -0.0019393679685890675,
        -0.015952792018651962,
        -0.0060137188993394375,
        -0.024366039782762527,
        0.05753623694181442,
        -0.005729062482714653,
        -0.026829881593585014,
        -0.027274418622255325,
        0.017630865797400475,
        0.007430426310747862,
        0.04796262085437775,
        -0.046164147555828094,
        0.027371810749173164,
        0.0020035235211253166,
        -0.04126499220728874,
        -0.036815982311964035,
        0.058365561068058014,
        -0.02373608574271202,
        -0.016365474089980125,
        -0.038493942469358444,
        0.012827892787754536,
        0.015398556366562843,
        0.06839466840028763,
        -0.009385671466588974,
        0.029668334871530533,
        0.030204668641090393,
        -0.04044858366250992,
        -0.011387120001018047,
        0.01183714997023344,
        0.014569447375833988,
        0.03745613992214203,
        -0.021456509828567505,
        0.04551421478390694,
        0.011393577791750431,
        0.04703924059867859,
        -0.024112112820148468,
        0.03546876460313797,
        0.023595599457621574,
        0.035104114562273026,
        -0.00509547209367156,
        0.036343108862638474,
        0.02741437591612339,
        -0.020564265549182892,
        -0.009396566078066826,
        0.07546498626470566,
        -0.028447777032852173,
        -0.008275232277810574,
        0.062480587512254715,
        0.009788190945982933,
        0.07197936624288559,
        -0.009110914543271065,
        -0.004133378155529499,
        0.0718681812286377,
        0.003712885081768036,
        0.020108912140130997,
        -0.02101031132042408,
        -0.0067931367084383965,
        0.007792071904987097,
        -0.021559543907642365,
        0.04705590382218361,
        0.04657452553510666,
        -0.008468776941299438,
        0.045985281467437744,
        -0.0114420922473073,
        -0.044721294194459915,
        0.04171035438776016,
        -0.030223367735743523,
        0.016963250935077667,
        0.059204548597335815,
        0.01932663284242153,
        -0.016545839607715607,
        0.03395402431488037,
        -0.023394489660859108,
        -0.027435174211859703,
        -0.015605170279741287,
        -0.03446832671761513,
        0.02127736434340477,
        -0.03807765990495682,
        0.02883707545697689,
        0.02801293320953846,
        -0.019831443205475807,
        -0.008708374574780464,
        0.021594231948256493,
        -0.020797837525606155,
        0.001444356283172965,
        0.009804483503103256,
        -0.04880641773343086,
        -0.04358139634132385,
        0.03983774036169052,
        0.02296600677073002,
        -0.0018611891428008676,
        0.016411447897553444,
        0.042755767703056335,
        0.04212620109319687,
        0.04434419795870781,
        -0.017130540683865547,
        -0.006485700607299805,
        -0.00539819523692131,
        0.004668146837502718,
        -0.03794725984334946,
        0.051852043718099594,
        0.00781971774995327,
        -0.010053691454231739,
        0.0040477872826159,
        0.03547375276684761,
        -0.022589653730392456,
        -0.010140452533960342,
        -0.04634690284729004,
        0.02566106617450714,
        -0.0011802481021732092,
        -0.013795599341392517,
        0.02959560789167881,
        -0.02239372208714485,
        0.06425325572490692,
        0.029268505051732063,
        0.008440776728093624,
        0.07001134753227234,
        -0.04817502573132515,
        0.050360213965177536,
        0.04217197373509407,
        -0.0274640042334795,
        -0.046635907143354416,
        0.03386261686682701,
        0.010594169609248638,
        -0.019126221537590027,
        -0.03740189969539642,
        0.03530532494187355,
        0.03901698440313339,
        0.022513169795274734,
        0.016592182219028473,
        -0.03464922681450844,
        -0.0037140222266316414,
        0.013528737239539623,
        0.04448314756155014,
        -0.02376447431743145,
        -0.0216591227799654,
        0.030589383095502853,
        -0.003859462682157755,
        0.045844633132219315,
        -0.00035149886389262974,
        -0.05128663033246994,
        -0.01633443310856819,
        -0.04565611854195595,
        0.02772577852010727,
        -0.0488060861825943,
        -0.07935639470815659,
        0.010465707629919052,
        -0.00067299441434443,
        -0.07207409292459488,
        0.030194299295544624,
        -0.009121066890656948,
        0.0010707549517974257,
        -0.05051153153181076,
        0.0012011328944936395,
        0.0332716628909111,
        -0.001703440910205245,
        0.04968089610338211,
        0.005736358463764191,
        0.0022581019438803196,
        -0.04743769392371178,
        -0.030190356075763702,
        0.023117847740650177,
        0.04174051806330681,
        0.024940067902207375,
        0.03131856024265289,
        -0.0015624999068677425,
        0.00923254992812872,
        -0.04549451544880867,
        -0.044829096645116806,
        -0.04483006149530411,
        -0.03017948754131794,
        0.007928620092570782,
        -0.040141761302948,
        0.044470950961112976,
        0.021694691851735115,
        0.01729212887585163,
        -0.026407212018966675,
        0.04311539605259895,
        0.03754880651831627,
        0.015150883235037327,
        -0.02413954585790634,
        -0.015627967193722725,
        0.060964759439229965,
        0.057115864008665085,
        -0.009780536405742168,
        0.014883996918797493,
        -0.018674395978450775,
        0.02015030011534691,
        -0.008238759823143482,
        0.034505173563957214,
        0.046587035059928894,
        0.02499314583837986,
        0.0029609082266688347,
        0.04109445586800575,
        -0.0346338115632534,
        -0.030404329299926758,
        0.042109597474336624,
        0.015163629315793514,
        0.036998700350522995,
        0.056587956845760345,
        0.00044916063779965043,
        -0.014421255327761173,
        -0.01950393058359623,
        -0.04501182585954666,
        -0.0180093701928854,
        -0.049005985260009766,
        -0.006604761816561222,
        -0.009917601943016052,
        -0.01223636046051979,
        -0.008154199458658695,
        0.008337506093084812,
        0.03479946032166481,
        0.012943217530846596,
        0.02609347738325596,
        -0.009602799080312252,
        0.026027187705039978,
        0.01556344237178564,
        0.0035491655580699444,
        -0.0030660671181976795,
        -0.04080439731478691,
        -0.0157446451485157,
        0.05532585456967354,
        -0.016612812876701355,
        0.039070066064596176,
        0.07622337341308594,
        0.02632436342537403,
        0.044831860810518265,
        -0.014489218592643738,
        0.02530648559331894,
        -0.045156996697187424,
        -0.022686533629894257,
        0.05350768193602562,
        0.01573486626148224,
        0.04421797767281532,
        0.04492869973182678,
        -0.04902997985482216,
        -0.004073851276189089,
        -0.00909013394266367,
        -0.03614835813641548,
        0.023374507203698158,
        0.09465006738901138,
        0.09173700958490372,
        -0.03249663487076759,
        -0.01121528074145317,
        0.06696072220802307,
        -0.02064659260213375,
        0.0035504146944731474,
        0.05537578463554382,
        0.05042886734008789,
        -0.045740313827991486,
        0.032709989696741104,
        0.04293748736381531,
        -0.026661770418286324,
        0.006468555890023708,
        0.019600477069616318,
        -0.040057070553302765,
        -0.020783012732863426,
        0.01786160282790661,
        -0.032484617084264755,
        0.027485039085149765,
        0.020752640441060066,
        0.018967026844620705,
        0.040691833943128586,
        0.034849368035793304,
        -0.022820904850959778,
        0.0016628262819722295,
        0.049763575196266174,
        -0.012214912101626396,
        0.005322373006492853,
        -0.014517777599394321,
        -0.0412912480533123,
        -0.050377462059259415,
        -0.026619285345077515,
        0.013410859741270542,
        -0.03133951500058174,
        -0.03625697270035744,
        -0.05425868183374405,
        -0.0477188415825367,
        0.043813712894916534,
        0.039371613413095474,
        0.007933132350444794,
        -0.025610441341996193,
        -0.0033424166031181812,
        -0.01435584295541048,
        -0.024743683636188507,
        -0.04070156440138817,
        -0.020427852869033813,
        -0.004311283119022846,
        0.01658891886472702,
        0.041048623621463776,
        0.040735408663749695,
        -0.009940813295543194,
        -0.04295991733670235,
        -0.03247595578432083,
        0.013827227056026459,
        0.030741851776838303,
        0.03694361820816994,
        -0.017647715285420418,
        0.039930760860443115,
        -0.022281428799033165,
        -0.0284289363771677,
        0.027601782232522964,
        -0.016729015856981277,
        0.06610724329948425,
        0.06037268042564392,
        0.07417230308055878,
        0.0372183695435524,
        -0.017081579193472862,
        0.061578795313835144,
        -0.00883351918309927,
        -0.03797538951039314,
        0.04263608157634735,
        0.028073877096176147,
        0.00510392477735877,
        -0.021922070533037186,
        -0.0026350803673267365,
        0.01603260077536106,
        0.05755103379487991,
        0.002109157619997859,
        -0.0035788053646683693,
        -0.035342514514923096,
        -0.003632218111306429,
        -0.012246635742485523,
        -0.02522088959813118,
        0.0315137542784214,
        -0.03677135705947876,
        0.03361383453011513,
        0.011840741150081158,
        -0.003813945921137929,
        -0.01788187399506569,
        0.01422632485628128,
        -0.000443199765868485,
        0.04343339800834656,
        0.042540907859802246,
        -0.043594226241111755,
        0.03541870042681694,
        -0.03697206825017929,
        0.03813778981566429,
        0.009085078723728657,
        -0.042476825416088104,
        0.04628376662731171,
        0.03768487274646759,
        -0.0017970375483855605,
        -0.026234766468405724,
        0.045232560485601425,
        -0.010347673669457436,
        -0.04898231104016304,
        -0.022886762395501137,
        0.069578617811203,
        0.050107236951589584,
        0.04879283159971237,
        0.02713632397353649,
        0.025115711614489555,
        0.04871957749128342,
        0.012901891022920609,
        -0.010985820554196835,
        0.050514962524175644,
        -0.04187992215156555,
        -0.03909740969538689,
        -0.024759523570537567,
        0.05299965292215347,
        0.015541876666247845,
        -0.031938232481479645,
        0.016670480370521545,
        0.03541409596800804,
        -0.007325936108827591,
        0.0062418230809271336,
        0.0393969900906086,
        0.0386178195476532,
        0.0739346519112587,
        -0.027709584683179855,
        0.04710090905427933,
        0.05270170047879219,
        -0.027062134817242622,
        -0.05120755359530449,
        -0.015012789517641068,
        -0.010471775196492672,
        -0.010144815780222416,
        -0.010300922207534313,
        -0.014706715941429138,
        -0.027098029851913452,
        -0.024294940754771233,
        -0.03901033103466034,
        -0.04122552275657654,
        -0.009489730931818485,
        -0.009666740894317627,
        -0.031403154134750366,
        0.006814786233007908,
        0.051784075796604156,
        -0.03407275304198265,
        0.02515307441353798,
        0.03086002729833126,
        0.049708835780620575,
        0.03856950253248215,
        -0.020637622103095055,
        0.005523087922483683,
        -0.03103826381266117,
        -0.008866618387401104,
        -0.04527116194367409,
        0.019205152988433838,
        -0.008281446062028408,
        0.028812039643526077,
        -0.0497441403567791,
        -0.042841244488954544,
        -0.006116900127381086,
        -0.002974701812490821,
        0.04870005324482918,
        -0.02478763274848461,
        -0.061955854296684265,
        -0.04186052456498146,
        -0.06464116275310516,
        -0.011726822704076767,
        0.00807078555226326,
        -0.03378070890903473,
        -0.03273845091462135,
        -0.006496559362858534,
        0.00972642470151186,
        -0.024737007915973663,
        0.012429035268723965,
        0.0006801449926570058,
        0.02572954073548317,
        0.032726116478443146,
        0.04392441734671593,
        0.00943777710199356,
        -0.022539034485816956,
        -0.00002417916402919218,
        0.04591219872236252,
        -0.039299700409173965,
        0.07253190875053406,
        0.0343872494995594,
        -0.02906360849738121,
        0.007367616519331932,
        -0.021167881786823273,
        0.02916145510971546,
        0.04240984097123146,
        0.012849481776356697,
        0.03388584405183792,
        -0.03875608369708061,
        0.0031184025574475527,
        -0.03584379702806473,
        0.010561803355813026,
        -0.03591913357377052,
        -0.029387684538960457,
        -0.023194851353764534,
        0.038164928555488586,
        0.03896099328994751,
        -0.030616141855716705,
        0.048292841762304306,
        -0.027192221954464912,
        0.053843602538108826,
        0.04511069133877754,
        0.05220144987106323,
        0.018839187920093536,
        -0.014094948768615723,
        -0.014296618290245533,
        0.054720181971788406,
        0.0626116693019867,
        -0.0355440154671669,
        -0.005597294773906469
      ],
      "kernelShape": [
        3,
        3,
        8,
        16
      ],
      "bias": [
        -0.0000947294247453101,
        0.05205126479268074,
        0.04775680601596832,
        0.00010526020923862234,
        0.08086609840393066,
        0.04340144991874695,
        0.05635331571102142,
        0.0003596448223106563,
        0.06680013984441757,
        0.10606460273265839,
        -0.009234932251274586,
        0.0016953072044998407,
        0.01596152037382126,
        0.052206359803676605,
        -0.00007396693399641663,
        0.032771602272987366
      ],
      "outShape": [
        1,
        11,
        11,
        16
      ]
    },
    {
      "type": "pool",
      "windowH": 2,
      "windowW": 2,
      "strideH": 2,
      "strideW": 2,
      "outShape": [
        1,
        5,
        5,
        16
      ],
      "channels": 16
    },
    {
      "type": "flatten",
      "size": 400
    },
    {
      "type": "dense",
      "inputSize": 400,
      "outputSize": 64,
      "activation": "relu",
      "weights": [
        -0.015409824438393116,
        0.0060398150235414505,
        -0.003933004103600979,
        0.0011009917361661792,
        0.012061619199812412,
        0.022532111033797264,
        0.009683696553111076,
        0.01135509368032217,
        0.014863220043480396,
        0.015637636184692383,
        -0.013495033606886864,
        -0.005601526238024235,
        0.018643440678715706,
        0.029900718480348587,
        -0.011006925255060196,
        -0.029204118996858597,
        0.009594198316335678,
        -0.01063541043549776,
        0.01724759303033352,
        0.01908421702682972,
        -0.0009546228684484959,
        -0.028517168015241623,
        -0.011014723218977451,
        0.027066830545663834,
        0.017923664301633835,
        -0.02620624750852585,
        -0.016484497115015984,
        -0.01771640218794346,
        0.004996312316507101,
        -0.0088258758187294,
        0.012588289566338062,
        -0.016226379200816154,
        0.01033629197627306,
        -0.011294594034552574,
        -0.00967047642916441,
        -0.02824876829981804,
        0.019481750205159187,
        -0.0000036538767744787037,
        0.0010949753923341632,
        0.013239432126283646,
        0.004264151211827993,
        -0.0013523453380912542,
        0.0024529066868126392,
        -0.0128245884552598,
        0.00017126675811596215,
        0.004152276087552309,
        0.009942525997757912,
        -0.01484614796936512,
        0.0037156182806938887,
        -0.007682123687118292,
        0.020203735679388046,
        -0.015511931851506233,
        0.006515997461974621,
        -0.010925828479230404,
        0.01247207261621952,
        -0.013998816721141338,
        0.03013705089688301,
        0.023798201233148575,
        0.02523989975452423,
        -0.018030967563390732,
        0.012328042648732662,
        0.024755334481596947,
        -0.01769731007516384,
        -0.013650249689817429,
        -0.030948515981435776,
        -0.019618233665823936,
        0.01620112732052803,
        -0.00026401839568279684,
        0.0016167884459719062,
        -0.013916976749897003,
        0.026156777516007423,
        0.009994031861424446,
        0.0074656251817941666,
        0.0234646238386631,
        0.0031859176233410835,
        -0.023422418162226677,
        -0.0075525506399571896,
        0.004174553789198399,
        -0.028483835980296135,
        0.026445694267749786,
        0.02450934611260891,
        0.007449233438819647,
        -0.02734317258000374,
        -0.01723558083176613,
        0.006141052581369877,
        0.032998226583004,
        -0.010801766067743301,
        -0.0030376233626157045,
        0.022243237122893333,
        -0.029123714193701744,
        -0.012309504672884941,
        0.011666053906083107,
        0.02780371904373169,
        -0.006417563650757074,
        0.011724389158189297,
        0.0035141685511916876,
        -0.008954883553087711,
        0.022341525182127953,
        -0.010403025895357132,
        0.028363166376948357,
        -0.0011713997228071094,
        0.02308019809424877,
        -0.03462015837430954,
        -0.0019855566788464785,
        -0.010046297684311867,
        0.022595813497900963,
        0.008931240998208523,
        0.010830273851752281,
        -0.02426704578101635,
        0.01703731343150139,
        -0.02971760369837284,
        0.008907437324523926,
        0.011457283981144428,
        0.03439430147409439,
        -0.007918375544250011,
        -0.007573906797915697,
        0.007860030047595501,
        0.034616194665431976,
        0.017377417534589767,
        -0.026167506352066994,
        -0.007240830920636654,
        -0.002103675389662385,
        0.0017914247000589967,
        -0.030958062037825584,
        0.02499988116323948,
        0.023213539272546768,
        -0.02793010137975216,
        0.034236665815114975,
        -0.010156492702662945,
        0.001372236292809248,
        0.027733024209737778,
        -0.020488545298576355,
        -0.029188495129346848,
        0.026607003062963486,
        -0.0012611072743311524,
        0.005702682305127382,
        -0.011820717714726925,
        -0.012537716887891293,
        0.019838225096464157,
        0.035720422863960266,
        0.0216941200196743,
        -0.0034275876823812723,
        0.02793983742594719,
        -0.030212320387363434,
        0.026821402832865715,
        -0.010460793040692806,
        0.005151030141860247,
        -0.011152331717312336,
        -0.00641266442835331,
        -0.02809738554060459,
        0.020367445424199104,
        0.029238196089863777,
        0.03173966705799103,
        0.021178677678108215,
        0.014023025520145893,
        -0.007382471580058336,
        0.0004052056174259633,
        -0.005279556382447481,
        -0.0005079031107015908,
        -0.023772457614541054,
        0.011591772548854351,
        0.0317218042910099,
        0.002222217619419098,
        0.022369379177689552,
        -0.034284498542547226,
        0.021729474887251854,
        0.01139057893306017,
        0.015586805529892445,
        0.023370245471596718,
        0.026105983182787895,
        0.022021517157554626,
        0.03579236567020416,
        0.0331924632191658,
        -0.024777887389063835,
        -0.005630796775221825,
        -0.0017642569728195667,
        0.021293578669428825,
        -0.01107044704258442,
        -0.008274849504232407,
        -0.03272734582424164,
        0.00261357007548213,
        0.012004082091152668,
        -0.004411236848682165,
        0.017871778458356857,
        0.007334456779062748,
        0.01871412619948387,
        -0.020782645791769028,
        -0.0062216841615736485,
        -0.015289787203073502,
        -0.031203029677271843,
        -0.01802314817905426,
        -0.018964635208249092,
        -0.0008661635802127421,
        -0.005069897510111332,
        -0.022923797369003296,
        0.0007042547222226858,
        -0.015400555916130543,
        0.015585689805448055,
        -0.013424569740891457,
        -0.0055759018287062645,
        -0.018987955525517464,
        -0.015898406505584717,
        -0.030364971607923508,
        -0.01831897348165512,
        -0.017615431919693947,
        -0.03392353653907776,
        0.02319338545203209,
        -0.030313687399029732,
        -0.011043587699532509,
        0.011188766919076443,
        0.012457226403057575,
        -0.021340420469641685,
        -0.005268659442663193,
        0.0177615899592638,
        -0.011001773178577423,
        0.013972141779959202,
        -0.0060125356540083885,
        0.018907446414232254,
        -0.016801323741674423,
        0.007749876007437706,
        -0.010050831362605095,
        -0.011038500815629959,
        0.0018208224792033434,
        0.005655389744788408,
        0.021947896108031273,
        -0.027888577431440353,
        0.018643712624907494,
        0.03209306299686432,
        0.022903697565197945,
        -0.004171979147940874,
        -0.01815110817551613,
        0.032785072922706604,
        -0.018182480707764626,
        0.014250406995415688,
        0.0009092479012906551,
        0.007949156686663628,
        0.008152976632118225,
        0.008857904933393002,
        -0.02011437714099884,
        0.02887149155139923,
        -0.029564136639237404,
        -0.009974652901291847,
        -0.022791080176830292,
        0.017151901498436928,
        0.004782739095389843,
        0.022217286750674248,
        -0.0002724016667343676,
        -0.025816282257437706,
        -0.033889010548591614,
        -0.0023855804465711117,
        -0.016895098611712456,
        0.03509029746055603,
        0.02523263916373253,
        -0.007684318348765373,
        0.017842033877968788,
        0.008908587507903576,
        -0.029054472222924232,
        -0.004367810674011707,
        -0.0056902081705629826,
        0.018703535199165344,
        -0.024614740163087845,
        -0.026872314512729645,
        0.0025813060346990824,
        0.017160266637802124,
        -0.0042045521549880505,
        0.003032143460586667,
        0.023727810010313988,
        -0.026411037892103195,
        -0.024198267608880997,
        -0.03142241761088371,
        0.022982807829976082,
        0.019258614629507065,
        -0.009429152123630047,
        -0.015154516324400902,
        -0.014652255922555923,
        0.011936575174331665,
        0.024821801111102104,
        -0.02947799675166607,
        0.02465670183300972,
        -0.020423823967576027,
        0.003004429629072547,
        -0.016513068228960037,
        0.005969490855932236,
        0.025573624297976494,
        0.008283124305307865,
        0.02333563007414341,
        -0.016177192330360413,
        0.013071204535663128,
        0.02388373576104641,
        -0.026167862117290497,
        -0.028160570189356804,
        -0.013096700422465801,
        0.007917816750705242,
        -0.02004038169980049,
        -0.02720746397972107,
        0.019370894879102707,
        0.021868837997317314,
        -0.0028065647929906845,
        -0.0022982878144830465,
        0.030069302767515182,
        0.030357887968420982,
        -0.010327407158911228,
        -0.027620630338788033,
        0.01902647130191326,
        -0.01581893488764763,
        -0.0182997714728117,
        -0.01426298450678587,
        -0.011185256764292717,
        0.00620462279766798,
        -0.022940976545214653,
        0.006188154220581055,
        0.02324732393026352,
        0.012564794160425663,
        0.02445445954799652,
        -0.024610530585050583,
        -0.01146820466965437,
        0.00858717318624258,
        -0.019055940210819244,
        -0.02314450591802597,
        0.017990663647651672,
        0.013273059390485287,
        -0.012745058164000511,
        0.03421587124466896,
        0.02450045756995678,
        0.020442038774490356,
        0.011969337239861488,
        0.012286062352359295,
        -0.012442595325410366,
        -0.02923385426402092,
        0.023831481114029884,
        0.02425745688378811,
        0.022237107157707214,
        0.005705362185835838,
        -0.006191775668412447,
        -0.013647605665028095,
        -0.0026091819163411856,
        0.009209939278662205,
        0.007161883171647787,
        -0.014827920123934746,
        -0.001959164859727025,
        -0.00907678622752428,
        0.00819531548768282,
        -0.00026861391961574554,
        -0.005826618988066912,
        -0.01748598739504814,
        -0.006546225398778915,
        0.005387034732848406,
        -0.006730819121003151,
        0.019086821004748344,
        -0.001577658229507506,
        0.01898687705397606,
        -0.015504810027778149,
        -0.027908768504858017,
        -0.009777512401342392,
        -0.015107016079127789,
        0.017886612564325333,
        0.006558828521519899,
        -0.020866667851805687,
        0.018688984215259552,
        -0.010923614725470543,
        -0.023239897564053535,
        -0.00919568631798029,
        0.02718459628522396,
        -0.007435723673552275,
        0.004035284277051687,
        0.012916992418467999,
        -0.018004082143306732,
        0.006475687026977539,
        0.006412066984921694,
        0.020537912845611572,
        0.015566583722829819,
        0.006967063061892986,
        0.00012117968435632065,
        -0.000977690564468503,
        -0.0023758679162710905,
        0.020319253206253052,
        -0.02465357817709446,
        -0.00016979462816379964,
        0.022345487028360367,
        -0.0036367953289300203,
        0.022365104407072067,
        0.030302809551358223,
        0.0033532348461449146,
        0.012948262505233288,
        0.031371429562568665,
        -0.004238924477249384,
        0.006527618505060673,
        -0.03237631916999817,
        -0.0014034223277121782,
        0.023062627762556076,
        -0.024746544659137726,
        -0.023805486038327217,
        0.0309271439909935,
        -0.015281332656741142,
        0.02978014387190342,
        -0.030957212671637535,
        -0.030293764546513557,
        0.01785251870751381,
        0.010764590464532375,
        -0.028287870809435844,
        0.015785550698637962,
        -0.0013384637422859669,
        0.005766659509390593,
        -0.007337549235671759,
        -0.0287402905523777,
        -0.014098793268203735,
        0.0317043699324131,
        0.024346979334950447,
        0.008495913818478584,
        -0.004302322398871183,
        0.002581494627520442,
        0.025485826656222343,
        0.03260023891925812,
        0.012606197968125343,
        -0.00014248730440158397,
        -0.01963065005838871,
        0.015497167594730854,
        0.002120302291586995,
        0.010552413761615753,
        0.01645936258137226,
        0.02612580917775631,
        -0.013309902511537075,
        -0.026368943974375725,
        0.001539168762974441,
        0.019155699759721756,
        -0.020485568791627884,
        -0.019463859498500824,
        -0.012637327425181866,
        0.012751366011798382,
        -0.015234814956784248,
        -0.019705213606357574,
        0.0049144127406179905,
        -0.012228262610733509,
        0.0062453835271298885,
        0.004679595120251179,
        0.003003812162205577,
        0.025326188653707504,
        0.006385144777595997,
        -0.002764611504971981,
        0.010124343447387218,
        -0.013499615713953972,
        -0.02395711839199066,
        0.00885947048664093,
        0.00975917186588049,
        0.02886149100959301,
        -0.025620965287089348,
        -0.028328601270914078,
        0.0059707933105528355,
        -0.029930472373962402,
        -0.0042338902130723,
        0.015790553763508797,
        -0.031223982572555542,
        0.012857513502240181,
        0.01695459708571434,
        -0.014137160032987595,
        -0.011608156375586987,
        -0.007072572596371174,
        0.0006226374534890056,
        0.02869962342083454,
        0.01368362084031105,
        0.01612248085439205,
        -0.022977186366915703,
        0.02265162393450737,
        0.0044306982308626175,
        -0.020785145461559296,
        0.02586224116384983,
        0.024866577237844467,
        0.004600045271217823,
        0.024836914613842964,
        0.03193964436650276,
        0.01839764602482319,
        0.00519134383648634,
        0.01778438501060009,
        0.03325223550200462,
        0.031720638275146484,
        0.010222184471786022,
        -0.022035114467144012,
        -0.00445540202781558,
        0.00646178750321269,
        0.017239023000001907,
        -0.0005351495346985757,
        -0.027047980576753616,
        -0.01684422977268696,
        -0.02012280933558941,
        -0.029927391558885574,
        -0.006896267645061016,
        -0.030407261103391647,
        -0.01234931219369173,
        0.004801472183316946,
        0.00002031220901699271,
        0.027628310024738312,
        0.008981353603303432,
        0.022979548200964928,
        0.0003620055504143238,
        0.012858168222010136,
        -0.03049742616713047,
        -0.019229523837566376,
        -0.00612069433555007,
        0.027200846001505852,
        -0.0036839682143181562,
        0.014098078943789005,
        -0.029983673244714737,
        0.0028930315747857094,
        0.01941794529557228,
        0.0031080362387001514,
        -0.0204020943492651,
        -0.028791414573788643,
        0.03322846442461014,
        0.0069192880764603615,
        -0.0010608327575027943,
        0.010932584293186665,
        -0.030509941279888153,
        -0.02104330062866211,
        -0.02475213073194027,
        0.032284148037433624,
        -0.02801775000989437,
        -0.025686148554086685,
        -0.029405193403363228,
        -0.012959858402609825,
        -0.019371410831809044,
        0.023402536287903786,
        -0.021039005368947983,
        -0.011691675521433353,
        -0.01604347489774227,
        0.005165976472198963,
        0.030639998614788055,
        0.022409893572330475,
        0.02781984768807888,
        -0.011787252500653267,
        0.010550153441727161,
        0.022997820749878883,
        0.021940259262919426,
        0.011254343204200268,
        -0.01907806657254696,
        0.020689666271209717,
        0.028960784897208214,
        0.02617470547556877,
        -0.02343602478504181,
        -0.021454166620969772,
        -0.021526727825403214,
        0.007048849947750568,
        -0.03001798503100872,
        -0.0069555435329675674,
        0.02105444110929966,
        -0.016114316880702972,
        0.019124820828437805,
        0.012512771412730217,
        0.023466551676392555,
        0.018477488309144974,
        0.02034378983080387,
        -0.02385905012488365,
        0.029249660670757294,
        -0.024326542392373085,
        0.01511747669428587,
        0.03029276430606842,
        -0.030244773253798485,
        -0.0003955085703637451,
        0.004020331893116236,
        0.02120293490588665,
        0.028150293976068497,
        -0.018404696136713028,
        -0.022037910297513008,
        0.03236060589551926,
        0.0043350933119654655,
        0.019408131018280983,
        0.024311915040016174,
        -0.009301615878939629,
        0.021527178585529327,
        -0.005893911700695753,
        -0.02840685471892357,
        -0.02593255788087845,
        0.025013430044054985,
        -0.02180078811943531,
        -0.02158946357667446,
        -0.0259522944688797,
        -0.01836402341723442,
        -0.013073290698230267,
        0.00046272913459688425,
        -0.0013023788342252374,
        0.027113985270261765,
        0.009118826128542423,
        -0.015008094720542431,
        -0.009989842772483826,
        -0.030746469274163246,
        0.005315747577697039,
        0.00786061305552721,
        -0.02681438811123371,
        0.02332990989089012,
        -0.019647331908345222,
        -0.006282577756792307,
        -0.02060116082429886,
        0.016700897365808487,
        0.0026556875091046095,
        -0.014659719541668892,
        0.0009052911773324013,
        -0.01589733175933361,
        -0.02170458622276783,
        -0.023166293278336525,
        0.01473530475050211,
        -0.0021540105808526278,
        0.026712484657764435,
        -0.014398117549717426,
        0.003777200123295188,
        0.03201380372047424,
        0.00033098048879764974,
        0.014641731046140194,
        -0.00320077920332551,
        0.018704062327742577,
        -0.014284308068454266,
        -0.030887242406606674,
        0.019817836582660675,
        -0.03241027146577835,
        0.02383599802851677,
        0.02022821642458439,
        -0.021991830319166183,
        0.002573832869529724,
        0.0014600077411159873,
        0.027615545317530632,
        -0.02398117445409298,
        0.03218642994761467,
        0.02242155931890011,
        0.018156269565224648,
        -0.002167867263779044,
        0.013780293986201286,
        -0.0324474573135376,
        0.034617260098457336,
        0.03453599289059639,
        0.015224636532366276,
        0.010887878015637398,
        0.000833129626698792,
        -0.014479639008641243,
        0.01876251772046089,
        0.013248258270323277,
        -0.0025040500331670046,
        0.016815824434161186,
        0.01106784027069807,
        0.02553553692996502,
        0.03324183076620102,
        -0.0007906059618107975,
        -0.024832477793097496,
        0.02195747382938862,
        -0.02308533526957035,
        -0.008720030076801777,
        0.015287863090634346,
        0.01574840024113655,
        -0.012767113745212555,
        0.015002792701125145,
        0.024774638935923576,
        0.03284138813614845,
        0.027282577008008957,
        0.01887860707938671,
        -0.020159974694252014,
        0.017418310046195984,
        -0.010597842745482922,
        0.0014098604442551732,
        0.008085506968200207,
        0.005070588551461697,
        0.006100859027355909,
        -0.022552764043211937,
        0.0120913777500391,
        -0.0009580561309121549,
        0.02069833129644394,
        0.011882198974490166,
        0.024822650477290154,
        0.003962489310652018,
        0.0002135683171218261,
        -0.004795069340616465,
        -0.02129976451396942,
        0.032121963798999786,
        0.029714928939938545,
        -0.02598547376692295,
        0.009855514392256737,
        0.022834748029708862,
        0.030106738209724426,
        -0.0018592565320432186,
        0.010337418876588345,
        -0.006436735857278109,
        -0.03309813141822815,
        0.019912397488951683,
        -0.002112594898790121,
        -0.029670927673578262,
        -0.027104293927550316,
        0.015515602193772793,
        -0.020016632974147797,
        0.027703627943992615,
        0.023836452513933182,
        0.0006259275833144784,
        -0.033318497240543365,
        -0.01981712505221367,
        -0.029026567935943604,
        -0.0343736931681633,
        -0.008602239191532135,
        -0.028690487146377563,
        -0.020597049966454506,
        0.025079524144530296,
        -0.01209370419383049,
        0.024414455518126488,
        0.01808975450694561,
        0.012842475436627865,
        0.020814640447497368,
        -0.019893428310751915,
        -0.013614592142403126,
        -0.026047833263874054,
        0.00021312219905667007,
        0.017310988157987595,
        0.0196188073605299,
        0.027858687564730644,
        -0.0019702333956956863,
        0.024651018902659416,
        -0.014862545765936375,
        -0.01268656738102436,
        0.020527373999357224,
        -0.010770383290946484,
        0.022832516580820084,
        -0.018338194116950035,
        -0.010133357718586922,
        -0.0060945963487029076,
        -0.015837257727980614,
        0.017244383692741394,
        -0.01462757308036089,
        0.028292782604694366,
        0.0056935944594442844,
        0.011937389150261879,
        -0.02388589456677437,
        -0.0019054650329053402,
        0.012930363416671753,
        0.008168593049049377,
        -0.02367205172777176,
        -0.029478413984179497,
        0.029713695868849754,
        0.024659844115376472,
        0.016245167702436447,
        0.0275409035384655,
        -0.0172059815376997,
        0.029439952224493027,
        0.029229845851659775,
        -0.021636761724948883,
        0.02891455963253975,
        -0.021215813234448433,
        -0.010340864770114422,
        0.007613002322614193,
        0.002777109621092677,
        0.025325391441583633,
        0.02962394990026951,
        0.029195379465818405,
        0.010675991885364056,
        0.007338958326727152,
        0.005527046043425798,
        -0.016032487154006958,
        -0.03168477490544319,
        0.022849932312965393,
        0.010776824317872524,
        -0.013771687634289265,
        0.009851187467575073,
        -0.022946640849113464,
        0.006267784163355827,
        0.027274852618575096,
        -0.014631073921918869,
        0.0028858850710093975,
        0.011121297255158424,
        -0.022468354552984238,
        -0.011473122984170914,
        0.004250385798513889,
        -0.013083193451166153,
        0.019008733332157135,
        -0.01969580352306366,
        0.0004766240599565208,
        -0.026499129831790924,
        0.0027662911452353,
        -0.03125758096575737,
        -0.03307595103979111,
        0.032716911286115646,
        0.030800316482782364,
        -0.032475195825099945,
        -0.012195877730846405,
        -0.020092815160751343,
        -0.017845354974269867,
        -0.020889488980174065,
        0.012923942878842354,
        -0.010502675548195839,
        -0.005031691398471594,
        -0.02346714958548546,
        -0.02150827646255493,
        -0.0303023774176836,
        0.004920524545013905,
        0.012938037514686584,
        -0.013794325292110443,
        0.02148374915122986,
        -0.018551452085375786,
        -0.003551060101017356,
        0.02559523843228817,
        -0.02997741475701332,
        -0.004930032882839441,
        0.0201051514595747,
        0.00009809728362597525,
        0.012346613220870495,
        0.005587778985500336,
        -0.019030427560210228,
        -0.028685975819826126,
        -0.003968114499002695,
        -0.010682977735996246,
        0.0008980694110505283,
        -0.02044455148279667,
        -0.0009180543129332364,
        0.0034697004593908787,
        -0.006822376977652311,
        0.026112191379070282,
        -0.018694372847676277,
        0.012506892904639244,
        -0.026405826210975647,
        -0.029437348246574402,
        -0.02236041985452175,
        -0.015608146786689758,
        0.010259835049510002,
        0.027663836255669594,
        0.008224633522331715,
        0.012298370711505413,
        0.00043871544767171144,
        -0.009381042793393135,
        -0.01294112578034401,
        -0.025044798851013184,
        -0.022659525275230408,
        0.02638911083340645,
        0.025973975658416748,
        -0.0009591428679414093,
        -0.006699095480144024,
        -0.017870953306555748,
        -0.014171857386827469,
        -0.008915629237890244,
        0.03291458263993263,
        0.0025399920996278524,
        0.038599856197834015,
        -0.015427308157086372,
        -0.014830788597464561,
        -0.025940056890249252,
        0.021491268649697304,
        0.005914260633289814,
        0.03497649356722832,
        0.03866012394428253,
        0.0028690951876342297,
        -0.008281784132122993,
        0.02964017167687416,
        0.025296123698353767,
        0.016935765743255615,
        -0.029804406687617302,
        0.011524265632033348,
        -0.02824927121400833,
        0.027621731162071228,
        -0.0029381937347352505,
        0.005891851615160704,
        0.018633577972650528,
        -0.020035607740283012,
        0.02396233193576336,
        -0.004317581653594971,
        0.018246693536639214,
        0.008982250466942787,
        -0.025093315169215202,
        0.007186274975538254,
        -0.0004883246147073805,
        -0.027349108830094337,
        -0.008893619291484356,
        -0.005809014663100243,
        -0.007717691361904144,
        -0.02669178880751133,
        0.004423373844474554,
        0.02489546127617359,
        -0.01967853121459484,
        0.010079428553581238,
        -0.005005297251045704,
        0.013980619609355927,
        0.013940763659775257,
        0.012855011969804764,
        0.026174381375312805,
        -0.010054221376776695,
        -0.02254859358072281,
        0.0014802025398239493,
        -0.006580017041414976,
        -0.010905361734330654,
        -0.006008810363709927,
        -0.026449210941791534,
        -0.012093222700059414,
        0.006975426804274321,
        0.01955094188451767,
        -0.004101329017430544,
        -0.009334404021501541,
        0.029001884162425995,
        -0.0006582704372704029,
        0.02518083155155182,
        -0.02099454216659069,
        0.020602334290742874,
        -0.03236379474401474,
        -0.0005614791298285127,
        0.01662999391555786,
        0.026799622923135757,
        0.018153056502342224,
        0.013071452267467976,
        0.015917643904685974,
        -0.02730000950396061,
        -0.004312098491936922,
        -0.018345249816775322,
        -0.019648024812340736,
        0.026736298575997353,
        -0.03391456604003906,
        0.006734432652592659,
        -0.029727347195148468,
        0.004165890626609325,
        -0.019298331812024117,
        -0.00934901088476181,
        -0.026335665956139565,
        -0.024979805573821068,
        -0.0033223736099898815,
        0.014571510255336761,
        0.017198214307427406,
        -0.018626997247338295,
        -0.011036679148674011,
        -0.02597789466381073,
        0.029656032100319862,
        -0.009796954691410065,
        0.024782689288258553,
        0.03120853565633297,
        -0.01826373301446438,
        0.023967839777469635,
        -0.030227692797780037,
        0.02090981788933277,
        0.0045348904095590115,
        0.023042548447847366,
        0.014938149601221085,
        0.026082834228873253,
        0.03198867663741112,
        -0.012960643507540226,
        0.029630886390805244,
        -0.02618100494146347,
        -0.023357009515166283,
        0.04056013375520706,
        0.0026105172000825405,
        0.0009804856963455677,
        -0.014214339666068554,
        0.03027261048555374,
        0.02083692140877247,
        0.03545335307717323,
        0.02776416763663292,
        -0.031321216374635696,
        0.020734434947371483,
        -0.016532525420188904,
        -0.022795896977186203,
        -0.0342276357114315,
        0.02828904055058956,
        0.006972083356231451,
        0.021457618102431297,
        -0.01744822971522808,
        -0.028760874643921852,
        -0.0266154445707798,
        0.0264786034822464,
        -0.015772173181176186,
        -0.01582656055688858,
        -0.01742466539144516,
        -0.008394703269004822,
        0.002452484332025051,
        -0.02949885092675686,
        -0.017954932525753975,
        -0.012091592885553837,
        0.0294121615588665,
        0.034473005682229996,
        -0.015370900742709637,
        -0.03222586214542389,
        -0.021558159962296486,
        0.020884070545434952,
        -0.015705754980444908,
        -0.0290849506855011,
        -0.012847733683884144,
        0.027953367680311203,
        0.017498327419161797,
        -0.031658291816711426,
        -0.032125528901815414,
        -0.0064140730537474155,
        0.03374839201569557,
        -0.03244248032569885,
        -0.03474237397313118,
        0.031093401834368706,
        -0.0003589806437958032,
        0.027391664683818817,
        -0.02936442941427231,
        0.013601409271359444,
        -0.026127556338906288,
        -0.012846052646636963,
        0.021089857444167137,
        -0.02517760917544365,
        -0.012927009724080563,
        -0.011637667194008827,
        0.013801784254610538,
        0.02832806296646595,
        0.0033318663481622934,
        -0.0042514256201684475,
        -0.009563797153532505,
        0.030257657170295715,
        0.01696079596877098,
        -0.02260923758149147,
        0.03983910381793976,
        0.020983459427952766,
        0.007927720434963703,
        -0.02753368765115738,
        -0.01897805742919445,
        -0.026838451623916626,
        0.02142328955233097,
        -0.013388627208769321,
        0.008024262264370918,
        -0.013023712672293186,
        0.0051515791565179825,
        0.006248283199965954,
        0.03482227027416229,
        0.01579565741121769,
        0.0022755374666303396,
        -0.006961973384022713,
        0.0330394022166729,
        0.026956534013152122,
        -0.001794774318113923,
        -0.02636314556002617,
        0.0379706472158432,
        -0.028209572657942772,
        -0.025157153606414795,
        -0.005949918180704117,
        0.001907918369397521,
        0.017248596996068954,
        -0.033445194363594055,
        -0.006200753152370453,
        -0.01911255717277527,
        0.00232313247397542,
        -0.015262230299413204,
        -0.007921910844743252,
        -0.00888868048787117,
        -0.014882534742355347,
        -0.007140143774449825,
        0.008261216804385185,
        -0.0041260565631091595,
        0.02119363285601139,
        0.020047137513756752,
        -0.008940862491726875,
        0.013216092251241207,
        0.03024163842201233,
        0.008574504405260086,
        -0.012170439586043358,
        0.012724310159683228,
        -0.026980074122548103,
        0.028940681368112564,
        0.0290865208953619,
        0.03226948902010918,
        -0.012063342146575451,
        0.008513426408171654,
        -0.007528339978307486,
        -0.004529043100774288,
        -0.02354414574801922,
        0.03239250183105469,
        -0.00495432922616601,
        0.03161204233765602,
        -0.0025670917239040136,
        -0.0029772291891276836,
        -0.016210604459047318,
        0.026145916432142258,
        -0.018971575424075127,
        0.016765989363193512,
        -0.010625515133142471,
        0.0068834698759019375,
        0.01402980275452137,
        -0.005768944509327412,
        -0.0096657183021307,
        -0.028956418856978416,
        -0.023973386734724045,
        -0.015276464633643627,
        0.02812129817903042,
        -0.01799684390425682,
        -0.03207583352923393,
        0.009718515910208225,
        -0.027734315022826195,
        0.011066927574574947,
        -0.013990006409585476,
        -0.020723789930343628,
        -0.021366454660892487,
        0.037164147943258286,
        -0.021245282143354416,
        -0.023994384333491325,
        0.00020377403416205198,
        -0.01172757986932993,
        -0.030018340796232224,
        0.028317969292402267,
        -0.025201940909028053,
        0.017232745885849,
        -0.01698494143784046,
        0.015096846036612988,
        0.03169792518019676,
        -0.016759347170591354,
        0.004619026556611061,
        0.010796306654810905,
        0.005970156751573086,
        0.035340629518032074,
        0.03611491620540619,
        -0.002865151036530733,
        -0.01160721480846405,
        0.022763585671782494,
        -0.006375589873641729,
        0.027363713830709457,
        0.03513028472661972,
        0.01916838251054287,
        0.028885850682854652,
        -0.021571828052401543,
        0.02771136723458767,
        -0.014463238418102264,
        0.01341288909316063,
        0.012499420903623104,
        0.021801412105560303,
        -0.027508366852998734,
        -0.004009850323200226,
        0.0007465367089025676,
        -0.014504010789096355,
        -0.002435179427266121,
        -0.025143591687083244,
        0.008603168651461601,
        -0.02694966271519661,
        0.010464997962117195,
        0.00870399922132492,
        0.001487372093833983,
        0.004384575877338648,
        0.0260982196778059,
        0.020315269008278847,
        -0.005893604829907417,
        0.024789975956082344,
        0.007583026308566332,
        -0.005926080048084259,
        -0.028576098382472992,
        -0.014352947473526001,
        -0.018939143046736717,
        0.029884785413742065,
        -0.027649054303765297,
        -0.02040710486471653,
        0.0021908546332269907,
        -0.0018725341651588678,
        0.015168821439146996,
        -0.001118288142606616,
        0.003406277857720852,
        -0.00818206463009119,
        0.013528360053896904,
        -0.019935110583901405,
        0.009538779966533184,
        0.022764842957258224,
        0.0031936541199684143,
        0.03138895332813263,
        0.011363592930138111,
        -0.019496701657772064,
        -0.02167913131415844,
        0.0089601781219244,
        0.018440289422869682,
        -0.02341500297188759,
        0.010521418415009975,
        -0.0022988938726484776,
        0.037075597792863846,
        0.018247809261083603,
        -0.02163735404610634,
        0.020931510254740715,
        0.024238601326942444,
        -0.011070746928453445,
        -0.02740996889770031,
        -0.016322754323482513,
        -0.01236835215240717,
        -0.027382830157876015,
        0.01928272470831871,
        -0.02705816924571991,
        0.028000975027680397,
        -0.030273260548710823,
        0.007391889113932848,
        0.0062427399680018425,
        0.021709512919187546,
        -0.0034242623951286077,
        0.02919650264084339,
        -0.023283805698156357,
        0.0292793158441782,
        0.03686302527785301,
        0.0030483456794172525,
        0.01775907166302204,
        -0.0038311826065182686,
        0.011296235956251621,
        0.018467595800757408,
        0.028303485363721848,
        -0.007241877261549234,
        -0.003825549269095063,
        -0.009764007292687893,
        0.012606186792254448,
        0.028452321887016296,
        0.011996972374618053,
        0.019375348463654518,
        -0.02444215677678585,
        -0.029050955548882484,
        -0.0040429262444376945,
        0.008198628202080727,
        0.03231476992368698,
        0.03023488260805607,
        -0.028685713186860085,
        0.00864263717085123,
        -0.022177400067448616,
        0.03347017616033554,
        0.007427986245602369,
        -0.018474720418453217,
        0.012296736240386963,
        0.022343410179018974,
        -0.02950930781662464,
        0.010887442156672478,
        -0.020815972238779068,
        0.017311112955212593,
        -0.02610541321337223,
        -0.006096989382058382,
        0.01698530651628971,
        0.023048160597682,
        0.02796678990125656,
        -0.032098401337862015,
        0.007157806307077408,
        0.0065698702819645405,
        -0.00041336705908179283,
        -0.0280038733035326,
        0.017826886847615242,
        -0.0180965606123209,
        0.02009584940969944,
        -0.008937999606132507,
        -0.014983361586928368,
        -0.018025478348135948,
        -0.01350131444633007,
        0.018289659172296524,
        0.02867821976542473,
        0.009167410433292389,
        -0.006178333889693022,
        0.031083252280950546,
        0.007103714160621166,
        -0.03070809692144394,
        -0.016237663105130196,
        -0.024952765554189682,
        -0.018721796572208405,
        -0.006943096872419119,
        -0.02395189367234707,
        0.021352196112275124,
        0.022804755717515945,
        -0.011137734167277813,
        0.03075701929628849,
        0.012516182847321033,
        0.019770817831158638,
        0.016215668991208076,
        0.0192105770111084,
        0.016266915947198868,
        -0.031235506758093834,
        -0.017264029011130333,
        -0.025175148621201515,
        0.029210666194558144,
        -0.023473316803574562,
        -0.023396098986268044,
        0.014961694367229939,
        0.03181523457169533,
        0.016390662640333176,
        -0.025184594094753265,
        0.01479072030633688,
        -0.012204548344016075,
        -0.02635536715388298,
        0.025083523243665695,
        0.0028282718267291784,
        -0.002717389725148678,
        0.013680372387170792,
        0.02972954884171486,
        0.023478031158447266,
        -0.024777939543128014,
        0.019193245097994804,
        -0.005627478938549757,
        0.024626625701785088,
        -0.03145613521337509,
        -0.029565559700131416,
        -0.020742734894156456,
        0.009276746772229671,
        0.01681014709174633,
        -0.02350730448961258,
        0.009380007162690163,
        -0.026486290618777275,
        -0.021488133817911148,
        0.016757426783442497,
        -0.02197457104921341,
        -0.024133550003170967,
        0.0004889631527476013,
        -0.02140570618212223,
        0.010376776568591595,
        -0.0058506024070084095,
        0.030777450650930405,
        0.025019852444529533,
        -0.027796776965260506,
        -0.005313607398420572,
        0.008675722405314445,
        0.013884104788303375,
        -0.031808048486709595,
        -0.0017951547633856535,
        -0.031981680542230606,
        -0.018251340836286545,
        0.0027116278652101755,
        -0.020941970869898796,
        -0.030381157994270325,
        -0.02775725908577442,
        0.003443261608481407,
        -0.029689159244298935,
        -0.01981252431869507,
        0.02360626310110092,
        0.01672922819852829,
        0.02052341401576996,
        0.005256349686533213,
        -0.02225673384964466,
        0.017626849934458733,
        0.01060476340353489,
        0.013265793211758137,
        -0.019863462075591087,
        0.022403618320822716,
        0.011652369052171707,
        0.023147808387875557,
        0.014586510136723518,
        -0.028614630922675133,
        -0.02205866016447544,
        -0.02209504134953022,
        0.01982066035270691,
        0.014807604253292084,
        -0.028633572161197662,
        0.02704133652150631,
        -0.002931722206994891,
        -0.030532829463481903,
        -0.01953241042792797,
        -0.005043971352279186,
        -0.013799253851175308,
        0.021047843620181084,
        -0.015266922302544117,
        0.029598379507660866,
        -0.0005625842022709548,
        -0.021556653082370758,
        0.009845084510743618,
        -0.008224098943173885,
        0.011007952503859997,
        -0.016559425741434097,
        0.020391887053847313,
        0.026397662237286568,
        -0.014075611717998981,
        -0.012608629651367664,
        0.019869472831487656,
        -0.017777804285287857,
        -0.020816916599869728,
        -0.01453518308699131,
        -0.005048591643571854,
        -0.014236164279282093,
        -0.00590456323698163,
        0.015832193195819855,
        0.005729262251406908,
        -0.022544531151652336,
        -0.0000462720199720934,
        0.012888338416814804,
        0.02940983884036541,
        0.012707766145467758,
        -0.02678573504090309,
        -0.009258764795958996,
        -0.0008532345527783036,
        0.011392352171242237,
        0.013268896378576756,
        0.02372128702700138,
        0.01828397810459137,
        -0.008817068301141262,
        -0.02294078841805458,
        -0.01593329757452011,
        -0.020872559398412704,
        -0.025235339999198914,
        -0.025670047849416733,
        0.030405942350625992,
        0.02300749346613884,
        -0.008969299495220184,
        -0.026345884427428246,
        -0.010367274284362793,
        0.030947212129831314,
        0.017042038962244987,
        -0.01499756146222353,
        0.023539014160633087,
        0.004468321800231934,
        -0.018297454342246056,
        0.020318474620580673,
        -0.0103675602003932,
        0.02593444660305977,
        -0.024295028299093246,
        -0.02747948467731476,
        -0.00880530383437872,
        0.005322822369635105,
        -0.02429313026368618,
        -0.032372329384088516,
        0.03157002851366997,
        -0.032371263951063156,
        -0.011683487333357334,
        -0.028601406142115593,
        0.016305377706885338,
        -0.02865484170615673,
        -0.0008944185683503747,
        0.01644362136721611,
        -0.0077583761885762215,
        -0.02215474657714367,
        0.021437067538499832,
        -0.014916031621396542,
        -0.000025366283807670698,
        -0.02039465494453907,
        -0.005438528954982758,
        -0.002720676362514496,
        -0.006024048663675785,
        -0.010985611006617546,
        -0.013290561735630035,
        0.019772488623857498,
        -0.01356515008956194,
        -0.006721712648868561,
        -0.02055051177740097,
        0.010024037212133408,
        0.024573031812906265,
        -0.0010327422060072422,
        -0.029773002490401268,
        0.01262203324586153,
        0.02358154207468033,
        -0.01925450749695301,
        0.027481110766530037,
        0.025204338133335114,
        0.027609003707766533,
        0.017984410747885704,
        -0.0027496113907545805,
        -0.023643895983695984,
        -0.03161971643567085,
        -0.009471766650676727,
        0.02088543400168419,
        0.014744263142347336,
        0.008481570519506931,
        -0.006517515052109957,
        -0.02720307745039463,
        0.025731876492500305,
        0.009963368996977806,
        -0.026622183620929718,
        0.029567910358309746,
        0.032721374183893204,
        -0.0029743066988885403,
        -0.0006141358171589673,
        -0.01252038311213255,
        -0.010230590589344501,
        -0.013209151104092598,
        -0.010298524983227253,
        0.02550465241074562,
        -0.02884596399962902,
        0.023973161354660988,
        0.03138583526015282,
        -0.015003706328570843,
        0.012115631252527237,
        0.022146331146359444,
        -0.02553488314151764,
        -0.00240723742172122,
        -0.003124530892819166,
        -0.025796767324209213,
        0.026914579793810844,
        0.019956788048148155,
        -0.005870705936104059,
        -0.030864834785461426,
        -0.03161557391285896,
        0.012918648310005665,
        -0.01968415454030037,
        0.02260673977434635,
        -0.013486073352396488,
        0.02527347020804882,
        -0.0018149684183299541,
        -0.020371388643980026,
        0.021581120789051056,
        0.008029253222048283,
        0.023021019995212555,
        -0.021613648161292076,
        -0.026800161227583885,
        -0.031311940401792526,
        0.012059192173182964,
        -0.02297462336719036,
        -0.009687899611890316,
        -0.0051697916351258755,
        0.024955404922366142,
        -0.031482383608818054,
        0.023080240935087204,
        -0.024537716060876846,
        0.008266402408480644,
        -0.02112049236893654,
        -0.030279329046607018,
        -0.023720357567071915,
        0.032442860305309296,
        -0.0028423429466784,
        -0.005673460196703672,
        0.02725508064031601,
        -0.03120349533855915,
        0.007059701718389988,
        0.02340158075094223,
        -0.031497418880462646,
        -0.023767543956637383,
        0.02793046645820141,
        -0.019858932122588158,
        -0.0321044847369194,
        -0.007645695004612207,
        0.022222846746444702,
        0.0017248623771592975,
        -0.007284707389771938,
        -0.014672855846583843,
        0.026247000321745872,
        -0.02004501037299633,
        -0.024272311478853226,
        0.0134165920317173,
        0.0073091438971459866,
        -0.0031429054215550423,
        -0.024561181664466858,
        -0.012688214890658855,
        -0.028014332056045532,
        -0.019697945564985275,
        0.009081585332751274,
        0.007064245641231537,
        -0.027625257149338722,
        -0.002452997025102377,
        -0.02989800088107586,
        0.006112474948167801,
        -0.0046318951062858105,
        -0.01741619035601616,
        -0.02453945018351078,
        0.006525060161948204,
        -0.006971682421863079,
        0.009612555615603924,
        0.01495550200343132,
        -0.005581234581768513,
        -0.014752013608813286,
        -0.0006059856968931854,
        -0.020953159779310226,
        0.029334956780076027,
        -0.006388611160218716,
        0.015629639849066734,
        -0.023735079914331436,
        0.0019293907098472118,
        0.005602410063147545,
        0.02158629521727562,
        -0.028325162827968597,
        -0.001254569971933961,
        -0.025519434362649918,
        0.010211245156824589,
        -0.0029982607811689377,
        0.0020934827625751495,
        0.0023877823259681463,
        0.029674643650650978,
        -0.0008756021270528436,
        0.009100538678467274,
        0.002675075549632311,
        -0.014923641458153725,
        0.008354583755135536,
        0.019703546538949013,
        0.011400766670703888,
        -0.03022291697561741,
        0.01966424472630024,
        0.02185162343084812,
        -0.017811110243201256,
        0.01780073530972004,
        -0.0027436597738415003,
        0.014907412230968475,
        0.011965060606598854,
        -0.02714613825082779,
        0.014729375950992107,
        0.01589321903884411,
        -0.0021627170499414206,
        0.01627669669687748,
        -0.028835907578468323,
        -0.029319755733013153,
        0.002939377212896943,
        0.014974369667470455,
        0.02194136008620262,
        -0.001575311878696084,
        -0.012101653032004833,
        0.02553883008658886,
        0.016151955351233482,
        -0.0023767498787492514,
        -0.004874400794506073,
        -0.02897747792303562,
        -0.012033091858029366,
        0.018651265650987625,
        0.030740566551685333,
        0.009747039526700974,
        0.024381088092923164,
        -0.004279350396245718,
        0.0050576794892549515,
        -0.03097914531826973,
        -0.013250666670501232,
        -0.029928604140877724,
        -0.0228281207382679,
        0.0019648727029561996,
        0.01635528728365898,
        0.014644947834312916,
        0.01563866063952446,
        -0.029120804741978645,
        0.031016988679766655,
        -0.010633166879415512,
        -0.005174670368432999,
        -0.0005851755850017071,
        0.016487427055835724,
        -0.001891863881610334,
        -0.021127715706825256,
        0.009990837424993515,
        0.013349351473152637,
        -0.011493424884974957,
        -0.0013801859458908439,
        -0.017484599724411964,
        -0.02806512825191021,
        -0.00577887799590826,
        0.001364789204671979,
        0.005899875890463591,
        -0.009368051774799824,
        0.0000696641654940322,
        0.0005272328853607178,
        -0.01980641484260559,
        -0.007181753404438496,
        0.02662934735417366,
        -0.022792799398303032,
        -0.017528384923934937,
        -0.02720850706100464,
        0.01788700930774212,
        0.004864588845521212,
        0.005181781016290188,
        0.022062474861741066,
        0.010934286750853062,
        0.02005467563867569,
        0.0006830495549365878,
        -0.02488083392381668,
        0.028590627014636993,
        -0.02690001018345356,
        0.015569038689136505,
        -0.021542323753237724,
        0.006775784771889448,
        0.01569833979010582,
        -0.01690145581960678,
        0.004663506057113409,
        0.014319898560643196,
        -0.001972001977264881,
        -0.024199502542614937,
        0.0017092351336032152,
        -0.0015470912912860513,
        0.003976030740886927,
        0.01886802352964878,
        0.028856102377176285,
        -0.021417507901787758,
        -0.022372480481863022,
        0.030020220205187798,
        0.01979365199804306,
        -0.006051244679838419,
        -0.016892243176698685,
        0.023567644879221916,
        0.012131008319556713,
        0.023788901045918465,
        -0.007162348832935095,
        -0.010545961558818817,
        0.003145410679280758,
        0.000219183144508861,
        0.02322983369231224,
        -0.004926702007651329,
        0.011825700290501118,
        -0.009274900890886784,
        0.02361535280942917,
        -0.03232976049184799,
        -0.010253575630486012,
        -0.010446052066981792,
        -0.0013449485413730145,
        0.03127789497375488,
        -0.02608524076640606,
        0.013299896381795406,
        0.0269624013453722,
        -0.005671374034136534,
        0.010666265152394772,
        0.016192186623811722,
        0.0024737699422985315,
        0.016657471656799316,
        0.012018597684800625,
        0.02285926043987274,
        0.023050464689731598,
        0.003496872028335929,
        -0.01991128921508789,
        -0.023251809179782867,
        -0.014452805742621422,
        0.0031011065002530813,
        -0.025085167959332466,
        -0.028288429602980614,
        0.01743345893919468,
        -0.029057450592517853,
        0.025558337569236755,
        -0.008295015431940556,
        0.01152024231851101,
        0.031192708760499954,
        -0.01139442902058363,
        -0.01776774600148201,
        -0.01033876184374094,
        -0.004128831438720226,
        0.02289973571896553,
        -0.03098929114639759,
        -0.011576985009014606,
        -0.02948283962905407,
        -0.017835328355431557,
        0.029944606125354767,
        0.005612707231193781,
        0.009051698260009289,
        -0.005072878673672676,
        0.0070832581259310246,
        -0.020847398787736893,
        -0.02714288979768753,
        -0.027138326317071915,
        -0.01876264065504074,
        0.022702164947986603,
        0.01992517150938511,
        -0.031045716255903244,
        -0.01208581030368805,
        -0.019070684909820557,
        0.007285992614924908,
        -0.005536991637200117,
        -0.0017999591073021293,
        -0.00484856404364109,
        -0.0006077850703150034,
        0.019574632868170738,
        0.014384408481419086,
        -0.02387530356645584,
        0.027354955673217773,
        -0.006149090826511383,
        0.021210338920354843,
        0.029807664453983307,
        0.011021551676094532,
        -0.01618523895740509,
        -0.024851849302649498,
        0.010858112014830112,
        0.025943486019968987,
        0.008629546500742435,
        -0.0041578346863389015,
        -0.025767045095562935,
        -0.023600837215781212,
        -0.008699473924934864,
        -0.0282904040068388,
        0.0013363970210775733,
        0.030687879770994186,
        0.019918959587812424,
        0.013572379015386105,
        -0.027198340743780136,
        -0.005365567281842232,
        0.026847749948501587,
        0.01955822855234146,
        -0.004313316196203232,
        -0.005616290960460901,
        0.0297657772898674,
        0.019686542451381683,
        0.020674435421824455,
        0.009943227283656597,
        -0.008559131994843483,
        -0.016611745581030846,
        -0.028819555416703224,
        0.011305221356451511,
        -0.0138437170535326,
        -0.004815999418497086,
        -0.02279318869113922,
        -0.012262555770576,
        0.020845480263233185,
        -0.0318271778523922,
        -0.023324791342020035,
        0.004929869901388884,
        0.000158848735736683,
        -0.028642280027270317,
        0.028169238939881325,
        -0.001564500154927373,
        0.012316492386162281,
        -0.004959231708198786,
        -0.016500145196914673,
        -0.01352547574788332,
        -0.001119349617511034,
        0.006133834831416607,
        0.019355764612555504,
        0.0022317878901958466,
        0.0047016507014632225,
        0.023234525695443153,
        -0.030910568311810493,
        -0.030158493667840958,
        0.004118708893656731,
        -0.029458867385983467,
        0.021174907684326172,
        0.006970000918954611,
        0.02009476162493229,
        -0.019159086048603058,
        0.029770687222480774,
        0.01608988456428051,
        -0.03142634779214859,
        0.010481782257556915,
        -0.029538635164499283,
        -0.007912718690931797,
        0.022322556003928185,
        0.0075433626770973206,
        0.009869443252682686,
        -0.029322968795895576,
        0.02336113527417183,
        0.03089158609509468,
        -0.01855562999844551,
        -0.025050178170204163,
        -0.019052105024456978,
        -0.005747407674789429,
        -0.021147282794117928,
        0.017572071403265,
        0.019527075812220573,
        0.021299537271261215,
        -0.0010956315090879798,
        -0.0032457488123327494,
        0.004486796446144581,
        0.012778538279235363,
        0.02125675044953823,
        0.022410018369555473,
        -0.01202267874032259,
        0.02672014944255352,
        0.024241020902991295,
        -0.0025769895873963833,
        0.011678379029035568,
        -0.016611266881227493,
        0.020889118313789368,
        -0.02045033872127533,
        -0.03074187971651554,
        -0.022509438917040825,
        0.013433105312287807,
        -0.009802360087633133,
        -0.017274945974349976,
        -0.021317601203918457,
        0.02271728403866291,
        0.015196297317743301,
        -0.0317954383790493,
        -0.022465771064162254,
        0.02234805002808571,
        0.00018140590691473335,
        0.013564796186983585,
        0.002327512949705124,
        0.007117103319615126,
        0.02083456516265869,
        0.022908098995685577,
        -0.025767924264073372,
        0.027971159666776657,
        0.012285766191780567,
        -0.019963350147008896,
        -0.008863244205713272,
        -0.0320122130215168,
        0.010192463174462318,
        0.008966609835624695,
        -0.016581980511546135,
        0.02567940391600132,
        0.02038920857012272,
        -0.0016856780275702477,
        -0.012551417574286461,
        -0.018043747171759605,
        -0.008126632310450077,
        -0.0014102746499702334,
        0.01832175999879837,
        0.021454669535160065,
        0.00014440971426665783,
        0.020513487979769707,
        -0.026126544922590256,
        -0.016990067437291145,
        -0.026177963241934776,
        -0.007973932661116123,
        -0.0317862406373024,
        -0.01916445605456829,
        0.004325454123318195,
        -0.015896882861852646,
        0.00014163035666570067,
        -0.016651153564453125,
        -0.010609147138893604,
        0.0006967746303416789,
        0.0048680901527404785,
        0.03004704788327217,
        -0.027558350935578346,
        0.012107634916901588,
        -0.0185818113386631,
        -0.026402020826935768,
        -0.005654418375343084,
        0.0173543319106102,
        0.019529184326529503,
        -0.01116566639393568,
        0.00525879580527544,
        -0.012390335090458393,
        0.018946373835206032,
        0.025656312704086304,
        0.020504921674728394,
        -0.032241422683000565,
        0.025840256363153458,
        -0.017910638824105263,
        -0.007606400176882744,
        -0.006890558172017336,
        -0.029539383947849274,
        -0.014430100098252296,
        -0.009169206023216248,
        -0.00269145704805851,
        -0.01066004578024149,
        0.008745098486542702,
        0.018587445840239525,
        0.01992717944085598,
        0.014319008216261864,
        0.02827560529112816,
        -0.030027806758880615,
        -0.013607445172965527,
        0.012027851305902004,
        0.000545118993613869,
        -0.011308707296848297,
        -0.0025181469973176718,
        0.025752468034625053,
        0.02420864626765251,
        -0.002455185865983367,
        0.010690256021916866,
        0.0068888310343027115,
        0.00835439469665289,
        0.01568806730210781,
        -0.01943141780793667,
        0.0021407597232609987,
        0.011267246678471565,
        0.0110150882974267,
        0.018793990835547447,
        -0.025750301778316498,
        0.029244210571050644,
        -0.005784206558018923,
        -0.01799261011183262,
        0.0152053814381361,
        -0.03250318393111229,
        -0.027323175221681595,
        -0.02998187020421028,
        -0.004847322124987841,
        -0.029916811734437943,
        0.002524843206629157,
        0.014859583228826523,
        0.030682990327477455,
        -0.011104920879006386,
        0.022558555006980896,
        -0.016346655786037445,
        -0.021077068522572517,
        -0.019489455968141556,
        -0.030705275014042854,
        -0.02612379565834999,
        0.03176635131239891,
        0.024888571351766586,
        0.030614864081144333,
        -0.030330918729305267,
        0.011121592484414577,
        0.02265414036810398,
        -0.02966955304145813,
        0.014429323375225067,
        -0.01598435826599598,
        0.027412131428718567,
        -0.00017218980065081269,
        -0.02210909314453602,
        -0.02097715064883232,
        0.008281632326543331,
        0.029895341023802757,
        -0.03103695809841156,
        -0.023292480036616325,
        -0.030907709151506424,
        -0.0032649438362568617,
        0.019017228856682777,
        -0.0169393140822649,
        -0.010081387124955654,
        -0.00018077508138958365,
        0.022980716079473495,
        -0.024154307320713997,
        -0.014993646182119846,
        0.0058831870555877686,
        0.026922045275568962,
        0.013520992361009121,
        0.003253719536587596,
        0.019740642979741096,
        0.01985112577676773,
        -0.0071030110120773315,
        0.020307671278715134,
        -0.022187210619449615,
        0.028119729831814766,
        -0.023964816704392433,
        0.02484724670648575,
        -0.004642682150006294,
        -0.0051169549115002155,
        0.004862138535827398,
        -0.011255773715674877,
        0.01071244478225708,
        0.009226006455719471,
        -0.004517788998782635,
        -0.019545331597328186,
        0.01864044740796089,
        -0.018021998926997185,
        0.0040684170089662075,
        -0.009079132229089737,
        -0.020871959626674652,
        0.0007473774021491408,
        -0.031067926436662674,
        0.013563827611505985,
        0.016946086660027504,
        -0.0220450758934021,
        -0.028075657784938812,
        0.0033614328131079674,
        -0.02983551099896431,
        0.019817117601633072,
        0.02074861340224743,
        0.02508135698735714,
        -0.03035309910774231,
        0.013383005745708942,
        0.019618356600403786,
        -0.01757681369781494,
        0.005716327577829361,
        -0.0019503983203321695,
        0.027581633999943733,
        -0.0011921683326363564,
        -0.0007096425397321582,
        0.030018003657460213,
        -0.014538794755935669,
        0.030474675819277763,
        0.02434670366346836,
        0.030926549807190895,
        0.011168335564434528,
        0.017806848511099815,
        0.01738663949072361,
        0.008300097659230232,
        -0.02306792512536049,
        0.005843604914844036,
        0.024983130395412445,
        -0.005318205337971449,
