{
  "learningRate": 0.005,
  "layers": [
    {
      "type": "input",
      "shape": [
        1,
        28,
        28,
        1
      ]
    },
    {
      "type": "conv2d",
      "strideH": 1,
      "strideW": 1,
      "padTop": 0,
      "padBottom": 0,
      "padLeft": 0,
      "padRight": 0,
      "activation": "leakyRelu",
      "kernel": [
        0.22886651754379272,
        -1.0578211545944214,
        0.14867877960205078,
        -0.2590123116970062,
        0.10668773204088211,
        0.4569861888885498,
        1.3827224969863892,
        -0.9316374659538269,
        0.1243327185511589,
        0.12361365556716919,
        0.07429102063179016,
        0.7290055751800537,
        -0.8609954118728638,
        -0.20206916332244873,
        0.7122945785522461,
        -0.9143556952476501,
        -0.7485684752464294,
        0.6107766628265381,
        0.45897138118743896,
        -0.8312612771987915,
        0.024458670988678932,
        -0.7529095411300659,
        2.672794818878174,
        -0.7883166670799255,
        0.28404635190963745,
        -0.38343489170074463,
        0.5802791118621826,
        0.26995593309402466,
        1.00698983669281,
        -0.5297603607177734,
        2.363276720046997,
        0.6177411675453186,
        -0.1608486920595169,
        -1.9614007472991943,
        0.1490461379289627,
        0.39180487394332886,
        -0.6670005917549133,
        -1.66013765335083,
        0.6372193694114685,
        0.7401625514030457,
        -1.164322853088379,
        -0.07444774359464645,
        0.45239734649658203,
        -1.0946184396743774,
        -0.778942346572876,
        0.9949289560317993,
        0.16061025857925415,
        0.875524640083313,
        -0.7731007933616638,
        0.5261355638504028,
        -0.913254976272583,
        0.2717336416244507,
        -0.1894415020942688,
        -0.7098285555839539,
        2.593698024749756,
        -0.2070053219795227,
        -1.0395565032958984,
        0.35155731439590454,
        -0.8431965708732605,
        0.36559656262397766,
        0.6123681664466858,
        1.1109545230865479,
        3.105191230773926,
        -0.09730754047632217,
        -0.09459049254655838,
        -1.329960584640503,
        -0.7632805705070496,
        -0.7844166159629822,
        -0.6331830024719238,
        0.10987139493227005,
        1.6132826805114746,
        -0.31008055806159973
      ],
      "kernelShape": [
        3,
        3,
        1,
        8
      ],
      "bias": [
        0.6736436486244202,
        0.31456461548805237,
        -0.3186357617378235,
        0.02915593981742859,
        -0.02140129916369915,
        -0.3398597240447998,
        -15.404984474182129,
        -0.048532966524362564
      ],
      "outShape": [
        1,
        26,
        26,
        8
      ]
    },
    {
      "type": "pool",
      "windowH": 2,
      "windowW": 2,
      "strideH": 2,
      "strideW": 2,
      "outShape": [
        1,
        13,
        13,
        8
      ],
      "channels": 8
    },
    {
      "type": "conv2d",
      "strideH": 1,
      "strideW": 1,
      "padTop": 0,
      "padBottom": 0,
      "padLeft": 0,
      "padRight": 0,
      "activation": "leakyRelu",
      "kernel": [
        0.02546166256070137,
        -0.12707330286502838,
        -0.9036037921905518,
        -0.19462406635284424,
        -0.585084855556488,
        0.19937001168727875,
        -0.17277298867702484,
        0.095862977206707,
        0.010493296198546886,
        0.10560000687837601,
        -0.0633142739534378,
        -1.1545683145523071,
        -0.022900862619280815,
        -0.2471252977848053,
        -0.19177427887916565,
        -1.5485650300979614,
        0.11361666768789291,
        -0.5260658264160156,
        -2.192448377609253,
        0.39876434206962585,
        -0.3855877220630646,
        -0.09502860903739929,
        -0.041916538029909134,
        -0.21786513924598694,
        0.018388710916042328,
        0.2545549273490906,
        -0.24120169878005981,
        -2.2437517642974854,
        0.047358009964227676,
        0.06508375704288483,
        -0.03594444319605827,
        -3.092088460922241,
        0.13003996014595032,
        -1.5427167415618896,
        -0.23147282004356384,
        0.4960543215274811,
        -0.7864404916763306,
        0.03355292230844498,
        0.05282898247241974,
        -0.293014258146286,
        -0.00771942688152194,
        0.0008899462409317493,
        -0.03120352327823639,
        -1.086121678352356,
        -0.09844029694795609,
        0.21352945268154144,
        -0.09660075604915619,
        -1.1282122135162354,
        0.2347145974636078,
        0.7588454484939575,
        -1.6179872751235962,
        0.242833212018013,
        -0.17741070687770844,
        0.028990579769015312,
        -0.09317344427108765,
        -0.6626943945884705,
        -0.06289112567901611,
        -0.04003210365772247,
        0.34520068764686584,
        -1.078883171081543,
        0.28429773449897766,
        -0.15915252268314362,
        -0.1805471032857895,
        -0.5593873262405396,
        0.17008763551712036,
        0.15978308022022247,
        -1.6727837324142456,
        0.4427461326122284,
        -0.6215718984603882,
        -0.26819291710853577,
        -0.07137911766767502,
        -0.3165954053401947,
        -0.014654458500444889,
        0.17570747435092926,
        0.35542169213294983,
        -0.9977658987045288,
        0.02361179143190384,
        0.05107034370303154,
        -0.17843714356422424,
        -0.08556095510721207,
        0.5505232810974121,
        -0.07971767336130142,
        -0.33138495683670044,
        -0.4073040187358856,
        -0.3746735155582428,
        -0.29570960998535156,
        -0.027164097875356674,
        0.2565089762210846,
        -0.0036356712225824594,
        -1.3986936807632446,
        -0.8456301689147949,
        -0.3409634828567505,
        0.023013204336166382,
        -0.1049572005867958,
        -0.07852105796337128,
        -2.2544898986816406,
        -1.2045098543167114,
        1.2568296194076538,
        1.1593600511550903,
        -0.38081350922584534,
        0.2901756167411804,
        -0.5010059475898743,
        0.3751116693019867,
        -0.24957138299942017,
        -0.013486795127391815,
        -0.17704296112060547,
        0.13710065186023712,
        0.6338551640510559,
        -1.5823121070861816,
        -0.5591655373573303,
        -0.04001924395561218,
        1.0597862005233765,
        -0.3205885887145996,
        -0.2486390322446823,
        0.19122691452503204,
        -0.18686576187610626,
        0.049828995019197464,
        -0.0783005803823471,
        -0.02423083409667015,
        -0.09890538454055786,
        -0.17879609763622284,
        -0.2984616756439209,
        -0.4349902272224426,
        -0.2593591809272766,
        -0.04898003116250038,
        0.028047429397702217,
        -0.15244443714618683,
        0.02411600761115551,
        0.17695742845535278,
        0.5312046408653259,
        -1.1698291301727295,
        -0.30360671877861023,
        0.2849535346031189,
        0.155912846326828,
        -0.12512779235839844,
        -0.31263262033462524,
        0.05645965784788132,
        0.004798595327883959,
        -0.27450475096702576,
        -0.6058588624000549,
        -0.019128618761897087,
        -0.08290279656648636,
        -0.08487384766340256,
        -0.7262980937957764,
        -0.39068543910980225,
        -0.18131040036678314,
        -0.0653260201215744,
        -0.16429093480110168,
        -0.7361391186714172,
        -0.2389490008354187,
        0.03156308829784393,
        -0.2800523638725281,
        0.13412357866764069,
        0.468402624130249,
        -0.8242010474205017,
        -0.9116467833518982,
        -0.4878748655319214,
        0.08743239939212799,
        -0.1245962455868721,
        -0.04263744875788689,
        0.4433443248271942,
        0.5934424996376038,
        0.28115004301071167,
        -1.6175590753555298,
        -0.9636843800544739,
        0.10051880776882172,
        -0.09320279955863953,
        0.8216135501861572,
        -0.1458323448896408,
        -0.1708258092403412,
        -0.6744438409805298,
        -0.8237209320068359,
        -0.9168004393577576,
        0.002570606069639325,
        0.23412515223026276,
        -1.0458699464797974,
        -0.4334084987640381,
        0.09033035486936569,
        -1.0190720558166504,
        -0.7301319241523743,
        0.10118097811937332,
        0.1232822984457016,
        -0.01558835431933403,
        -1.0760315656661987,
        0.011454268358647823,
        -0.06123557314276695,
        0.16757453978061676,
        -1.2987415790557861,
        -0.0036605920176953077,
        -0.4617388844490051,
        -0.22623594105243683,
        -0.31417280435562134,
        -0.011287768371403217,
        -0.23559319972991943,
        -0.8548128008842468,
        0.28756022453308105,
        -0.3808298110961914,
        -0.31878748536109924,
        -0.07164700329303741,
        -1.2961980104446411,
        0.0791344866156578,
        -0.04440854489803314,
        -0.08743070811033249,
        -1.1108484268188477,
        0.013888168148696423,
        -0.1853872835636139,
        -0.10986360907554626,
        0.14419229328632355,
        -0.028433000668883324,
        0.22584563493728638,
        -0.5546097755432129,
        0.03407678008079529,
        -0.6563259959220886,
        0.28463780879974365,
        0.007512514945119619,
        -0.1186135932803154,
        -0.2349279522895813,
        -1.0113710165023804,
        -0.6909468770027161,
        -0.7510200142860413,
        -0.2212541103363037,
        -0.03432106971740723,
        0.004250380676239729,
        -1.2056833505630493,
        0.035034455358982086,
        -0.9369327425956726,
        0.07882597297430038,
        -0.40537261962890625,
        0.35938385128974915,
        0.9691059589385986,
        -0.28903043270111084,
        -1.0642269849777222,
        0.17865286767482758,
        0.09972918033599854,
        -0.1495925784111023,
        -0.22700253129005432,
        -1.6719800233840942,
        -3.073845386505127,
        -2.114715099334717,
        -0.3477404713630676,
        0.23763947188854218,
        0.28459063172340393,
        -0.2773720622062683,
        0.30326133966445923,
        0.045067306607961655,
        -0.10320033133029938,
        0.06354250758886337,
        0.17880959808826447,
        0.11690451949834824,
        -0.010832113213837147,
        -0.5320166349411011,
        -1.509406328201294,
        -0.9413348436355591,
        0.14588011801242828,
        0.4145946502685547,
        0.0900590568780899,
        -1.394909381866455,
        0.1623585969209671,
        -0.2924690842628479,
        -0.2327660471200943,
        0.03153844550251961,
        0.04230157658457756,
        -0.1742720752954483,
        -0.2876441776752472,
        0.06095706298947334,
        0.046582918614149094,
        -0.38600292801856995,
        -1.0027214288711548,
        -0.009058225899934769,
        0.04131414741277695,
        -0.10718570649623871,
        -0.37075522541999817,
        -0.022349422797560692,
        -0.06450877338647842,
        -0.19835463166236877,
        -1.4631743431091309,
        0.03550734743475914,
        -0.2064414918422699,
        0.04061184450984001,
        0.9477578997612,
        0.015072260051965714,
        0.06885244697332382,
        -0.36911559104919434,
        -1.0501916408538818,
        -0.27827396988868713,
        -0.03032774291932583,
        0.04996113479137421,
        0.06341637670993805,
        -0.9861988425254822,
        0.35565826296806335,
        -0.8057073950767517,
        0.3420165777206421,
        0.6492478251457214,
        -0.13343507051467896,
        -0.12996259331703186,
        -0.15670479834079742,
        -0.14704284071922302,
        0.10952003300189972,
        -0.7967520952224731,
        -1.035529375076294,
        -0.33626148104667664,
        0.2081766575574875,
        0.16795231401920319,
        -0.7435293197631836,
        -0.5134343504905701,
        -0.12307287752628326,
        -0.09702160209417343,
        -0.5273128151893616,
        0.3388351798057556,
        0.05717290937900543,
        0.15228068828582764,
        -0.7081003189086914,
        0.11729682236909866,
        -0.03815639764070511,
        0.059964269399642944,
        -0.5346126556396484,
        -0.04389707371592522,
        -0.41779279708862305,
        0.06440626084804535,
        0.04032643139362335,
        -0.09972873330116272,
        -0.04170670732855797,
        -0.09767641127109528,
        -0.7964774966239929,
        0.13331684470176697,
        -0.3082199990749359,
        0.19903448224067688,
        -0.3030109405517578,
        0.10952315479516983,
        0.18416368961334229,
        -0.07644624263048172,
        -0.9835965633392334,
        0.08663360029459,
        -0.4351729452610016,
        -0.0001140140593633987,
        0.32637473940849304,
        0.08624658733606339,
        0.09434230625629425,
        -0.7500874400138855,
        -0.4111274480819702,
        0.0748005211353302,
        0.022951515391469002,
        -0.08721116930246353,
        -0.2819586396217346,
        -0.033202409744262695,
        -0.9102237820625305,
        0.1598483920097351,
        -0.8784138560295105,
        -0.1296389251947403,
        0.1225758045911789,
        -0.10485106706619263,
        -0.5506752729415894,
        0.9047509431838989,
        -1.2919338941574097,
        0.07207965850830078,
        0.4129458963871002,
        -0.8674350380897522,
        0.15257477760314941,
        -0.8236169815063477,
        -0.9474686980247498,
        0.597557783126831,
        -0.36169594526290894,
        -0.36800655722618103,
        -0.14078247547149658,
        -0.6970199942588806,
        -3.3847832679748535,
        -1.6290420293807983,
        -0.7084048390388489,
        0.040239281952381134,
        0.02323019504547119,
        0.15275532007217407,
        -0.8410695791244507,
        -0.008204171434044838,
        -0.015034846030175686,
        -0.23039460182189941,
        -0.12024810910224915,
        -0.30684328079223633,
        0.04971582442522049,
        -0.2761867940425873,
        -0.49553531408309937,
        -0.23406054079532623,
        -0.09402333945035934,
        -0.11142776906490326,
        0.19620122015476227,
        0.15739598870277405,
        -2.1730074882507324,
        0.8235948085784912,
        -0.36970365047454834,
        -0.658733069896698,
        -0.16872648894786835,
        0.00717240571975708,
        0.4029662609100342,
        -0.0059092179872095585,
        -0.1923592984676361,
        -0.12661489844322205,
        -0.7511681914329529,
        0.02897350676357746,
        -0.1611587107181549,
        0.19524984061717987,
        -1.0436534881591797,
        0.06235000118613243,
        0.35941049456596375,
        -1.0700032711029053,
        0.5264943242073059,
        -0.7050458192825317,
        -0.11525454372167587,
        0.00240127369761467,
        -0.4166955351829529,
        -0.043200843036174774,
        0.5420905947685242,
        -0.5915757417678833,
        -1.979177474975586,
        -0.08048498630523682,
        0.07017111778259277,
        -0.15531867742538452,
        -3.0766191482543945,
        0.1337670385837555,
        -0.5590009093284607,
        0.04413378983736038,
        0.17456643283367157,
        -0.5597942471504211,
        0.04889136925339699,
        0.060455724596977234,
        -0.1732870638370514,
        0.10888288915157318,
        0.05026471987366676,
        0.05682538449764252,
        -0.810594916343689,
        -0.3075525760650635,
        0.2466128021478653,
        -0.1654372215270996,
        0.21762306988239288,
        -0.12313971668481827,
        -0.4303361773490906,
        0.3527635931968689,
        -0.9201496243476868,
        -0.9835672974586487,
        0.3708049952983856,
        -0.11844399571418762,
        0.2989213466644287,
        -0.10635533183813095,
        0.12782186269760132,
        -0.2155376523733139,
        -0.8341877460479736,
        -0.18448594212532043,
        -1.4693868160247803,
        0.10703752189874649,
        -1.4975285530090332,
        -0.29064634442329407,
        0.32683125138282776,
        -0.296141654253006,
        -0.1034335196018219,
        -0.2980194389820099,
        0.11594241112470627,
        -0.042740534991025925,
        -0.3435991406440735,
        0.02599143236875534,
        0.36578696966171265,
        -0.36206573247909546,
        -0.603681206703186,
        0.07774801552295685,
        -0.41832175850868225,
        -0.10407312214374542,
        -1.1363295316696167,
        0.3298681676387787,
        -0.9028538465499878,
        0.45449933409690857,
        0.0418698787689209,
        0.1534653902053833,
        -0.3190896809101105,
        -0.10775766521692276,
        0.4005871117115021,
        -0.10951991379261017,
        -0.4172300696372986,
        -0.16392093896865845,
        -0.0778459906578064,
        -0.06778811663389206,
        -0.06264785677194595,
        -0.052526362240314484,
        -1.995678424835205,
        0.12727342545986176,
        0.8036826252937317,
        -0.6321849822998047,
        0.05051703751087189,
        0.047846805304288864,
        -0.16167545318603516,
        0.7517710328102112,
        -0.16756825149059296,
        0.31495821475982666,
        -0.7599118947982788,
        0.21815656125545502,
        0.3829139769077301,
        -2.821185350418091,
        -0.5314977765083313,
        -2.3962814807891846,
        0.341013640165329,
        0.1944085955619812,
        -1.1910245418548584,
        -0.09144280105829239,
        0.3232481777667999,
        -0.8354705572128296,
        -0.024308256804943085,
        -0.0023332685232162476,
        -0.21597996354103088,
        -0.0455707386136055,
        -0.2769598364830017,
        -0.41554951667785645,
        -1.6728246212005615,
        -0.5101234912872314,
        0.17274726927280426,
        -0.0138821080327034,
        -2.0055770874023438,
        -1.5790098905563354,
        -0.07832300662994385,
        -0.5239882469177246,
        0.23575465381145477,
        -0.23782987892627716,
        -0.03735431283712387,
        -0.16187752783298492,
        0.04128630459308624,
        0.18687722086906433,
        -0.10992655158042908,
        0.9710180759429932,
        -0.19374917447566986,
        -0.0681694895029068,
        -0.03909170627593994,
        0.4754766523838043,
        -0.8921192288398743,
        -0.21376429498195648,
        0.19172367453575134,
        0.8255485892295837,
        -0.8516514897346497,
        0.006443571299314499,
        0.3158899247646332,
        -0.024974988773465157,
        0.1654076874256134,
        -0.15705513954162598,
        0.14506950974464417,
        -0.07380411773920059,
        -0.5605491995811462,
        -0.4152299761772156,
        -0.26749879121780396,
        0.15269339084625244,
        -0.9456446170806885,
        -0.9909197092056274,
        0.17792633175849915,
        -0.2620553970336914,
        -1.506711483001709,
        -1.1083388328552246,
        -0.024201633408665657,
        0.19754913449287415,
        0.10148365050554276,
        -0.11095575988292694,
        0.20867787301540375,
        0.2281138151884079,
        -0.7995406985282898,
        -1.3607842922210693,
        0.033303096890449524,
        0.26936134696006775,
        -0.22394374012947083,
        -1.2671456336975098,
        0.24998153746128082,
        0.7211634516716003,
        -0.26479101181030273,
        -0.04325096309185028,
        0.11827030777931213,
        0.1502344012260437,
        0.02906685322523117,
        0.11055280268192291,
        -0.3763122856616974,
        0.21784867346286774,
        -1.114113688468933,
        -0.0214090533554554,
        -2.582014560699463,
        -0.08558328449726105,
        -1.5864046812057495,
        -1.7275646924972534,
        0.3990144729614258,
        0.8242438435554504,
        -1.0915014743804932,
        -0.10355646908283234,
        0.22328943014144897,
        -0.020756753161549568,
        0.013638614676892757,
        -0.2827391028404236,
        0.07894362509250641,
        -0.022745689377188683,
        -0.723827064037323,
        0.01597699150443077,
        -1.0334898233413696,
        0.07218306511640549,
        -1.0337324142456055,
        -0.2809409499168396,
        -0.009749326854944229,
        0.11846143007278442,
        0.11125850677490234,
        -1.2687056064605713,
        -0.08513271808624268,
        -0.12214309722185135,
        0.22223983705043793,
        0.4199866056442261,
        -1.7370271682739258,
        -0.15096478164196014,
        -0.49991360306739807,
        -0.22000886499881744,
        -0.05675434321165085,
        -0.02917870320379734,
        -1.1845550537109375,
        -0.14972734451293945,
        -0.30127161741256714,
        -0.7660843729972839,
        -0.15676990151405334,
        0.14497444033622742,
        0.17936980724334717,
        0.22529585659503937,
        -1.1914407014846802,
        0.08438779413700104,
        0.15549015998840332,
        0.1746210902929306,
        -0.371442586183548,
        -2.3546502590179443,
        -2.1426873207092285,
        -5.571396350860596,
        -0.5070064663887024,
        0.0059562246315181255,
        0.6248230338096619,
        -0.19976994395256042,
        -0.38396406173706055,
        -0.6815724968910217,
        -0.12510140240192413,
        0.14455150067806244,
        0.48564836382865906,
        0.11367440968751907,
        -0.13572469353675842,
        -0.5134242177009583,
        -0.9119463562965393,
        -1.909744381904602,
        -0.27054908871650696,
        -0.24999459087848663,
        -0.719478964805603,
        -0.2741154730319977,
        0.04559707269072533,
        0.2186511754989624,
        0.32027024030685425,
        -0.0832432210445404,
        -0.07701665163040161,
        -0.3032929301261902,
        -0.2890036106109619,
        0.24519087374210358,
        0.025203511118888855,
        0.31344252824783325,
        -0.39879435300827026,
        -0.1383676677942276,
        0.07972782850265503,
        -0.055420804768800735,
        -1.3536193370819092,
        -0.3610886037349701,
        0.11421989649534225,
        -0.09858395159244537,
        -0.6395251154899597,
        -0.006118502467870712,
        0.06345976889133453,
        0.1546572893857956,
        0.4563046395778656,
        0.02303456887602806,
        0.27145612239837646,
        -0.12974293529987335,
        -0.6716344356536865,
        -0.5326830148696899,
        -0.3318672180175781,
        0.16267140209674835,
        -1.0127358436584473,
        -0.18108278512954712,
        0.020697837695479393,
        0.2314622849225998,
        0.7689530253410339,
        0.1387510746717453,
        -0.012798182666301727,
        -0.40395835041999817,
        -0.41566598415374756,
        -0.13500185310840607,
        -0.1896997094154358,
        -0.04759865999221802,
        -0.9264113306999207,
        -0.8981578946113586,
        -0.039545778185129166,
        0.005191528704017401,
        0.20158182084560394,
        -0.37208521366119385,
        -0.13164514303207397,
        -0.04421570152044296,
        0.023083088919520378,
        0.09079122543334961,
        0.09438464045524597,
        0.5130516886711121,
        0.027522994205355644,
        -0.020181838423013687,
        0.07044778019189835,
        0.05349387601017952,
        -0.1411147117614746,
        0.0837487131357193,
        -1.6221779584884644,
        -0.2385360598564148,
        -0.09709539264440536,
        -0.3771711587905884,
        0.03583650663495064,
        0.28788620233535767,
        -0.3310483694076538,
        0.09407126903533936,
        -0.027998773381114006,
        0.3043860197067261,
        0.6408984065055847,
        -0.36669328808784485,
        -0.19197510182857513,
        0.10207927227020264,
        -0.582663893699646,
        0.03416594862937927,
        -0.6851577162742615,
        -0.17010918259620667,
        -0.277652382850647,
        -1.2994457483291626,
        0.3200056552886963,
        -0.12095317989587784,
        0.47840455174446106,
        0.17797225713729858,
        0.1805538684129715,
        0.18304619193077087,
        -0.45171627402305603,
        0.09413164108991623,
        -1.3548587560653687,
        -0.0469416081905365,
        -0.7258414626121521,
        -0.025237446650862694,
        -0.13122281432151794,
        -0.07712405174970627,
        -1.4468345642089844,
        -0.32745876908302307,
        -0.6815061569213867,
        0.38535723090171814,
        -0.14226970076560974,
        -0.9148892164230347,
        0.255952924489975,
        -1.2216547727584839,
        -1.6128958463668823,
        -0.20370811223983765,
        -0.06975685060024261,
        0.1531062126159668,
        -0.2444438934326172,
        -1.591642141342163,
        -2.596493721008301,
        -4.373743534088135,
        -0.07863526046276093,
        -0.18750889599323273,
        -0.18536081910133362,
        -1.8551323413848877,
        -0.5482875108718872,
        0.05875076353549957,
        0.14945317804813385,
        -0.002167399739846587,
        -0.15390534698963165,
        -0.1294817328453064,
        0.223830446600914,
        0.054809074848890305,
        -1.1243095397949219,
        -1.5264413356781006,
        0.21671879291534424,
        -0.038805413991212845,
        0.14942646026611328,
        -0.3062174618244171,
        -0.07205557078123093,
        0.5226349830627441,
        -0.40133148431777954,
        -0.5562829971313477,
        -0.20156069099903107,
        -0.28268495202064514,
        -0.23525720834732056,
        0.19211621582508087,
        0.03421183302998543,
        -0.9722092747688293,
        -1.452852487564087,
        -0.08978566527366638,
        -0.4710486829280853,
        -0.20330797135829926,
        0.23556804656982422,
        0.1068936362862587,
        0.11466857045888901,
        -0.3369627892971039,
        -0.04887773469090462,
        -0.7380055785179138,
        0.02833825722336769,
        0.08467352390289307,
        -0.048544347286224365,
        -0.1771657019853592,
        0.22680118680000305,
        -0.12514600157737732,
        -1.7108653783798218,
        -0.13214914500713348,
        0.013710489496588707,
        -0.1975695639848709,
        0.22952497005462646,
        0.011400888673961163,
        -0.20479914546012878,
        -0.04012707620859146,
        -0.12073623389005661,
        -0.09007946401834488,
        0.16531679034233093,
        0.27850377559661865,
        -0.15372899174690247,
        0.24001480638980865,
        0.06327240914106369,
        0.25586777925491333,
        -0.9891469478607178,
        -0.28466397523880005,
        0.1286897510290146,
        -0.18593138456344604,
        0.5334187746047974,
        -1.2672885656356812,
        -1.2104926109313965,
        0.6617316007614136,
        0.0956268385052681,
        -1.7871071100234985,
        -0.42929983139038086,
        -0.1426199972629547,
        0.19793492555618286,
        -0.33929118514060974,
        -0.10387904942035675,
        -0.44089895486831665,
        -1.0655767917633057,
        0.3888745605945587,
        -0.6327120661735535,
        0.1635095179080963,
        -0.6570195555686951,
        -0.10003948956727982,
        -0.6725071668624878,
        0.41498738527297974,
        -0.5928052067756653,
        -0.7129401564598083,
        0.2702453136444092,
        -0.05162186920642853,
        0.23472823202610016,
        -0.2508556544780731,
        0.08376754820346832,
        -0.15090812742710114,
        -0.8287879228591919,
        -0.03790517896413803,
        -0.3906465172767639,
        0.01146399974822998,
        -0.024227023124694824,
        0.29859763383865356,
        -0.3607209324836731,
        0.208805650472641,
        -0.1462111622095108,
        0.3567867577075958,
        0.15005090832710266,
        -0.07877432554960251,
        0.003450327552855015,
        0.11262138187885284,
        -0.3453804552555084,
        0.08026964217424393,
        -0.17365741729736328,
        0.17666587233543396,
        -0.11260616034269333,
        0.03968139737844467,
        -0.40921103954315186,
        1.2869418859481812,
        0.1090172529220581,
        -0.25849518179893494,
        1.480019450187683,
        0.31100746989250183,
        1.6112680435180664,
        -0.9809638261795044,
        -0.6235345602035522,
        0.8505715727806091,
        -1.092616081237793,
        -1.877293348312378,
        0.756640613079071,
        -2.7557406425476074,
        -0.12883201241493225,
        -2.5187277793884277,
        -0.15339118242263794,
        0.2931939363479614,
        -0.8421154022216797,
        0.03650322183966637,
        0.3828611671924591,
        -0.5466242432594299,
        0.2259824424982071,
        0.14342914521694183,
        -0.06486015021800995,
        0.23728308081626892,
        -0.02985967881977558,
        0.07930386066436768,
        -1.6609535217285156,
        -0.41526520252227783,
        0.17953214049339294,
        -0.07005417346954346,
        -1.603423833847046,
        -0.35723447799682617,
        -0.16369204223155975,
        -0.477235347032547,
        -0.011879250407218933,
        -0.8600989580154419,
        -0.22007621824741364,
        -0.2849743664264679,
        -0.08560849726200104,
        0.20959022641181946,
        -0.04661327600479126,
        -0.41513562202453613,
        -0.9347977042198181,
        0.10112941265106201,
        -0.1473037749528885,
        0.130448579788208,
        -0.1408080756664276,
        -0.2823895215988159,
        -0.09719919413328171,
        0.3065604269504547,
        -0.607646107673645,
        -0.7687748670578003,
        0.6195796728134155,
        0.02194357104599476,
        -0.05461902543902397,
        -0.7604889273643494,
        0.13218767940998077,
        -0.001494123600423336,
        -0.7144150733947754,
        -0.42960232496261597,
        0.015768902376294136,
        0.19736188650131226,
        -0.19826017320156097,
        0.15884821116924286,
        0.031084146350622177,
        -0.15283377468585968,
        -0.4440526068210602,
        0.038385022431612015,
        -0.5712655186653137,
        0.5679436922073364,
        -0.022660324349999428,
        0.04166151583194733,
        0.056159041821956635,
        0.1975875347852707,
        -1.0828412771224976,
        -0.6180626153945923,
        0.05601485073566437,
        -0.20414765179157257,
        -0.5284688472747803,
        0.023295428603887558,
        -0.5904216766357422,
        -0.41771507263183594,
        0.35640305280685425,
        -0.10892894119024277,
        -0.23537349700927734,
        -0.3433671295642853,
        0.3514334559440613,
        -0.3158029317855835,
        -0.11655095964670181,
        -0.6012683510780334,
        -1.5253517627716064,
        0.29965612292289734,
        -1.0559157133102417,
        -0.019938010722398758,
        -0.8496810793876648,
        -0.5145966410636902,
        -0.8177251815795898,
        0.21174080669879913,
        -0.11281495541334152,
        0.14407718181610107,
        0.35218608379364014,
        -0.14434097707271576,
        0.17162999510765076,
        -0.45805320143699646,
        0.22418886423110962,
        -0.6784468293190002,
        -0.9616070985794067,
        -0.031450945883989334,
        -0.3486146628856659,
        0.33270278573036194,
        -1.078265905380249,
        -1.1606985330581665,
        -0.3506975769996643,
        -0.1419863998889923,
        0.050169311463832855,
        -1.077623724937439,
        -0.12758004665374756,
        0.03941182419657707,
        -0.005241695325821638,
        0.2622009515762329,
        -1.4015271663665771,
        -0.24673497676849365,
        -0.6759225130081177,
        -0.3410276770591736,
        -0.2695169150829315,
        0.0629914328455925,
        -0.19262553751468658,
        -0.07838938385248184,
        0.006597941275686026,
        -0.2613247334957123,
        1.0968552827835083,
        0.5106204748153687,
        -0.0361657440662384,
        -1.4795567989349365,
        -0.10709495097398758,
        -0.982607901096344,
        -0.3786976933479309,
        -2.056220769882202,
        -0.24938665330410004,
        -1.9304745197296143,
        -1.5178440809249878,
        -4.407802581787109,
        0.1235760897397995,
        -0.34885090589523315,
        0.28837940096855164,
        -0.15813550353050232,
        -1.4414260387420654,
        -0.42774179577827454,
        -0.23961347341537476,
        0.06331381946802139,
        0.13766597211360931,
        -0.267822265625,
        -0.07040146738290787,
        0.07254883646965027,
        -0.9004217386245728,
        -1.0840519666671753,
        0.07829714566469193,
        -0.12209362536668777,
        -0.8343519568443298,
        -0.3653840720653534,
        0.119112029671669,
        0.04459139332175255,
        0.23454026877880096,
        -0.13073547184467316,
        0.28601574897766113,
        1.5023722648620605,
        0.05614937096834183,
        0.17880414426326752,
        -0.28603053092956543,
        -0.047023411840200424,
        -0.3319563567638397,
        -0.2091962695121765,
        -0.31159669160842896,
        0.21118006110191345,
        -0.20275630056858063,
        -0.1366366595029831,
        -0.6740903258323669,
        -0.00720939040184021,
        0.00088407879229635,
        0.37538430094718933,
        0.38831913471221924,
        0.29975876212120056,
        -0.3754109740257263,
        -0.8980178236961365,
        0.09083276242017746,
        0.31899887323379517,
        -0.9740346670150757,
        -0.3638109564781189,
        0.13669610023498535,
        0.12254999577999115,
        -0.3936764895915985,
        -0.20004858076572418,
        0.06710035353899002,
        0.12011396139860153,
        0.521920382976532,
        -0.035695772618055344,
        0.34605127573013306,
        -0.08298120647668839,
        -0.2778097093105316,
        -0.1067337915301323,
        -0.24659165740013123,
        0.13557346165180206,
        -0.7818816900253296,
        -0.12046942859888077,
        0.16973759233951569,
        -0.10004796087741852,
        0.1778358817100525,
        -0.24562305212020874,
        0.049593016505241394,
        0.051903340965509415,
        0.35536158084869385,
        0.05035954713821411,
        -0.12180887907743454,
        -0.1338321715593338,
        0.4577469527721405,
        -0.1281966269016266,
        -1.0136445760726929,
        -0.206867054104805,
        -0.18576885759830475,
        0.15044690668582916,
        -0.22706781327724457,
        0.019389444962143898,
        -0.37022629380226135,
        -0.050573233515024185,
        -0.29077258706092834,
        -0.3106992244720459,
        0.36951956152915955,
        0.4523896276950836,
        0.3653997480869293,
        -0.11981659382581711,
        0.05581545829772949,
        -0.2656083106994629,
        -0.04598841443657875,
        -0.4725271761417389,
        -0.060489360243082047,
        -0.10430393368005753,
        -0.20740146934986115,
        0.006913221441209316,
        -1.7196637392044067,
        -0.534839391708374,
        -0.03106970153748989,
        0.02101997658610344,
        0.06450746953487396,
        -0.25481903553009033,
        0.16831845045089722,
        -0.08670118451118469,
        -0.09072354435920715,
        0.7212398648262024,
        -1.4188339710235596,
        -0.09253375232219696,
        -0.8095926642417908,
        0.024100512266159058,
        -0.26158395409584045,
        0.243242546916008,
        -0.2421862781047821,
        -0.39069876074790955,
        -0.39577919244766235,
        0.39676278829574585,
        -1.5552781820297241,
        -0.4018998146057129,
        -0.7275637984275818,
        -1.0986703634262085,
        -0.7419863939285278,
        -1.372063159942627,
        0.500343918800354,
        -1.625753402709961,
        -0.0654868483543396,
        -1.3675395250320435,
        -1.5643302202224731,
        -3.754518747329712,
        0.588945746421814,
        -1.106963872909546,
        0.06615138053894043,
        -0.08476892113685608,
        0.22494447231292725,
        0.36602628231048584,
        0.09485002607107162,
        0.16608387231826782,
        -0.08787290006875992,
        -0.2073661834001541,
        0.22600677609443665,
        -0.06504064053297043,
        -1.2929617166519165,
        -0.906029462814331,
        0.29898667335510254,
        -0.02805769257247448,
        -0.7252885699272156
      ],
      "kernelShape": [
        3,
        3,
        8,
        16
      ],
      "bias": [
        -0.3103221356868744,
        -0.2895737886428833,
        -0.3320731222629547,
        -0.3406076729297638,
        -0.47490450739860535,
        -0.5531013011932373,
        -1.1200817823410034,
        -1.0211690664291382,
        -0.3194000720977783,
        -0.2648940682411194,
        -0.28651371598243713,
        -0.41233378648757935,
        -0.40563255548477173,
        -0.32720959186553955,
        -1.6476606130599976,
        -0.4784623980522156
      ],
      "outShape": [
        1,
        11,
        11,
        16
      ]
    },
    {
      "type": "pool",
      "windowH": 2,
      "windowW": 2,
      "strideH": 2,
      "strideW": 2,
      "outShape": [
        1,
        5,
        5,
        16
      ],
      "channels": 16
    },
    {
      "type": "flatten",
      "size": 400
    },
    {
      "type": "dense",
      "inputSize": 400,
      "outputSize": 64,
      "activation": "leakyRelu",
      "weights": [
        0.2023223340511322,
        0.21002283692359924,
        -0.052396491169929504,
        -0.008089675568044186,
        -0.19872738420963287,
        0.09777628630399704,
        -0.01694410853087902,
        -0.16138620674610138,
        0.3105657696723938,
        -0.18620041012763977,
        -0.17539282143115997,
        0.2931177616119385,
        -0.3055487871170044,
        -0.011609310284256935,
        -0.09496277570724487,
        0.3662759065628052,
        -0.0316547267138958,
        -0.5540481209754944,
        -0.282583624124527,
        -0.10267488658428192,
        -0.4537012279033661,
        -0.17187319695949554,
        -0.05143497511744499,
        0.23302429914474487,
        0.09585586190223694,
        -0.4429219961166382,
        0.21053647994995117,
        0.24036255478858948,
        0.1748698204755783,
        -0.005476485937833786,
        -0.04797270894050598,
        0.16133597493171692,
        -0.10548504441976547,
        -0.4906332194805145,
        -0.1643192172050476,
        -0.3574511408805847,
        -0.08705727010965347,
        0.0023758786264806986,
        -0.014788220636546612,
        0.07965949177742004,
        0.019416354596614838,
        -0.011279823258519173,
        0.15537644922733307,
        0.23332402110099792,
        0.15677247941493988,
        -0.090914785861969,
        -0.18961235880851746,
        0.20807623863220215,
        -0.38111427426338196,
        -0.0875876173377037,
        -0.23930051922798157,
        -0.4688110053539276,
        0.4612792432308197,
        -0.09106387943029404,
        -0.10500645637512207,
        0.11314672976732254,
        -0.21743690967559814,
        -0.17957939207553864,
        0.2529694139957428,
        0.246874138712883,
        -0.07202684879302979,
        0.28055647015571594,
        0.03615617752075195,
        -0.048292264342308044,
        -0.06444722414016724,
        0.04683747887611389,
        -0.07524171471595764,
        -0.0014941205736249685,
        0.3692045211791992,
        0.21562136709690094,
        0.020425476133823395,
        0.13082218170166016,
        -0.12527713179588318,
        0.33525165915489197,
        0.28099197149276733,
        0.13223469257354736,
        -0.3262390196323395,
        0.2269706279039383,
        -0.1293880045413971,
        0.2637799084186554,
        -0.4192291498184204,
        -0.2086324393749237,
        -0.2877444922924042,
        0.023989401757717133,
        -0.5514010190963745,
        -0.13476315140724182,
        0.015872566029429436,
        0.0556904673576355,
        0.2144162952899933,
        -0.08008922636508942,
        -0.21426044404506683,
        -0.022629160434007645,
        0.08452394604682922,
        -0.2742818295955658,
        0.02133984863758087,
        -0.0005319994525052607,
        -0.08353746682405472,
        -0.49576932191848755,
        -0.287823349237442,
        -0.2834080159664154,
        -0.37993910908699036,
        0.04343394562602043,
        0.04476190730929375,
        -0.07115098088979721,
        0.23053155839443207,
        -0.07232484221458435,
        0.13862334191799164,
        -0.1075759083032608,
        -0.1224701851606369,
        -0.18500104546546936,
        -0.0711645856499672,
        -0.10851622372865677,
        -0.34969162940979004,
        -0.7147939205169678,
        -0.3922077715396881,
        -0.3474954068660736,
        -0.04457112029194832,
        -0.047923315316438675,
        0.0096254488453269,
        0.06106702983379364,
        -0.04545065760612488,
        0.3402552008628845,
        0.15865246951580048,
        -0.4693930447101593,
        0.14546144008636475,
        0.04230118170380592,
        -0.02716725692152977,
        0.16218584775924683,
        -0.5451369881629944,
        -0.49121609330177307,
        -0.19248585402965546,
        -0.49494487047195435,
        0.027595099061727524,
        -0.01996869593858719,
        0.10582847148180008,
        0.06893637031316757,
        -0.04031716287136078,
        0.3132590651512146,
        0.15700946748256683,
        -0.43796804547309875,
        0.14297392964363098,
        -0.22470369935035706,
        -0.11183220148086548,
        -0.13170304894447327,
        -0.144457146525383,
        -0.33362704515457153,
        -0.042236000299453735,
        -0.31372442841529846,
        -0.10469818860292435,
        0.2151620090007782,
        0.028164636343717575,
        0.1609358936548233,
        -0.14577142894268036,
        0.36791327595710754,
        0.2638208270072937,
        -0.07937058806419373,
        -0.11195024847984314,
        -0.03703884407877922,
        -0.08994586020708084,
        0.07491325587034225,
        -0.3391033113002777,
        -0.13200174272060394,
        -0.25014686584472656,
        -0.20277266204357147,
        -0.2772040069103241,
        0.0723380297422409,
        0.027187643572688103,
        0.30953463912010193,
        0.07014176994562149,
        -0.04409144073724747,
        -0.16966667771339417,
        -0.13325339555740356,
        -0.05283088982105255,
        0.03789530694484711,
        -0.03251221776008606,
        -0.062176015228033066,
        -0.4969552159309387,
        -0.3421083092689514,
        -0.13327443599700928,
        -0.28725630044937134,
        -0.31426307559013367,
        -0.02435462549328804,
        0.13114656507968903,
        0.1593683511018753,
        -0.09720274060964584,
        -0.08273690938949585,
        0.07133837044239044,
        -1.3762282133102417,
        0.1592344492673874,
        -0.3256050944328308,
        -0.009435179643332958,
        -0.9622240662574768,
        -0.4525918960571289,
        -0.00914941169321537,
        -0.2745331823825836,
        -0.5319978594779968,
        -0.06992632150650024,
        -0.19793818891048431,
        -0.0021978586446493864,
        0.3126138746738434,
        -0.12527522444725037,
        -0.23691873252391815,
        -0.2110694944858551,
        -1.2271608114242554,
        0.14220526814460754,
        -0.19945916533470154,
        0.14602287113666534,
        -0.9659560918807983,
        -0.6620464324951172,
        -0.15160779654979706,
        -0.3096749782562256,
        -0.38021543622016907,
        -0.15386512875556946,
        -0.187552809715271,
        0.06576302647590637,
        0.14096751809120178,
        -0.011465066112577915,
        -0.0531245656311512,
        -0.1582181453704834,
        -0.5279803276062012,
        0.05573803558945656,
        -0.25688591599464417,
        0.10321813076734543,
        -0.5533645153045654,
        -0.2423999160528183,
        -0.27118805050849915,
        -0.1243431493639946,
        -0.32937225699424744,
        -0.11370827257633209,
        0.039034515619277954,
        0.19480262696743011,
        0.21830298006534576,
        0.2469034492969513,
        0.04732413962483406,
        -0.04678114876151085,
        -0.249034121632576,
        0.027689218521118164,
        -0.01639869436621666,
        0.016484113410115242,
        -0.2756137251853943,
        -0.4129640758037567,
        -0.021207964047789574,
        -0.1927359253168106,
        -0.18258947134017944,
        -0.25910723209381104,
        0.17437714338302612,
        0.04210649058222771,
        0.24087759852409363,
        -0.11051531881093979,
        -0.035839442163705826,
        0.09943491220474243,
        -0.11403992027044296,
        0.052307263016700745,
        0.017135433852672577,
        -0.09288156032562256,
        0.35125651955604553,
        -0.6458030343055725,
        -0.35820692777633667,
        -0.09529241174459457,
        -0.6149611473083496,
        -0.5831577181816101,
        -0.021464625373482704,
        -0.08862077444791794,
        0.15947768092155457,
        -0.03223636746406555,
        -0.16695544123649597,
        0.01927443966269493,
        -1.0935856103897095,
        0.218168243765831,
        -0.11198702454566956,
        -0.22910316288471222,
        -0.5414732694625854,
        -0.8075268268585205,
        -0.29884201288223267,
        -0.32463228702545166,
        -0.22391441464424133,
        -0.6247861981391907,
        0.06887532025575638,
        0.15156085789203644,
        0.0285785049200058,
        0.024243535473942757,
        -0.05714207515120506,
        0.1314096450805664,
        -0.9340316653251648,
        0.05304370075464249,
        -0.002501895185559988,
        -0.2138025462627411,
        -0.7996214628219604,
        -0.23854108154773712,
        -0.4100937247276306,
        -0.2371397614479065,
        -0.21136799454689026,
        -0.6199957728385925,
        -0.08272441476583481,
        0.16306297481060028,
        0.19327938556671143,
        -0.17036868631839752,
        -0.03798993304371834,
        0.1629306524991989,
        -0.3635505437850952,
        0.14679284393787384,
        -0.2125784307718277,
        -0.08509678393602371,
        -0.6038030982017517,
        0.16926920413970947,
        -0.42421379685401917,
        0.08563859015703201,
        -0.24654871225357056,
        -0.19519920647144318,
        -0.10845165699720383,
        0.23279733955860138,
        0.03418876975774765,
        0.3092215657234192,
        -0.332470178604126,
        -0.07908820360898972,
        -0.24035459756851196,
        0.24877528846263885,
        0.2488216608762741,
        -0.013799160718917847,
        -0.8599435091018677,
        -0.35165730118751526,
        0.03339304029941559,
        -0.45735251903533936,
        -0.5809968113899231,
        -0.18421263992786407,
        0.43103498220443726,
        -0.13158470392227173,
        -0.10710873454809189,
        -0.013874102383852005,
        0.30238214135169983,
        0.1993124783039093,
        0.3292412757873535,
        0.2351173609495163,
        -0.1280640959739685,
        0.07929942011833191,
        0.3725220859050751,
        -0.3358493149280548,
        -0.21858687698841095,
        -0.7318776249885559,
        -0.5305103063583374,
        -0.42366427183151245,
        0.13348545134067535,
        0.22654224932193756,
        0.15388306975364685,
        0.14630989730358124,
        -0.02984374389052391,
        0.12086549401283264,
        0.16676266491413116,
        0.09690121561288834,
        -0.0032724232878535986,
        -0.05694285035133362,
        0.04708067327737808,
        -0.2781166732311249,
        -0.5009022355079651,
        -0.3152868151664734,
        -0.44341614842414856,
        -0.3171362578868866,
        -0.42787662148475647,
        0.15355533361434937,
        -0.07139598578214645,
        -0.24848400056362152,
        0.011015125550329685,
        0.3940720558166504,
        -0.36257702112197876,
        0.37015777826309204,
        -0.04955199360847473,
        -0.22606582939624786,
        -0.16695553064346313,
        0.04185476526618004,
        -0.4113708734512329,
        -0.3507864475250244,
        -0.2589043974876404,
        -0.2723226249217987,
        -0.12551848590373993,
        0.3457488417625427,
        0.1169808879494667,
        0.0667107030749321,
        0.15848931670188904,
        0.04064444452524185,
        -0.16093744337558746,
        0.04495129734277725,
        0.026143159717321396,
        -0.027024393901228905,
        0.1985856592655182,
        0.12799786031246185,
        -0.35827574133872986,
        -0.4718753695487976,
        0.14384303987026215,
        -0.23578962683677673,
        -0.16660740971565247,
        0.196745827794075,
        -0.10289865732192993,
        0.3757202625274658,
        -0.06714814901351929,
        0.040293946862220764,
        0.03188573941588402,
        -0.017043547704815865,
        -0.09119477868080139,
        0.040397725999355316,
        -0.6081304550170898,
        -0.17790623009204865,
        -0.13962149620056152,
        0.0937342718243599,
        -0.29210165143013,
        0.28714489936828613,
        -0.9062355756759644,
        0.30674809217453003,
        0.14580762386322021,
        -1.0146396160125732,
        0.00613126065582037,
        0.4070500135421753,
        -0.09375129640102386,
        0.14515499770641327,
        0.33219146728515625,
        -0.057197678834199905,
        -0.17027316987514496,
        -0.5483550429344177,
        0.04094301164150238,
        -0.21532557904720306,
        -0.3150550425052643,
        0.3482738733291626,
        -0.7847848534584045,
        0.23842287063598633,
        -0.012822874821722507,
        -0.843713641166687,
        -0.28253859281539917,
        0.1325962245464325,
        -0.3157571256160736,
        0.007908518426120281,
        -0.008656775578856468,
        -0.14919732511043549,
        -0.14681896567344666,
        -0.2839328348636627,
        0.08393795788288116,
        0.066200390458107,
        -0.286581426858902,
        0.0023008272983133793,
        -0.973312497138977,
        -0.10236901044845581,
        0.03339838981628418,
        -0.7590214014053345,
        -0.09105206280946732,
        0.21940933167934418,
        -0.13445943593978882,
        -0.37980782985687256,
        0.1682543307542801,
        0.03431164100766182,
        -0.19555635750293732,
        -0.2543158531188965,
        -0.0979609489440918,
        -0.09806159883737564,
        -0.3759259879589081,
        0.011509084142744541,
        -0.6628209352493286,
        0.11345631629228592,
        0.004524067509919405,
        -0.6001616716384888,
        -0.682051956653595,
        0.04306401312351227,
        -0.41077157855033875,
        -0.19864743947982788,
        0.08596249669790268,
        0.020841337740421295,
        -0.08636106550693512,
        0.052598293870687485,
        -0.03631328418850899,
        -0.06159859895706177,
        -0.16355013847351074,
        -0.09293390065431595,
        -1.0257278680801392,
        -0.13168783485889435,
        -0.027633236721158028,
        -0.5801219940185547,
        -0.43157488107681274,
        0.06976978480815887,
        0.050099171698093414,
        0.3908403813838959,
        0.3495691120624542,
        -0.17643100023269653,
        -0.11173087358474731,
        -0.4444204866886139,
        -0.45702552795410156,
        0.18340210616588593,
        -0.16404514014720917,
        0.041639816015958786,
        -0.7230138778686523,
        0.3517237603664398,
        0.03583035245537758,
        -0.6819881200790405,
        -0.029405949637293816,
        0.6530801057815552,
        -0.3561588525772095,
        0.10297708958387375,
        -0.0030402876436710358,
        0.024573134258389473,
        0.16943126916885376,
        -0.32265838980674744,
        -0.3791956901550293,
        -0.04885056987404823,
        -0.3693930506706238,
        0.03338533639907837,
        -0.7853429317474365,
        0.21976293623447418,
        0.11763643473386765,
        -0.94746994972229,
        -0.3090217411518097,
        0.28787630796432495,
        -0.2938496470451355,
        -0.09792806208133698,
        -0.1260862648487091,
        -0.05080975592136383,
        -0.11715509742498398,
        -0.1687990427017212,
        -0.20685817301273346,
        -0.1114017441868782,
        -0.4186016917228699,
        -0.011866537854075432,
        -0.8086237907409668,
        0.2974001467227936,
        -0.001288516679778695,
        -0.741037905216217,
        -0.3282909691333771,
        0.351298987865448,
        -0.4661491811275482,
        -0.11738026142120361,
        -0.0070576295256614685,
        -0.02492157556116581,
        -0.10598618537187576,
        -0.391244500875473,
        -0.3466986119747162,
        -0.08619017899036407,
        -0.37098821997642517,
        -0.012753293849527836,
        -0.7480995655059814,
        0.3263932168483734,
        0.13209959864616394,
        -0.6394344568252563,
        -0.40409740805625916,
        0.17984116077423096,
        -0.213784858584404,
        -0.0011140559799969196,
        -0.0653391033411026,
        -0.04498925060033798,
        -0.2009427696466446,
        -0.3385404944419861,
        -0.2480955719947815,
        0.07425437122583389,
        -0.4376402795314789,
        0.05552984029054642,
        -0.7641900181770325,
        0.059961505234241486,
        0.12257783114910126,
        -0.4658493101596832,
        -0.1585438996553421,
        0.18243399262428284,
        -0.2446192502975464,
        -0.08933274447917938,
        0.1046704426407814,
        -0.00506372656673193,
        0.09859524667263031,
        -0.2466273456811905,
        -0.296479195356369,
        0.2060348242521286,
        -0.1567760705947876,
        -0.03511098399758339,
        -0.27258482575416565,
        0.4132554829120636,
        -0.025614891201257706,
        -0.14527538418769836,
        -0.03952236473560333,
        0.5391523241996765,
        -0.02433837577700615,
        0.15359491109848022,
        -0.07900641858577728,
        -0.13248960673809052,
        -0.39740321040153503,
        -0.37793564796447754,
        0.10468611121177673,
        0.12030274420976639,
        -0.5848622918128967,
        0.2238542139530182,
        -0.33399009704589844,
        0.306273490190506,
        0.029924634844064713,
        -0.3743118643760681,
        -0.03351154178380966,
        0.22994954884052277,
        -0.2284768968820572,
        0.12162870913743973,
        -0.083882175385952,
        -0.14747856557369232,
        0.11574508249759674,
        -0.3012661635875702,
        0.17544162273406982,
        -0.029455579817295074,
        -0.37027913331985474,
        0.14410500228405,
        -0.32982999086380005,
        0.3068428933620453,
        -0.11265624314546585,
        -0.35822147130966187,
        -0.22536921501159668,
        0.19356083869934082,
        -0.1495269238948822,
        0.13632270693778992,
        0.12339389324188232,
        -0.09483794122934341,
        -0.21539422869682312,
        -0.23360277712345123,
        -0.1704217940568924,
        -0.03259603679180145,
        -0.2982228994369507,
        0.3193410336971283,
        -0.39570170640945435,
        0.25376957654953003,
        -0.006968899164348841,
        -0.2923731207847595,
        -0.10176974534988403,
        0.18609413504600525,
        -0.06300606578588486,
        0.02024254761636257,
        -0.01679174043238163,
        -0.06274079531431198,
        -0.09166159480810165,
        -0.15041202306747437,
        -0.08972657471895218,
        0.07313810288906097,
        -0.33282551169395447,
        0.323753297328949,
        -0.24330566823482513,
        0.39915964007377625,
        -0.11137757450342178,
        -0.21829919517040253,
        -0.12867653369903564,
        0.355680376291275,
        0.10667119920253754,
        -0.09587304294109344,
        0.05924663320183754,
        -0.17225076258182526,
        0.1122787818312645,
        -0.17522773146629333,
        0.06832955032587051,
        -0.07425728440284729,
        0.048825833946466446,
        -0.01527458056807518,
        -0.04819555580615997,
        0.2506782114505768,
        -0.09337717294692993,
        -0.31496894359588623,
        0.16339854896068573,
        0.05665513500571251,
        0.05587112158536911,
        0.034070249646902084,
        -0.11834175884723663,
        0.1106470599770546,
        -0.20915579795837402,
        -0.12680087983608246,
        0.19092866778373718,
        0.20162534713745117,
        0.06545540690422058,
        0.10454028844833374,
        -0.11452850699424744,
        0.10207068175077438,
        -0.0020602019503712654,
        -0.1587475836277008,
        -0.06848388910293579,
        0.23201845586299896,
        -0.014603953808546066,
        -0.1776013821363449,
        -0.15720750391483307,
        -0.07749757170677185,
        0.08721939474344254,
        -0.2048027068376541,
        0.12274804711341858,
        -0.04212244972586632,
        -0.060610175132751465,
        0.054628074169158936,
        -0.15361212193965912,
        0.15937478840351105,
        -0.020729057490825653,
        -0.28361842036247253,
        -0.15871179103851318,
        0.0825953483581543,
        0.09055647253990173,
        -0.0759260281920433,
        0.18029001355171204,
        -0.05204552039504051,
        -0.049061428755521774,
        -0.3238847553730011,
        0.06105485185980797,
        0.10525549203157425,
        0.044102005660533905,
        0.2506057322025299,
        0.09678783267736435,
        0.045638926327228546,
        -0.020683299750089645,
        0.0022021797485649586,
        -0.12466256320476532,
        0.16764269769191742,
        0.09858839213848114,
        -0.1425924152135849,
        -0.14279186725616455,
        -0.029679642990231514,
        -0.07302125543355942,
        -0.49042826890945435,
        -0.0035391186829656363,
        0.12388840317726135,
        0.17417766153812408,
        0.15882587432861328,
        0.07832405716180801,
        0.2923249304294586,
        -0.020452070981264114,
        -0.03548800200223923,
        -0.13978712260723114,
        0.23742900788784027,
        0.0024881830904632807,
        0.10817857086658478,
        -0.14909295737743378,
        0.10975039005279541,
        0.17387430369853973,
        0.1899251490831375,
        0.04402904585003853,
        0.03640884906053543,
        -0.09918505698442459,
        -0.08580911159515381,
        0.10250717401504517,
        0.07786295562982559,
        0.19298772513866425,
        0.01697521097958088,
        -0.02640441618859768,
        -0.15069903433322906,
        0.2888447642326355,
        -0.0113098518922925,
        0.14384116232395172,
        -0.0003408796328585595,
        -0.053709160536527634,
        -0.016515273600816727,
        0.2561916410923004,
        0.08526448905467987,
        0.056454092264175415,
        0.24868792295455933,
        0.018022650852799416,
        -0.2899763584136963,
        0.08107318729162216,
        0.025891244411468506,
        -0.0649370327591896,
        0.08147863298654556,
        -0.03997645154595375,
        -0.009261221624910831,
        -0.04375370964407921,
        0.19543065130710602,
        -0.09134390950202942,
        0.03386267274618149,
        0.14070598781108856,
        -0.21145546436309814,
        -0.06287026405334473,
        0.23754481971263885,
        0.01369820348918438,
        -0.05355596914887428,
        0.2673715353012085,
        -0.047475527971982956,
        -0.003139313543215394,
        0.14744170010089874,
        -0.056677307933568954,
        0.022206930443644524,
        0.08966592699289322,
        -0.07170260697603226,
        0.19289889931678772,
        0.14595164358615875,
        0.3062826693058014,
        -0.2896832227706909,
        -0.062381044030189514,
        -0.014670807868242264,
        -0.06402210146188736,
        -0.010463709011673927,
        0.24765869975090027,
        -0.0182592011988163,
        -0.3386486768722534,
        0.14705738425254822,
        0.09124521911144257,
        0.00414910027757287,
        -0.11510863155126572,
        -0.1414467990398407,
        0.06158510223031044,
        -0.02391829341650009,
        0.2930889129638672,
        0.0634230375289917,
        0.16794244945049286,
        0.36017948389053345,
        0.04938695579767227,
        -0.00028188590658828616,
        0.21959730982780457,
        0.05959814786911011,
        -0.31266114115715027,
        0.08733972162008286,
        0.32122480869293213,
        -0.005928395316004753,
        -0.09915101528167725,
        0.10607333481311798,
        0.10301228612661362,
        -0.15970106422901154,
        -0.1885947585105896,
        0.04277752339839935,
        -0.09137392044067383,
        -0.11312021315097809,
        -0.26184290647506714,
        -0.2610916495323181,
        -0.255501925945282,
        -0.2590599060058594,
        0.2527233958244324,
        0.024396883323788643,
        0.3683623671531677,
        -0.2229447215795517,
        -0.054013028740882874,
        -0.09877367317676544,
        0.23139120638370514,
        -0.03233039751648903,
        -0.6274089813232422,
        0.1877642720937729,
        0.08460644632577896,
        -0.19070738554000854,
        -0.02614455856382847,
        -0.10146575421094894,
        -0.08279891312122345,
        -0.17668521404266357,
        0.12167821079492569,
        0.2676407992839813,
        0.19966477155685425,
        0.20474320650100708,
        -0.11761651933193207,
        -0.038864895701408386,
        -0.04960252344608307,
        0.008160536177456379,
        -0.21364109218120575,
        0.09827939420938492,
        0.1802728772163391,
        -0.5357593297958374,
        -0.15253081917762756,
        -0.086170494556427,
        0.27979612350463867,
        -0.09122951328754425,
        -0.058439064770936966,
        -0.21637365221977234,
        0.06132664903998375,
        -0.08802066743373871,
        -0.013852402567863464,
        -0.16859444975852966,
        -0.20243537425994873,
        -0.29617348313331604,
        -0.07723137736320496,
        0.004759608302265406,
        -0.10226075351238251,
        -0.4745258092880249,
        -0.1515052765607834,
        0.16940583288669586,
        0.11636926978826523,
        -0.19037461280822754,
        0.39550837874412537,
        -0.42288658022880554,
        0.0650101974606514,
        0.5872580409049988,
        -0.03378840908408165,
        -0.19905979931354523,
        0.3253631591796875,
        -0.03637651354074478,
        -0.19353751838207245,
        -0.08575479686260223,
        -0.08532177656888962,
        -0.1328856199979782,
        -0.28849712014198303,
        0.006810703314840794,
        -0.1602431684732437,
        0.03680364787578583,
        -0.025532441213726997,
        0.24070775508880615,
        0.6638307571411133,
        -0.018691500648856163,
        -0.11257708817720413,
        -0.12687358260154724,
        0.04062457010149956,
        -0.47129300236701965,
        0.1580306440591812,
        0.04447760432958603,
        -0.06834157556295395,
        0.16334277391433716,
        -0.040598150342702866,
        0.14797577261924744,
        -0.10201758146286011,
        -0.19349311292171478,
        0.2260364145040512,
        -0.06400572508573532,
        -0.11041528731584549,
        -0.26033470034599304,
        -0.058628618717193604,
        0.004031470511108637,
        0.3857964873313904,
        -0.2225138396024704,
        -0.09965559840202332,
        -0.09015050530433655,
        -0.10080251097679138,
        0.17022252082824707,
        0.10383135825395584,
        0.015717048197984695,
        0.11433462798595428,
        0.048758335411548615,
        0.2231357991695404,
        0.3046337962150574,
        0.06590420752763748,
        -0.04559376835823059,
        0.05155439302325249,
        -0.10145822167396545,
        -0.08706999570131302,
        -0.011660447344183922,
        0.22316373884677887,
        0.00208001839928329,
        0.23329360783100128,
        -0.08096099644899368,
        -0.017850074917078018,
        -0.15607833862304688,
        -0.09489061683416367,
        -0.015439832583069801,
        0.021512160077691078,
        0.02488521859049797,
        -0.35319817066192627,
        -0.04061005264520645,
        0.018421923741698265,
        -0.5359935760498047,
        -0.08416704833507538,
        0.05833684280514717,
        0.5476052761077881,
        -0.16179370880126953,
        -0.053875166922807693,
        0.11106545478105545,
        -0.025028187781572342,
        0.07756899297237396,
        0.019144805148243904,
        0.25226202607154846,
        -0.1595441848039627,
        0.05287816375494003,
        0.11718674749135971,
        0.08233115077018738,
        0.030268805101513863,
        -0.175299733877182,
        0.024354010820388794,
        0.1882638782262802,
        0.3200201690196991,
        -0.13188812136650085,
        0.12050561606884003,
        0.11033327877521515,
        -0.10857333987951279,
        -0.028801754117012024,
        -0.11125179380178452,
        0.062168896198272705,
        -0.08747664839029312,
        0.3223426640033722,
        -0.19258655607700348,
        -0.09234902262687683,
        0.04165785759687424,
        -0.011127574369311333,
        -0.02578488551080227,
        -0.40860122442245483,
        0.09434784948825836,
        -0.20325474441051483,
        -0.22885529696941376,
        -0.14623567461967468,
        -0.12485162168741226,
        0.1775503158569336,
        0.023345626890659332,
        0.3785412907600403,
        0.11467047035694122,
        -0.06611476838588715,
        -0.8189330697059631,
        -0.26463815569877625,
        0.19481238722801208,
        0.009051555767655373,
        0.5985456109046936,
        -0.06664363294839859,
        0.21013261377811432,
        -0.160699263215065,
        -0.27353090047836304,
        -0.31796878576278687,
        0.053649574518203735,
        0.06462009251117706,
        0.03563903272151947,
        0.13459257781505585,
        0.07436379045248032,
        0.10161015391349792,
        -0.09733015298843384,
        -0.24665379524230957,
        0.12568314373493195,
        -0.058365948498249054,
        -0.06576899439096451,
        -0.06600681692361832,
        0.45802631974220276,
        0.021555496379733086,
        0.45963698625564575,
        0.1647438257932663,
        -0.0643058493733406,
        -0.07245683670043945,
        -0.3366628587245941,
        0.12531651556491852,
        0.1777491420507431,
        0.161536306142807,
        0.14450155198574066,
        0.11280185729265213,
        0.11780320107936859,
        -0.3426647484302521,
        0.05919736251235008,
        -0.04234916344285011,
        0.6217066645622253,
        -0.19575625658035278,
        0.16251270473003387,
        0.36941829323768616,
        0.1120062991976738,
        -0.06676514446735382,
        -0.1883729249238968,
        -0.0048443106934428215,
        0.01613057777285576,
        0.1504203975200653,
        0.22203278541564941,
        -0.04022640734910965,
        -0.06099492311477661,
        -0.18549536168575287,
        0.07646354287862778,
        0.30529963970184326,
        0.5241186022758484,
        -0.29413291811943054,
        -0.2982819378376007,
        -0.13028892874717712,
        0.08151362091302872,
        -0.22837498784065247,
        -0.12155526876449585,
        -0.19555090367794037,
        0.0795091912150383,
        0.13026349246501923,
        -0.5532441139221191,
        -0.5013365745544434,
        0.3106366991996765,
        0.09473078697919846,
        -0.1504065841436386,
        0.07599646598100662,
        -0.08582767844200134,
        -0.07361792027950287,
        0.20136161148548126,
        -0.21854732930660248,
        -0.32743874192237854,
        0.2828986942768097,
        0.43519553542137146,
        0.24400950968265533,
        -0.22193461656570435,
        -0.013271457515656948,
        -0.0812983363866806,
        -0.07729543000459671,
        0.20643751323223114,
        0.04262099787592888,
        -0.2321721315383911,
        0.21282309293746948,
        -0.1339491605758667,
        -0.05195042863488197,
        0.21694569289684296,
        -0.15280073881149292,
        -0.03980622440576553,
        0.25390419363975525,
        0.32893437147140503,
        0.11295123398303986,
        -0.2843036949634552,
        0.09426715224981308,
        0.23826156556606293,
        0.19756253063678741,
        -0.22079497575759888,
        0.024881869554519653,
        -0.09885405004024506,
        0.18122327327728271,
        -0.19554515182971954,
        0.05012744665145874,
        0.34171062707901,
        0.0660419836640358,
        0.24574600160121918,
        0.1235041543841362,
        0.3981514871120453,
        -0.13771851360797882,
        -0.04967167228460312,
        -0.008967972360551357,
        0.16179689764976501,
        0.01453840360045433,
        -0.2442283183336258,
        0.17949768900871277,
        -0.12402530759572983,
        -0.2274312824010849,
        0.058079324662685394,
        0.06659558415412903,
        0.33274027705192566,
        0.3219637870788574,
        0.33020660281181335,
        0.049060557037591934,
        0.24911698698997498,
        -0.24437014758586884,
        0.08915881812572479,
        0.08552772551774979,
        0.024061866104602814,
        0.23829151690006256,
        -0.2393760234117508,
        -0.08568284660577774,
        -0.14738190174102783,
        -0.2399226874113083,
        -0.029017893597483635,
        -0.306416392326355,
        -0.3340979218482971,
        -0.09889517724514008,
        -0.03283098340034485,
        -0.18475325405597687,
        0.27612248063087463,
        -0.5274773836135864,
        0.14231376349925995,
        0.09706103056669235,
        0.10322170704603195,
        -0.04261913523077965,
        0.35213688015937805,
        -0.10528282821178436,
        0.18135441839694977,
        -0.05644330382347107,
        0.022077033296227455,
        -0.2155456393957138,
        0.09951987862586975,
        0.30777084827423096,
        -0.2426215559244156,
        0.5792630314826965,
        0.15911000967025757,
        0.06622546166181564,
        0.07760553061962128,
        -0.01156425941735506,
        -0.15817052125930786,
        0.10366851091384888,
        0.37065690755844116,
        0.053514402359724045,
        -0.20243825018405914,
        -0.05036799982190132,
        0.01097681000828743,
        -0.3442043364048004,
        0.44874393939971924,
        0.3023909628391266,
        0.02851434424519539,
        0.39739754796028137,
        -0.038347069174051285,
        0.3861085772514343,
        -0.12915712594985962,
        0.12622778117656708,
        -0.25896477699279785,
        -0.023646758869290352,
        0.44129738211631775,
        0.23600591719150543,
        -0.34964463114738464,
        -0.04142524302005768,
        0.03208421170711517,
        -0.19391486048698425,
        0.4022599458694458,
        0.21973831951618195,
        0.2170218676328659,
        0.2272360622882843,
        0.09621582180261612,
        0.3027380704879761,
        -0.06731704622507095,
        0.12439098954200745,
        -0.23718293011188507,
        0.10712575912475586,
        -0.513588547706604,
        0.31139814853668213,
        -0.4597254693508148,
        -0.11914964020252228,
        0.28414222598075867,
        -0.016487915068864822,
        0.10285806655883789,
        0.007507839240133762,
        0.38653069734573364,
        0.00531810661777854,
        0.20555824041366577,
        -0.1220470517873764,
        0.20976513624191284,
        0.026991255581378937,
        -0.023748382925987244,
        0.12006239593029022,
        -0.1091182678937912,
        0.34307363629341125,
        0.19345825910568237,
        -0.1497076153755188,
        0.10769567638635635,
        -0.2903898060321808,
        -0.16927097737789154,
        0.1546909660100937,
        -0.0449342243373394,
        0.15718087553977966,
        0.19503681361675262,
        -0.22581073641777039,
        0.0998859703540802,
        -0.2280331552028656,
        -0.36610835790634155,
        0.12137848138809204,
        0.37813353538513184,
        -0.02927258051931858,
        0.31815534830093384,
        0.7237548232078552,
        -0.22359660267829895,
        -0.14700847864151,
        0.1737075001001358,
        -0.11796467006206512,
        -0.3569648563861847,
        -0.11224782466888428,
        -0.08900143206119537,
        -0.012681446969509125,
        -0.24230612814426422,
        0.20866546034812927,
        0.12920987606048584,
        -0.5473714470863342,
        0.30287307500839233,
        -0.24242042005062103,
        0.07012902200222015,
        0.3065852224826813,
        0.4986232817173004,
        -0.12784956395626068,
        0.09414166212081909,
        0.15967753529548645,
        0.11597702652215958,
        0.1589324176311493,
        -0.24209807813167572,
        -0.10850872844457626,
        -0.07867223024368286,
        0.2700943946838379,
        0.26322856545448303,
        -0.49522122740745544,
        0.2835446298122406,
        -0.04173612967133522,
        0.15427353978157043,
        0.03512314707040787,
        0.754784882068634,
        -0.042901113629341125,
        0.19262848794460297,
        0.40192827582359314,
        0.12779773771762848,
        0.11649610847234726,
        -0.2218187302350998,
        -0.03929421305656433,
        0.16107212007045746,
        0.15556646883487701,
        -0.23357535898685455,
        -0.27111974358558655,
        0.08400561660528183,
        0.15413342416286469,
        -0.1364383101463318,
        0.3144914507865906,
        0.5175169110298157,
        0.10210741311311722,
        0.14554722607135773,
        0.017500951886177063,
        -0.021417023614048958,
        -0.21536661684513092,
        -0.19376762211322784,
        0.1542389839887619,
        -0.17931467294692993,
        -0.25965431332588196,
        0.12919485569000244,
        -0.48158326745033264,
        0.26073920726776123,
        -0.1557321697473526,
        0.19295774400234222,
        0.1704549491405487,
        0.23829738795757294,
        -0.16723144054412842,
        -0.06573699414730072,
        -0.07225935161113739,
        -0.02144879661500454,
        -0.29267242550849915,
        0.016862018033862114,
        -0.41172802448272705,
        0.06311856210231781,
        0.1169077530503273,
        0.3582192063331604,
        -0.2938983142375946,
        0.07566356658935547,
        -0.3882095217704773,
        0.2683497667312622,
        0.3706989884376526,
        -0.5719114542007446,
        -0.09824652224779129,
        0.06889617443084717,
        -0.15101148188114166,
        -0.08170932531356812,
        0.05414075031876564,
        0.009607769548892975,
        -0.007710631936788559,
        -0.15817932784557343,
        0.022528450936079025,
        -0.17294612526893616,
        0.3202483654022217,
        0.02498382329940796,
        -0.3790358901023865,
        -0.2735109031200409,
        0.13504639267921448,
        0.09707880765199661,
        0.023322032764554024,
        0.2387610226869583,
        -0.14551743865013123,
        -0.11312845349311829,
        0.021210618317127228,
        0.014865300618112087,
        0.0017162663862109184,
        -0.024244973435997963,
        0.3587109446525574,
        -0.6908086538314819,
        -0.21010135114192963,
        0.019108084961771965,
        -0.08908290416002274,
        -0.05065267160534859,
        0.22462163865566254,
        0.4825119376182556,
        0.14449292421340942,
        0.17801488935947418,
        0.17175820469856262,
        0.04873993247747421,
        -0.0725637823343277,
        -0.03105234168469906,
        0.004477418027818203,
        -0.15510332584381104,
        -0.24787764251232147,
        -0.05440445616841316,
        -0.3016575574874878,
        0.054101694375276566,
        0.014307674020528793,
        0.23363058269023895,
        0.20879600942134857,
        0.5208538174629211,
        0.17366616427898407,
        -0.1389634907245636,
        0.0038589248433709145,
        0.010835470631718636,
        -0.03310978785157204,
        0.06835433095693588,
        -0.055651891976594925,
        0.02568151243031025,
        -0.16677947342395782,
        0.11613491177558899,
        -0.15150713920593262,
        -0.09745804965496063,
        -0.191543310880661,
        0.021450746804475784,
        -0.12928567826747894,
        0.3966904878616333,
        -0.02007158100605011,
        -0.4688578248023987,
        0.4118887186050415,
        -0.12351417541503906,
        -0.07171201705932617,
        0.2299899309873581,
        0.013574473559856415,
        0.13424023985862732,
        0.20361511409282684,
        0.059566862881183624,
        0.3333330750465393,
        0.10140156745910645,
        -0.3493460416793823,
        0.4700733721256256,
        0.18820367753505707,
        -0.1628580093383789,
        -0.0770343691110611,
        -0.02910485863685608,
        0.17101933062076569,
        0.2065226286649704,
        -0.10074566304683685,
        0.07145506143569946,
        0.017332885414361954,
        0.4357936680316925,
        0.05410979688167572,
        -0.1826263964176178,
        0.180915966629982,
        0.20262397825717926,
        -0.26532670855522156,
        -0.2671225965023041,
        -0.04067864641547203,
        -0.06991767138242722,
        0.19630354642868042,
        0.5963000059127808,
        -0.12944234907627106,
        -0.04609723761677742,
        -0.08381546288728714,
        -0.03320956975221634,
        -0.08214397728443146,
        0.028040409088134766,
        0.2868196964263916,
        0.2965618669986725,
        -0.3295530080795288,
        0.13152022659778595,
        -0.14151310920715332,
        0.2186366468667984,
        0.08846201002597809,
        -0.044375184923410416,
        0.19366762042045593,
        0.30700990557670593,
        0.03441179171204567,
        -0.1368793100118637,
        -0.16118068993091583,
        -0.037018071860075,
        -0.043546222150325775,
        -0.025364890694618225,
        -0.056231964379549026,
        0.272492378950119,
        -0.23711349070072174,
        0.09831877797842026,
        -0.2474030703306198,
        0.34450531005859375,
        0.013817068189382553,
        0.2343767136335373,
        0.20319373905658722,
        0.21129292249679565,
        0.13381914794445038,
        -0.18095891177654266,
        0.028669318184256554,
        0.09412895888090134,
        -0.10214320570230484,
        0.08094493299722672,
        0.0531463697552681,
        0.3639090955257416,
        -0.26489272713661194,
        0.0215147715061903,
        -0.14454294741153717,
        0.33655044436454773,
        -0.26751580834388733,
        0.4405106008052826,
        0.3113342821598053,
        -0.07463759928941727,
        0.1404019296169281,
        0.02711615338921547,
        0.20765843987464905,
        0.05985105037689209,
        0.44093450903892517,
        -0.16516128182411194,
        -0.11626631021499634,
        0.16494081914424896,
        0.26112890243530273,
        0.19940584897994995,
        -0.21860574185848236,
        0.004159687086939812,
        0.3337903618812561,
        0.0011728157987818122,
        -0.13140830397605896,
        -0.16986674070358276,
        0.05034811794757843,
        0.13262484967708588,
        0.12451357394456863,
        0.14251577854156494,
        -0.252388060092926,
        0.15038743615150452,
        -0.19802376627922058,
        -0.1625734120607376,
        0.08316285163164139,
        -0.1678662747144699,
        0.1271345168352127,
        -0.21656076610088348,
        -0.0516512505710125,
        -0.2863084375858307,
        0.33680450916290283,
        0.07727029919624329,
        -0.20107696950435638,
        0.1030772477388382,
        0.049105774611234665,
        0.36872610449790955,
        -0.18500488996505737,
        -0.08199527859687805,
        0.09844578802585602,
        -0.31389716267585754,
        0.04149305075407028,
        -0.04631319269537926,
        0.22459737956523895,
        0.1501842439174652,
        -0.24296335875988007,
        -0.5522182583808899,
        0.24912714958190918,
        0.0016298034461215138,
        -0.38519901037216187,
        -0.11833393573760986,
        0.17510458827018738,
        0.22443613409996033,
        -0.1569836139678955,
        0.07527969032526016,
        -0.004294603131711483,
        -0.1441061943769455,
        0.03997093811631203,
        -0.07404578477144241,
        0.25354233384132385,
        -0.14872610569000244,
        -0.22088150680065155,
        -0.29996052384376526,
        0.14469540119171143,
        -0.07261592894792557,
        -0.2946820557117462,
        0.0401030108332634,
        0.13955087959766388,
        0.3772096633911133,
        -0.19173409044742584,
        -0.026795873418450356,
        0.04211324080824852,
        -0.7459599375724792,
        -0.027060898020863533,
        -0.11143657565116882,
        0.13555994629859924,
        -0.09207504987716675,
        -0.07831268012523651,
        0.00104863743763417,
        0.2120046466588974,
        -0.003388667479157448,
        0.021727636456489563,
        0.10147117078304291,
        0.1787666231393814,
        0.29139554500579834,
        0.09413429349660873,
        0.02524253912270069,
        0.03264998644590378,
        -0.29335302114486694,
        -0.09255801886320114,
        0.007175309583544731,
        -0.16220590472221375,
        0.21468785405158997,
        0.1064717099070549,
        0.24410681426525116,
        -0.25887444615364075,
        -0.30289426445961,
        0.16499388217926025,
        0.024698635563254356,
        0.012728017754852772,
        0.31084364652633667,
        -0.1063222587108612,
        0.056604333221912384,
        0.10229519754648209,
        -0.03483966365456581,
        0.1859779804944992,
        -0.040106307715177536,
        0.007462258450686932,
        0.13997018337249756,
        0.46457651257514954,
        -0.09110219031572342,
        -0.33303937315940857,
        -0.2604895234107971,
        0.13600589334964752,
        0.060469239950180054,
        0.1382283866405487,
        0.5451478362083435,
        0.19836343824863434,
        -0.34132349491119385,
        0.12133599817752838,
        -0.087868332862854,
        0.40121614933013916,
        -0.3364865779876709,
        -0.02708824910223484,
        -0.22126071155071259,
        0.2953747808933258,
        -0.04514530673623085,
        0.10293718427419662,
        -0.04316931217908859,
        0.11863400787115097,
        0.13219544291496277,
        0.19731608033180237,
        0.3286036550998688,
        0.13334216177463531,
        0.041352324187755585,
        -0.011422782205045223,
        0.0026613064110279083,
        0.24936434626579285,
        -0.2621033787727356,
        0.32958945631980896,
        0.1321582794189453,
        0.1612909585237503,
        -0.040284112095832825,
        0.027346394956111908,
        -0.06699709594249725,
        0.20714902877807617,
        0.1543705016374588,
        0.2603526711463928,
        0.4576624929904938,
        -0.246003657579422,
        0.010203836485743523,
        0.000035149769246345386,
        -0.06942269206047058,
        0.22294527292251587,
        -0.42475107312202454,
        -0.08125469088554382,
        -0.004546198062598705,
        0.059677187353372574,
        0.17776690423488617,
        0.006538244429975748,
        0.01702006720006466,
        0.36678019165992737,
        0.06675335764884949,
        0.11866029351949692,
        0.2310727834701538,
        -0.13779374957084656,
        -0.3535977005958557,
        0.16193066537380219,
        -0.09421421587467194,
        0.16610197722911835,
        -0.09889619052410126,
        0.016827529296278954,
        -0.20012375712394714,
        -0.45154687762260437,
        0.2412085384130478,
        -0.394540935754776,
        -0.2395021766424179,
        0.22557123005390167,
        -0.3137407600879669,
        -0.26394975185394287,
        -0.2603584825992584,
        -0.00242992234416306,
        0.13017228245735168,
        -0.08689867705106735,
        0.14721807837486267,
        -0.05850343033671379,
        -0.0531705766916275,
        -0.2484947144985199,
        -0.11881369352340698,
        -0.07492835819721222,
        0.02455596625804901,
        -0.17368444800376892,
        -0.2530597746372223,
        0.09428959339857101,
        -0.4228184223175049,
        0.1479320526123047,
        -0.15487515926361084,
        -0.09409201890230179,
        0.11238112300634384,
        -0.14629212021827698,
        -0.1993345022201538,
        -0.11834893375635147,
        -0.12043162435293198,
        -0.2086491584777832,
        -0.057922106236219406,
        -0.25256794691085815,
        0.02067459002137184,
        -0.10038579255342484,
        -0.13722355663776398,
        0.3712739646434784,
        -0.3078044056892395,
        0.201716810464859,
        -0.11624525487422943,
        -0.20284534990787506,
        -0.024421151727437973,
        0.3502179682254791,
        0.35287559032440186,
        0.36233651638031006,
        -0.051038727164268494,
        0.00539838382974267,
        -0.20846857130527496,
        -0.21064749360084534,
        -0.36510202288627625,
        -0.18889333307743073,
        0.09990735352039337,
        0.2038555145263672,
        -0.043926212936639786,
        -0.07374554127454758,
        0.036717504262924194,
        -0.06825631111860275,
        -0.3396359980106354,
        0.1533028483390808,
        -0.07794828712940216,
        -0.08157272636890411,
        0.23281125724315643,
        -0.14274710416793823,
        -0.012251400388777256,
        -0.08194475620985031,
        -0.02699812687933445,
        -0.38127535581588745,
        -0.0937328189611435,
        0.23475708067417145,
        -0.15661434829235077,
        -0.34963497519493103,
        -0.026623062789440155,
        -0.012666338123381138,
        0.0306814294308424,
        -0.3309659957885742,
        -0.22288185358047485,
        -0.3041274845600128,
        0.02750677429139614,
        0.13907893002033234,
        0.09019988775253296,
        -0.05377877503633499,
        0.07717718929052353,
        -0.14067471027374268,
        -0.012410391122102737,
        -0.13238820433616638,
        -0.5018763542175293,
        -0.43150466680526733,
        -0.09178333729505539,
        0.12165127694606781,
        -0.09853299707174301,
        0.006561630871146917,
        0.4481041431427002,
        0.036668673157691956,
        0.12066476047039032,
        -0.2542114555835724,
        0.2070329487323761,
        0.13363942503929138,
        0.21341820061206818,
        -0.20113524794578552,
        -0.23137421905994415,
        -0.09608040750026703,
        -0.026173952966928482,
        0.13659104704856873,
        0.04879991337656975,
        -0.039725493639707565,
        0.09911046177148819,
        0.15537582337856293,
        0.10183815658092499,
        0.10193072259426117,
        0.11708129197359085,
        0.12058565765619278,
        0.16582173109054565,
        -0.07407114654779434,
        -0.04045684635639191,
        -0.19613729417324066,
        -0.20219826698303223,
        0.04247455298900604,
        -0.23320816457271576,
        0.023910215124487877,
        -0.3658987283706665,
        -0.10691917687654495,
        0.19219069182872772,
        0.3265707194805145,
        -0.09864864498376846,
        0.32686755061149597,
        -0.48415976762771606,
        -0.1334138661623001,
        -0.08053112775087357,
        0.05224250257015228,
        -0.1445644348859787,
        -0.2347038984298706,
        -0.14763791859149933,
        0.03797039017081261,
        -0.12390191853046417,
        -0.15543410181999207,
        -0.19154542684555054,
        0.09877531230449677,
        0.017202306538820267,
        0.10169565677642822,
        -0.26186421513557434,
        0.26469892263412476,
        -0.008830364793539047,
        -0.08918256312608719,
        -0.039902202785015106,
        0.20273064076900482,
        -0.11465279012918472,
        0.05168091133236885,
        -0.22941730916500092,
        -0.29516586661338806,
        0.004193009342998266,
        -0.2668824791908264,
        -0.1898123174905777,
        -0.12608490884304047,
        0.31224173307418823,
        -0.5645484328269958,
        -0.023366987705230713,
        0.19228492677211761,
        0.5763300657272339,
        -0.20639385282993317,
        0.29847028851509094,
        -0.07098850607872009,
        0.07385126501321793,
        -0.0355030819773674,
        0.2803138494491577,
        0.33080950379371643,
        -0.07842686772346497,
        -0.037318408489227295,
        -0.22995130717754364,
        -0.03761766478419304,
        0.04290284216403961,
        -0.10532978177070618,
        0.06572631001472473,
        0.13405558466911316,
        0.25386327505111694,
        -0.2855584919452667,
        0.3896655738353729,
        0.17741772532463074,
        0.2405286580324173,
        0.052455078810453415,
        -0.02329525165259838,
        0.05607004091143608,
        0.32390859723091125,
        0.23236317932605743,
        -0.04017629101872444,
        0.21236847341060638,
        0.3566643297672272,
        0.2717859447002411,
        -0.2563607096672058,
        -0.08484082669019699,
        0.27211031317710876,
        -0.20971240103244781,
        0.4244854152202606,
        0.0003730803437065333,
        -0.07582151144742966,
        -0.3874496817588806,
        -0.4063336253166199,
        0.07634678483009338,
        0.11734888702630997,
        0.11619742959737778,
        -0.27274957299232483,
        0.26724162697792053,
        0.026015035808086395,
        0.34347426891326904,
        0.4564562439918518,
        0.32081055641174316,
        -0.23798295855522156,
        -0.20485880970954895,
        -0.21261435747146606,
        0.39772358536720276,
        0.10272149741649628,
        -0.33497458696365356,
        0.06439466774463654,
        0.056132975965738297,
        0.01669931784272194,
        -0.11434581875801086,
        0.06978818774223328,
        0.19897882640361786,
        0.029284806922078133,
        0.09104324132204056,
        0.000845673552248627,
        0.0583161897957325,
        0.263426810503006,
        -0.37740108370780945,
        0.25284475088119507,
        0.3601989150047302,
        -0.31260260939598083,
        0.12028694897890091,
        -0.04424425587058067,
        -0.11026805639266968,
        -0.2905865013599396,
        -0.02862098067998886,
        -0.11046633124351501,
        -0.12457934021949768,
        0.17545950412750244,
        -0.03704877570271492,
        0.3572286367416382,
        0.25454962253570557,
        0.3582240343093872,
        -0.5450186133384705,
        0.019630054011940956,
        -0.17814584076404572,
        0.20179429650306702,
        -0.12277841567993164,
        0.014862427487969398,
        0.28393134474754333,
        0.18124762177467346,
        -0.011144758202135563,
        0.29010286927223206,
        -0.19568362832069397,
        0.19437868893146515,
        0.046885523945093155,
        -0.046995822340250015,
        -0.13155333697795868,
        -0.18852949142456055,
        -0.4198700785636902,
        0.10325047373771667,
        -0.18546847999095917,
        -0.02707120217382908,
        0.16942228376865387,
        -0.006119583733379841,
        0.013294179923832417,
        0.43098291754722595,
        0.05848922207951546,
        0.21588332951068878,
        -0.17645734548568726,
        0.17644810676574707,
        0.12063533067703247,
        0.22810566425323486,
        -0.25060293078422546,
        0.10638778656721115,
        0.07656034082174301,
        0.33792203664779663,
        -0.08887317031621933,
        0.11428753286600113,
        -0.08817807585000992,
        0.029650002717971802,
        -0.11250899732112885,
        0.1836884617805481,
        0.3249320983886719,
        -0.23028358817100525,
        0.06110285222530365,
        -0.0331566259264946,
        0.41353917121887207,
        0.020480651408433914,
        -0.22198525071144104,
        0.1077011227607727,
        0.14457310736179352,
        0.004579767119139433,
        0.3288639485836029,
        -0.056812386959791183,
        -0.2265234738588333,
        0.1557825207710266,
        -0.15181709825992584,
        0.062381163239479065,
        0.14656701683998108,
        -0.061454493552446365,
        0.31497570872306824,
        -0.2895418405532837,
        0.3894542157649994,
        0.04192432761192322,
        -0.25142017006874084,
        0.3718782067298889,
        -0.03210611641407013,
        0.21718591451644897,
        0.5680323839187622,
        -0.45037713646888733,
        0.032139845192432404,
        -0.2146899700164795,
        -0.0976879745721817,
        -0.06747928261756897,
        -0.12668929994106293,
        -0.07581205666065216,
        0.27436476945877075,
        0.0406937338411808,
        0.2784935235977173,
        0.136291041970253,
        -0.2117447704076767,
        -0.08392836898565292,
        -0.493813157081604,
        -0.02590177021920681,
        -0.1974741369485855,
        -0.14680637419223785,
        -0.06019417569041252,
        0.2879520654678345,
        0.3700089752674103,
        0.2762196958065033,
        -0.10031256824731827,
        0.5443735122680664,
        -0.13134633004665375,
        0.08442644774913788,
        -0.31978633999824524,
        -0.28523170948028564,
        0.21139192581176758,
        -0.4633229672908783,
        -0.17939817905426025,
        -0.234689399600029,
        -0.14100995659828186,
        -0.04533595219254494,
        0.00992654450237751,
        0.1733134388923645,
        0.3661893606185913,
        0.16171897947788239,
        0.36104968190193176,
        0.09033878892660141,
        -0.42633292078971863,
        0.1907838135957718,
        0.1298058032989502,
        -0.3086808919906616,
        -0.06766217947006226,
        -0.1628130078315735,
        -0.048363249748945236,
        -0.21016879379749298,
        -0.28994402289390564,
        0.11698725074529648,
        0.24780726432800293,
        0.09235657006502151,
        -0.17801937460899353,
        -0.11433830857276917,
        0.36343830823898315,
        0.20035246014595032,
        -0.38531461358070374,
        -0.20176191627979279,
        0.22577305138111115,
        -0.5430971384048462,
        -0.22107191383838654,
        0.04316055774688721,
        0.5985285043716431,
        0.015013287775218487,
        -0.3500598967075348,
        -0.19956034421920776,
        0.32574406266212463,
        0.14027747511863708,
        -0.229401633143425,
        -0.07049557566642761,
        0.4202618896961212,
        0.17846591770648956,
        0.23467618227005005,
        -0.069020576775074,
        0.16573446989059448,
        -0.8347674012184143,
        -0.06963671743869781,
        0.11177190393209457,
        -0.13395710289478302,
        0.1920301914215088,
        -0.12175814062356949,
        -0.40451541543006897,
        -0.31372636556625366,
        0.3183708190917969,
        0.16329050064086914,
        -0.025017114356160164,
        0.2179107964038849,
        0.27416664361953735,
        0.2163076400756836,
        -0.15098178386688232,
        -0.153537780046463,
        0.05323684960603714,
        0.25527194142341614,
        -0.32515424489974976,
        -0.38303300738334656,
        -0.08743531256914139,
        -0.05697938799858093,
        -0.0508645623922348,
        -0.06099483370780945,
        0.1712520718574524,
        -0.10813569277524948,
        -0.05249753221869469,
        0.5152792930603027,
        0.06948218494653702,
        -0.11081702262163162,
        -0.3084752559661865,
        0.043824441730976105,
        0.1487446129322052,
        -0.3006047308444977,
        -0.5837677717208862,
        -0.09622043371200562,
        0.26227110624313354,
        -0.035367995500564575,
        0.024094296619296074,
        0.05905136093497276,
        -0.048579614609479904,
        0.06833546608686447,
        0.011666804552078247,
        0.4530044198036194,
        -0.04039997607469559,
        -0.1684180200099945,
        -0.259794145822525,
        0.35964614152908325,
        0.7231205701828003,
        -0.09217463433742523,
        0.11983494460582733,
        0.0014976655365899205,
        -0.07996814697980881,
        -0.13045178353786469,
        0.0030323159880936146,
        0.29624223709106445,
        -0.30040064454078674,
        -0.06717699021100998,
        0.2876746654510498,
        -0.04299153387546539,
        0.13865256309509277,
        0.15248049795627594,
        -0.32574793696403503,
        0.0574273057281971,
        -0.3899519741535187,
        0.04517100378870964,
        0.11657688021659851,
        0.0406886525452137,
        0.060708899050951004,
        -0.016928095370531082,
        0.4756413996219635,
        0.29010412096977234,
        -0.8178822994232178,
        -0.2792357802391052,
        0.06802774965763092,
        -0.34223175048828125,
        0.12372204661369324,
        -0.04339559003710747,
        -0.11348183453083038,
        -0.2735244035720825,
        0.11139728873968124,
        0.0732177197933197,
        -0.025017106905579567,
        -0.044144172221422195,
        -0.01701519638299942,
        -0.1233045756816864,
        0.23840053379535675,
        0.18573027849197388,
        -0.27448511123657227,
        -0.02484097331762314,
        -0.2175319790840149,
        -0.3554188311100006,
        -0.0207479540258646,
        -0.07733819633722305,
        0.0557941235601902,
        0.13465771079063416,
        -0.12071332335472107,
        -0.31753721833229065,
        -0.12772321701049805,
        -0.09475162625312805,
        0.5347440838813782,
        0.07034902274608612,
        -0.0925130620598793,
        -0.061037275940179825,
        0.23164425790309906,
        0.10293436795473099,
        -0.13779094815254211,
        -0.142786905169487,
        -0.02257796935737133,
        -0.0430835597217083,
        0.077749103307724,
        0.22059960663318634,
        -0.05685586854815483,
        0.1025787964463234,
        -0.37213245034217834,
        -0.22838985919952393,
        0.00535071175545454,
        0.06425553560256958,
        -0.5275420546531677,
        0.010127315297722816,
        0.11962741613388062,
        -0.35349366068840027,
        -0.15390491485595703,
        -0.17798542976379395,
        0.020555905997753143,
        -0.2140779197216034,
        -0.13078992068767548,
        -0.16229285299777985,
        0.29096201062202454,
        0.07171068340539932,
        -0.009749343618750572,
        -0.3059256970882416,
        -0.09545350819826126,
        -0.27476903796195984,
