{
  "learningRate": 0.005,
  "layers": [
    {
      "type": "input",
      "shape": [
        1,
        28,
        28,
        1
      ]
    },
    {
      "type": "dense",
      "inputSize": 784,
      "outputSize": 128,
      "activation": "relu",
      "weights": [
        0.012742672115564346,
        -0.01767808571457863,
        -0.016875499859452248,
        0.017769601196050644,
        -0.020037274807691574,
        0.004927836358547211,
        -0.000064399755501654,
        -0.01980544440448284,
        -0.022010892629623413,
        0.01493835262954235,
        0.020856807008385658,
        -0.018114805221557617,
        0.00740917818620801,
        0.014323580078780651,
        -0.0032208766788244247,
        0.01780117116868496,
        0.007821706123650074,
        -0.0047875395976006985,
        0.007665906101465225,
        0.01919708400964737,
        -0.000006066790319891879,
        -0.0168107058852911,
        -0.02230212651193142,
        0.009753572754561901,
        0.002384097082540393,
        0.0026150918565690517,
        0.0026301525067538023,
        -0.022471506148576736,
        -0.01611173339188099,
        0.015219704248011112,
        -0.00820674654096365,
        0.009831869043409824,
        -0.006550825200974941,
        -0.01648329198360443,
        -0.02239246666431427,
        0.010344148613512516,
        0.02017052471637726,
        -0.007758378982543945,
        0.004620931576937437,
        -0.004710760898888111,
        -0.002253857208415866,
        0.009192629717290401,
        0.006045989226549864,
        0.019540755078196526,
        0.022417474538087845,
        0.008388523012399673,
        -0.015579522587358952,
        -0.01127719972282648,
        -0.02145487628877163,
        -0.005036849528551102,
        -0.012813164852559566,
        0.004728370811790228,
        0.012502806261181831,
        -0.023021407425403595,
        -0.01787525601685047,
        0.009233514778316021,
        -0.005997421685606241,
        0.021357616409659386,
        -0.012043246068060398,
        0.016442030668258667,
        -0.0050764381885528564,
        0.00027187084197066724,
        0.012219216674566269,
        -0.009867191314697266,
        -0.013848142698407173,
        0.01590716280043125,
        -0.002041615080088377,
        -0.025863980874419212,
        0.016301719471812248,
        0.0015717896167188883,
        -0.02352483756840229,
        0.014904553070664406,
        0.001545633072964847,
        -0.015354642644524574,
        0.017553644254803658,
        0.006554207298904657,
        0.007237744051963091,
        0.01887943409383297,
        -0.0020509485621005297,
        0.002884557470679283,
        -0.014331876300275326,
        0.019794199615716934,
        0.022982202470302582,
        0.0031287081073969603,
        0.012698334641754627,
        0.002956869313493371,
        -0.013870653696358204,
        0.006496794056147337,
        0.002268221927806735,
        -0.007857776246964931,
        -0.015778619796037674,
        -0.0007425794610753655,
        -0.010025067254900932,
        0.012343509122729301,
        0.007583353668451309,
        0.01977994479238987,
        -0.022423917427659035,
        0.015683161094784737,
        0.0010255224769935012,
        -0.012307210825383663,
        0.007441760040819645,
        0.0012199565535411239,
        -0.015350067056715488,
        -0.0074002183973789215,
        -0.011791156604886055,
        0.002721609314903617,
        -0.01834726147353649,
        -0.020383965224027634,
        -0.008974346332252026,
        -0.014676529914140701,
        -0.014091414399445057,
        0.018892435356974602,
        0.0011697282316163182,
        -0.02037958614528179,
        -0.02064652182161808,
        0.0002731831627897918,
        0.005091069731861353,
        0.010498152114450932,
        -0.005599867086857557,
        -0.01509871520102024,
        -0.004261209163814783,
        0.011278310790657997,
        0.00199134717695415,
        -0.015686023980379105,
        -0.023048771545290947,
        -0.024108337238430977,
        -0.013736057095229626,
        0.018268177285790443,
        -0.02099289931356907,
        -0.004043279681354761,
        -0.00705687003210187,
        0.01706322468817234,
        -0.02005893737077713,
        -0.0028572813607752323,
        -0.006637146696448326,
        -0.0038262158632278442,
        0.01615532860159874,
        -0.010103958658874035,
        0.013719982467591763,
        -0.008515290915966034,
        -0.005287709180265665,
        0.017412560060620308,
        -0.01894623413681984,
        0.0015424039447680116,
        -0.019808538258075714,
        0.003954969346523285,
        0.019669625908136368,
        -0.010828729718923569,
        0.02167244255542755,
        0.02575146034359932,
        0.010899381712079048,
        0.011243858374655247,
        -0.005530271213501692,
        -0.0005334453890100121,
        0.021406209096312523,
        -0.017906416207551956,
        -0.026968231424689293,
        0.01163884811103344,
        -0.023441117256879807,
        0.010626847855746746,
        0.005075425840914249,
        -0.007774151861667633,
        -0.023788785561919212,
        -0.01527123898267746,
        0.012531639076769352,
        -0.013170869089663029,
        0.021573593840003014,
        0.000030252684155129828,
        0.019333526492118835,
        0.00999741442501545,
        -0.019994795322418213,
        0.008610116317868233,
        0.016393959522247314,
        0.0020339868497103453,
        -0.017000887542963028,
        0.02260974794626236,
        -0.01837882027029991,
        0.008656744845211506,
        0.0067132688127458096,
        -0.02507307566702366,
        0.003145976923406124,
        -0.004542849492281675,
        0.013616814278066158,
        0.016052424907684326,
        -0.014138119295239449,
        -0.018520263954997063,
        -0.022110022604465485,
        0.0032973308116197586,
        -0.009367578662931919,
        -0.0068271104246377945,
        0.01698332652449608,
        -0.0028416430577635765,
        0.0020666508935391903,
        0.010628003627061844,
        0.010541670955717564,
        -0.001398170250467956,
        -0.017898431047797203,
        0.019564654678106308,
        -0.01585562527179718,
        -0.00973679218441248,
        0.01805245317518711,
        -0.017652040347456932,
        0.011060054413974285,
        0.0007735243416391313,
        0.00494405860081315,
        0.0028697061352431774,
        0.016292016953229904,
        -0.010199200361967087,
        -0.02116447687149048,
        0.013395850546658039,
        -0.012078691273927689,
        0.019708652049303055,
        -0.022969450801610947,
        0.00037085814983583987,
        -0.00934029184281826,
        0.01834229566156864,
        0.012424704618752003,
        -0.0030586677603423595,
        0.013432493433356285,
        0.0013460101326927543,
        0.020207982510328293,
        -0.01824606955051422,
        -0.0019238366512581706,
        0.0232556015253067,
        -0.015485791489481926,
        -0.01539376936852932,
        0.025149667635560036,
        0.014170825481414795,
        -0.006394791416823864,
        -0.007143768481910229,
        0.002557456959038973,
        -0.01546714548021555,
        0.015546121634542942,
        0.008400247432291508,
        -0.011065191589295864,
        0.005619836039841175,
        0.008858970366418362,
        0.0010842093033716083,
        -0.019091354683041573,
        -0.027618523687124252,
        -0.0020515015348792076,
        -0.0030462930444628,
        -0.007859925739467144,
        0.005522776395082474,
        0.004408034961670637,
        -0.02449423260986805,
        -0.02054794505238533,
        -0.017047973349690437,
        0.013101535849273205,
        0.017337016761302948,
        0.01871146820485592,
        0.004279270302504301,
        0.009347833693027496,
        -0.015961896628141403,
        0.03160702437162399,
        0.02808089181780815,
        0.008921459317207336,
        -0.008017659187316895,
        -0.005764186382293701,
        -0.0039673540741205215,
        -0.006694070529192686,
        -0.020294558256864548,
        -0.006060272920876741,
        0.0042336019687354565,
        -0.0013442841591313481,
        -0.007045624777674675,
        0.006696111056953669,
        -0.029874512925744057,
        0.008815123699605465,
        0.0004010348638985306,
        0.0242302268743515,
        0.002658369019627571,
        -0.012751004658639431,
        -0.011878805235028267,
        -0.009256971068680286,
        -0.015172746963799,
        0.004894816782325506,
        0.02441777102649212,
        0.008440988138318062,
        -0.016189638525247574,
        0.0023275897838175297,
        0.00916221458464861,
        -0.002917115343734622,
        0.022067997604608536,
        -0.018747510388493538,
        -0.015736930072307587,
        0.0051109972409904,
        -0.017193404957652092,
        0.020827777683734894,
        0.003558036871254444,
        -0.001562927383929491,
        0.0005305453087203205,
        0.014340455643832684,
        0.029807250946760178,
        0.022864554077386856,
        -0.01572507992386818,
        -0.002275615930557251,
        0.0003991119738202542,
        0.012608670629560947,
        -0.0050858319737017155,
        0.019534289836883545,
        0.012915137223899364,
        0.02184285596013069,
        0.016864418983459473,
        0.024727262556552887,
        0.0023727514781057835,
        -0.0012337617808952928,
        0.006961057893931866,
        -0.006480432115495205,
        0.015268436633050442,
        0.008027573116123676,
        -0.004068502690643072,
        -0.0183916836977005,
        -0.021482668817043304,
        0.0034465747885406017,
        -0.004577742423862219,
        0.004288987256586552,
        -0.02735806070268154,
        0.020466724410653114,
        0.010979831218719482,
        -0.01334221288561821,
        -0.0057926480658352375,
        0.01888319104909897,
        0.011954872868955135,
        -0.012362657114863396,
        -0.025200583040714264,
        -0.0012471535010263324,
        0.019286444410681725,
        -0.01086498238146305,
        0.003724349197000265,
        0.01751447282731533,
        -0.014860819093883038,
        0.010462941601872444,
        0.004205324687063694,
        -0.0023563378490507603,
        0.01746770553290844,
        0.007492060773074627,
        0.009748311713337898,
        -0.0020196419209241867,
        0.013555419631302357,
        -0.0027421184349805117,
        0.0013226120499894023,
        -0.01936306059360504,
        -0.00946164783090353,
        -0.03151044249534607,
        -0.02720750868320465,
        0.0075210039503872395,
        0.020459525287151337,
        0.02258371002972126,
        0.021236110478639603,
        -0.0028078611940145493,
        0.020386459305882454,
        0.02610272541642189,
        -0.015352630987763405,
        -0.010990634560585022,
        -0.00800391286611557,
        -0.005491611547768116,
        -0.008544263429939747,
        -0.011584322899580002,
        0.011595560237765312,
        -0.019994208589196205,
        -0.000389513501431793,
        -0.005596762057393789,
        0.015948263928294182,
        0.00516224792227149,
        0.008293882943689823,
        0.014263101853430271,
        -0.00746761541813612,
        0.013992280699312687,
        0.0035344893112778664,
        -0.011944238096475601,
        0.007753503043204546,
        -0.03028072975575924,
        -0.002705743070691824,
        -0.010030913166701794,
        -0.00592475850135088,
        -0.008583887480199337,
        0.007418339140713215,
        -0.015832634642720222,
        0.0032635575626045465,
        -0.005488052032887936,
        -0.011370196007192135,
        -0.029446935281157494,
        0.0014182820450514555,
        -0.02241358533501625,
        -0.0186807569116354,
        -0.017549408599734306,
        -0.02232968620955944,
        0.017207248136401176,
        0.014090335927903652,
        0.012231236323714256,
        -0.011536373756825924,
        -0.014383997768163681,
        0.010497655719518661,
        0.01663953810930252,
        0.01445814035832882,
        -0.0029342665802687407,
        -0.005511729512363672,
        0.015993719920516014,
        0.0001303933240706101,
        -0.0020811641588807106,
        -0.015692230314016342,
        0.012949718162417412,
        0.010129997506737709,
        -0.020344875752925873,
        0.010901992209255695,
        -0.02588890679180622,
        -0.007667156867682934,
        0.029402827844023705,
        -0.0027276130858808756,
        0.006408399902284145,
        -0.00964127853512764,
        -0.0014770685229450464,
        -0.018778014928102493,
        0.01743987202644348,
        -0.009118963964283466,
        0.01020850520581007,
        -0.012143605388700962,
        0.014377038925886154,
        -0.004973601084202528,
        -0.022563138976693153,
        0.0019459505565464497,
        0.009841498918831348,
        -0.008259802125394344,
        -0.015042303130030632,
        0.005969373509287834,
        0.0006749477470293641,
        0.012843003496527672,
        0.005446909926831722,
        0.01954459585249424,
        -0.01731186918914318,
        0.010102303698658943,
        0.022121058776974678,
        -0.00822805892676115,
        -0.006750766653567553,
        0.01624339260160923,
        0.016406051814556122,
        -0.012030222453176975,
        -0.023912105709314346,
        0.005152235273271799,
        -0.017611108720302582,
        0.01845049485564232,
        0.015074062161147594,
        -0.00012986091314814985,
        0.019353175535798073,
        -0.008524002507328987,
        0.019397469237446785,
        0.010193520225584507,
        0.005562840960919857,
        -0.023847073316574097,
        0.012140831910073757,
        0.005441611632704735,
        0.002358468482270837,
        0.030814995989203453,
        0.011160318739712238,
        0.008530392311513424,
        0.002934712218120694,
        0.006294324062764645,
        -0.010278025642037392,
        0.003814755706116557,
        -0.021414993330836296,
        -0.01115004438906908,
        0.00763340387493372,
        -0.017318733036518097,
        0.02829522080719471,
        0.005999223794788122,
        -0.008530414663255215,
        0.006643195170909166,
        0.015060801059007645,
        0.01694841869175434,
        -0.00938075128942728,
        -0.0139640923589468,
        0.009427318349480629,
        0.008785995654761791,
        0.008974741213023663,
        -0.007612606044858694,
        0.01314711943268776,
        -0.020526975393295288,
        -0.006130550056695938,
        -0.012357940897345543,
        0.011148463934659958,
        0.0028908252716064453,
        -0.013491623103618622,
        -0.00021947843197267503,
        -0.00291956914588809,
        0.0131659135222435,
        -0.019720736891031265,
        -0.0015211342833936214,
        -0.0031031244434416294,
        0.007572498172521591,
        -0.020990433171391487,
        0.004675714764744043,
        0.03080589883029461,
        0.01661699451506138,
        -0.009852444753050804,
        -0.01525254175066948,
        0.020124416798353195,
        -0.019621482118964195,
        0.017028965055942535,
        0.006584221962839365,
        -0.0013312799856066704,
        0.014950479380786419,
        0.004907809663563967,
        0.01830703765153885,
        -0.005777085665613413,
        -0.001669128891080618,
        -0.005529884714633226,
        -0.02166525088250637,
        -0.013624328188598156,
        0.026792025193572044,
        -0.014180086553096771,
        0.020712846890091896,
        -0.0066055734641849995,
        -0.0076431529596447945,
        -0.012354280799627304,
        0.009829036891460419,
        -0.019809259101748466,
        0.021983666345477104,
        -0.004294543992727995,
        -0.01186758279800415,
        0.023006506264209747,
        0.011193334124982357,
        -0.007862629368901253,
        -0.00779885845258832,
        0.008839594200253487,
        -0.005696835927665234,
        -0.004854926373809576,
        -0.027446268126368523,
        -0.008579932153224945,
        -0.01418886799365282,
        -0.00239632953889668,
        -0.010963888838887215,
        0.008525542914867401,
        -0.01632562465965748,
        -0.01947637088596821,
        0.014135492034256458,
        0.02184983715415001,
        0.013463031500577927,
        -0.01720963418483734,
        0.005878882482647896,
        -0.0005382248782552779,
        0.021505314856767654,
        -0.007859460078179836,
        -0.009836583398282528,
        -0.0008368835551664233,
        0.0016272817738354206,
        0.005589458160102367,
        0.004011066630482674,
        0.003930777311325073,
        -0.017904529348015785,
        -0.0009178532636724412,
        0.0004056858306284994,
        0.007528709713369608,
        -0.0021210776176303625,
        -0.010056295432150364,
        0.002887842943891883,
        -0.009101616218686104,
        0.012698921374976635,
        -0.017613619565963745,
        0.015465225093066692,
        -0.022919172421097755,
        -0.010637825354933739,
        0.01851199008524418,
        0.01524689793586731,
        0.009869213216006756,
        -0.01145092025399208,
        -0.010128357447683811,
        0.012333521619439125,
        0.004389213398098946,
        0.011646386235952377,
        -0.008007857948541641,
        -0.017670318484306335,
        0.025627337396144867,
        0.016054993495345116,
        0.0070263976231217384,
        -0.0010180105455219746,
        -0.014991989359259605,
        -0.027778679504990578,
        0.015859713777899742,
        -0.012729384005069733,
        0.013677007518708706,
        -0.0018231269204989076,
        -0.004369933158159256,
        -0.016288472339510918,
        0.007962719537317753,
        0.018111350014805794,
        -0.020965443924069405,
        0.01948908530175686,
        -0.01631140150129795,
        0.0005846403073519468,
        -0.006601002532988787,
        -0.02203386276960373,
        0.020745711401104927,
        -0.025858735665678978,
        0.006369857583194971,
        0.02063802070915699,
        0.00035599732655100524,
        0.0062250117771327496,
        0.004706765525043011,
        -0.021846037358045578,
        -0.010557640343904495,
        0.008266606368124485,
        -0.01235661469399929,
        -0.012863138690590858,
        0.006358371581882238,
        -0.012704114429652691,
        -0.02233472466468811,
        -0.018426382914185524,
        -0.005810026079416275,
        0.011255694553256035,
        0.004111992660909891,
        0.007030948996543884,
        -0.006926503963768482,
        -0.011002907529473305,
        0.021523481234908104,
        -0.0031206721905618906,
        -0.01920473203063011,
        0.0025541677605360746,
        -0.006063005421310663,
        -0.011247032321989536,
        0.01993744634091854,
        -0.010158865712583065,
        0.01664254628121853,
        -0.024702847003936768,
        -0.02062869258224964,
        0.02301678992807865,
        -0.0005355222965590656,
        0.015117832459509373,
        -0.0025912891142070293,
        0.00609307736158371,
        0.02003491297364235,
        0.022409658879041672,
        0.015108795836567879,
        -0.0014929582830518484,
        0.014756318181753159,
        -0.022119980305433273,
        -0.013270444236695766,
        -0.01503837015479803,
        -0.013726904056966305,
        0.002437917049974203,
        -0.01075015589594841,
        0.0012975664576515555,
        0.020574595779180527,
        0.005960904993116856,
        -0.008816934190690517,
        0.007144513539969921,
        -0.01730480045080185,
        0.018145909532904625,
        0.027768127620220184,
        0.0005962917348369956,
        0.009727154858410358,
        -0.0005655259592458606,
        0.012990469112992287,
        -0.02158111333847046,
        0.003897252259775996,
        0.0008358787163160741,
        -0.023741932585835457,
        0.0015165400691330433,
        -0.02241702936589718,
        -0.007966738194227219,
        -0.005322460550814867,
        0.015851665288209915,
        -0.017236605286598206,
        0.00150765641592443,
        -0.0013867091620340943,
        -0.001302983146160841,
        0.005886606406420469,
        0.009976089932024479,
        -0.005455814767628908,
        -0.007594285532832146,
        -0.005639392416924238,
        0.004735983442515135,
        -0.012645733542740345,
        -0.012310348451137543,
        -0.016277164220809937,
        0.017895808443427086,
        0.001188464812003076,
        -0.007886877283453941,
        0.0091389250010252,
        -0.007917073555290699,
        0.022799445316195488,
        -0.017917288467288017,
        -0.011447452940046787,
        0.016316484659910202,
        0.010550443083047867,
        0.012681215070188046,
        -0.004198628012090921,
        0.010015152394771576,
        0.010929803363978863,
        0.018028534948825836,
        0.02179342322051525,
        0.0006367656169459224,
        -0.016653433442115784,
        0.005110485013574362,
        0.00035705717164091766,
        -0.01931658759713173,
        0.014539392665028572,
        -0.01084339153021574,
        -0.02013055793941021,
        0.00023321325716096908,
        -0.0005834317416884005,
        0.01588209718465805,
        0.01913386397063732,
        0.014309560880064964,
        -0.01459487248212099,
        -0.014933492057025433,
        0.003892516950145364,
        -0.020818771794438362,
        0.010550539009273052,
        0.00742681510746479,
        -0.010205633006989956,
        0.016061972826719284,
        -0.025383086875081062,
        0.02239813655614853,
        0.020074719563126564,
        -0.017794355750083923,
        0.0045479666441679,
        0.003943443764001131,
        0.016552675515413284,
        -0.0010046180104836822,
        -0.0020592804066836834,
        0.004660265054553747,
        0.0010170098394155502,
        0.02099689282476902,
        -0.016285831108689308,
        0.0034311104100197554,
        0.005231963470578194,
        0.013416120782494545,
        0.017696648836135864,
        0.009871131740510464,
        -0.008025742135941982,
        -0.008260268718004227,
        -0.005965795833617449,
        0.0059151300229132175,
        0.0016645027790218592,
        0.022996976971626282,
        -0.016276612877845764,
        0.017998887225985527,
        -0.012916667386889458,
        -0.009223335422575474,
        0.009697938337922096,
        -0.010958913713693619,
        -0.010384922847151756,
        -0.0002416825300315395,
        0.01296151988208294,
        -0.012540526688098907,
        -0.016743214800953865,
        0.015811631456017494,
        0.001503306208178401,
        -0.006470272783190012,
        -0.015500371344387531,
        -0.02341310866177082,
        0.011621467769145966,
        0.010409535840153694,
        0.009644229896366596,
        0.014211948961019516,
        -0.0018617254681885242,
        0.01547698862850666,
        -0.020127154886722565,
        -0.0024842582643032074,
        0.009122010320425034,
        0.022387541830539703,
        0.008550677448511124,
        -0.005322849377989769,
        0.012051399797201157,
        0.009361685253679752,
        -0.02100864052772522,
        0.008946905843913555,
        0.020956002175807953,
        0.01607925072312355,
        0.022939475253224373,
        -0.003223353996872902,
        -0.002268756739795208,
        0.02046976611018181,
        0.02264481782913208,
        0.0171184204518795,
        0.019905827939510345,
        -0.005898637231439352,
        -0.020996112376451492,
        -0.005116504151374102,
        0.014372416771948338,
        0.006300277076661587,
        -0.020725302398204803,
        0.0014807720435783267,
        -0.018776433542370796,
        -0.021989980712532997,
        0.009061344899237156,
        -0.01735970936715603,
        -0.004704707767814398,
        -0.014098611660301685,
        0.009068352170288563,
        0.0034930570982396603,
        0.006501338444650173,
        -0.021900121122598648,
        -0.013429968617856503,
        0.019055895507335663,
        -0.01332701463252306,
        0.010870481841266155,
        0.007385002914816141,
        -0.010887476615607738,
        0.011840114369988441,
        0.018441103398799896,
        0.017464473843574524,
        -0.0069602979347109795,
        0.017666751518845558,
        0.002710577566176653,
        -0.019909733906388283,
        0.014719226397573948,
        -0.006320794578641653,
        -0.0036492496728897095,
        0.010262991301715374,
        0.004813751671463251,
        0.0071655092760920525,
        -0.012007057666778564,
        0.003974429331719875,
        0.01270237471908331,
        -0.001105922507122159,
        -0.00688847154378891,
        0.018170470371842384,
        -0.0016382007161155343,
        0.01447261031717062,
        0.019744768738746643,
        -0.009462044574320316,
        0.009305371902883053,
        0.020052116364240646,
        -0.010944434441626072,
        0.010485646314918995,
        0.0009981523035094142,
        -0.021711446344852448,
        -0.004602068569511175,
        -0.010736040771007538,
        -0.0016133019234985113,
        0.01752435602247715,
        0.01487310416996479,
        0.004516694229096174,
        0.02429162710905075,
        -0.008304332382977009,
        -0.012632627971470356,
        0.020693998783826828,
        0.01654179021716118,
        0.01097110752016306,
        -0.0014414897887036204,
        0.0009146631928160787,
        -0.0187838114798069,
        0.0038815010339021683,
        0.0193133894354105,
        0.0008934525540098548,
        -0.009526178240776062,
        -0.01437875535339117,
        0.008798118680715561,
        0.01482523512095213,
        -0.004570093005895615,
        -0.02450880967080593,
        0.0020962152630090714,
        -0.029143350198864937,
        0.013298526406288147,
        0.012145076878368855,
        -0.012969247065484524,
        0.00856782402843237,
        0.012847615405917168,
        -0.02195192500948906,
        -0.016664402559399605,
        -0.007397019304335117,
        -0.019730515778064728,
        0.003076695604249835,
        0.018051672726869583,
        -0.0004931221483275294,
        0.007100628223270178,
        -0.012280900962650776,
        -0.009348937310278416,
        -0.019026711583137512,
        -0.015032779425382614,
        0.006121223326772451,
        0.005944907199591398,
        0.018327733501791954,
        -0.016136975958943367,
        0.018089402467012405,
        0.011417906731367111,
        0.019679659977555275,
        0.00608126912266016,
        -0.015635725110769272,
        -0.007017899304628372,
        0.009372876025736332,
        -0.013976302929222584,
        0.017625005915760994,
        0.011853506788611412,
        0.019634384661912918,
        0.015511705540120602,
        -0.0014140843413770199,
        -0.004740051459521055,
        0.012640067376196384,
        -0.0103676188737154,
        -0.01092857401818037,
        0.022548066452145576,
        -0.012449909932911396,
        0.02058751881122589,
        -0.007954553700983524,
        0.0061238007619977,
        0.011833446100354195,
        -0.00738546485081315,
        -0.0186251699924469,
        -0.012333951890468597,
        0.014451420865952969,
        0.012765716761350632,
        0.014236576855182648,
        0.006721709854900837,
        0.018199140205979347,
        0.023209674283862114,
        0.021289264783263206,
        -0.018646279349923134,
        -0.01634933426976204,
        0.012445522472262383,
        -0.003582944627851248,
        -0.018264375627040863,
        0.012553397566080093,
        0.016059642657637596,
        0.00863135326653719,
        0.007871365174651146,
        -0.008912979625165462,
        0.008755886927247047,
        -0.006118070334196091,
        0.0034907141234725714,
        0.01114952377974987,
        -0.006901178974658251,
        0.005759660620242357,
        -0.00013821730681229383,
        0.011164093390107155,
        -0.016036802902817726,
        -0.01919759251177311,
        0.026010828092694283,
        0.019223682582378387,
        0.01781635545194149,
        -0.013971039094030857,
        0.005520923528820276,
        0.009972217492759228,
        0.009140781126916409,
        0.014102810062468052,
        0.023223407566547394,
        0.005834129173308611,
        -0.006901503540575504,
        -0.018454495817422867,
        -0.0007831319817341864,
        0.02366063743829727,
        0.022940173745155334,
        0.011166795156896114,
        -0.012576217763125896,
        -0.02276189997792244,
        -0.0033269880805164576,
        0.013643037527799606,
        0.004055367782711983,
        0.01317844819277525,
        0.006802717223763466,
        -0.02238321676850319,
        0.00633839750662446,
        -0.007083843927830458,
        0.007197071332484484,
        0.007652767468243837,
        0.012325766496360302,
        -0.0006460774457082152,
        -0.010930543765425682,
        0.01453738659620285,
        -0.019603747874498367,
        0.017262069508433342,
        0.02510845474898815,
        0.011175858788192272,
        0.015597441233694553,
        -0.024969464167952538,
        0.013538052327930927,
        0.013425138778984547,
        0.01580454222857952,
        0.010820728726685047,
        -0.009631621651351452,
        0.004769737832248211,
        0.021560106426477432,
        0.013949327170848846,
        0.008048450574278831,
        0.01621207222342491,
        0.008736655116081238,
        -0.019142135977745056,
        -0.02213899791240692,
        -0.00451324786990881,
        -0.02133079059422016,
        -0.0014097989769652486,
        -0.01075692754238844,
        -0.01697516441345215,
        0.006020041648298502,
        -0.012697380036115646,
        -0.01431100070476532,
        -0.006826744414865971,
        -0.017361218109726906,
        0.02906179241836071,
        -0.01169602945446968,
        0.016389023512601852,
        -0.009343530051410198,
        0.003911420702934265,
        -0.01838047243654728,
        -0.008916785009205341,
        0.010947054252028465,
        0.027901535853743553,
        0.018447179347276688,
        -0.01684299297630787,
        -0.024281088262796402,
        -0.0262286439538002,
        -0.024335267022252083,
        0.016037965193390846,
        0.0029163493309170008,
        0.017620015889406204,
        0.019581206142902374,
        0.016922978684306145,
        0.0008188859210349619,
        -0.0037397616542875767,
        -0.014097140170633793,
        0.020183732733130455,
        0.008357126265764236,
        -0.010350859723985195,
        0.02312631905078888,
        0.0025407185312360525,
        0.035744890570640564,
        -0.013994378969073296,
        -0.0033802944235503674,
        0.0065516941249370575,
        -0.0056767151691019535,
        0.0006603209185414016,
        -0.014719340950250626,
        0.014722008258104324,
        0.0016225227154791355,
        -0.012390023097395897,
        -0.005577591713517904,
        0.03133879229426384,
        0.006158501375466585,
        -0.018068255856633186,
        -0.002646591980010271,
        -0.023838816210627556,
        -0.02660249173641205,
        0.014570116065442562,
        -0.0038105228450149298,
        0.0003106833901256323,
        -0.015246524475514889,
        -0.007667240686714649,
        -0.0038301560562103987,
        0.003387667005881667,
        0.025525368750095367,
        0.033858586102724075,
        -0.014003378339111805,
        0.007868117652833462,
        0.031558576971292496,
        0.017770664766430855,
        0.01705256663262844,
        -0.014122183434665203,
        0.011655628681182861,
        0.009901875630021095,
        -0.012565325945615768,
        -0.02118070423603058,
        -0.004139829892665148,
        0.017998389899730682,
        0.006450699642300606,
        -0.001385754905641079,
        -0.0013313194504007697,
        -0.010197670198976994,
        0.005718517582863569,
        0.000909383234102279,
        -0.01072276383638382,
        -0.02022620663046837,
        0.0134979747235775,
        -0.018673602491617203,
        -0.016005944460630417,
        -0.020360928028821945,
        -0.017873559147119522,
        0.016497280448675156,
        -0.014347277581691742,
        0.004817125387489796,
        -0.022279562428593636,
        0.004465998616069555,
        0.029462290927767754,
        0.02787204645574093,
        0.017488183453679085,
        0.007998613640666008,
        0.008697807788848877,
        -0.004775459412485361,
        0.0020455012563616037,
        0.012367906048893929,
        -0.016971170902252197,
        -0.015987997874617577,
        0.013195980340242386,
        -0.018994765356183052,
        -0.011190309189260006,
        -0.012000282295048237,
        -0.024845832958817482,
        -0.026535620912909508,
        0.002601924818009138,
        -0.014401882886886597,
        0.012855871580541134,
        0.001673319493420422,
        0.012993399053812027,
        0.017064396291971207,
        0.0007963813259266317,
        -0.01318936888128519,
        -0.014077464118599892,
        -0.014520621858537197,
        -0.020994389429688454,
        -0.008020913228392601,
        -0.006963232532143593,
        -0.0037231971509754658,
        0.02450489066541195,
        0.012107882648706436,
        -0.015449480153620243,
        -0.012509351596236229,
        -0.020766375586390495,
        0.018117720261216164,
        0.02347259782254696,
        0.017600474879145622,
        -0.021226007491350174,
        0.017370721325278282,
        0.001094097038730979,
        0.011812865734100342,
        0.0076494296081364155,
        -0.020412595942616463,
        -0.002903132000938058,
        0.021466346457600594,
        -0.017552070319652557,
        0.0008731197449378669,
        -0.003249468980357051,
        0.006444085855036974,
        -0.027206921949982643,
        -0.015562189742922783,
        -0.00014790528803132474,
        -0.005801499355584383,
        -0.010543695650994778,
        0.002682284452021122,
        0.016031699255108833,
        0.0101016191765666,
        -0.0026300610043108463,
        0.0019469421822577715,
        -0.009170997887849808,
        -0.004338580649346113,
        -0.022392846643924713,
        0.01640920154750347,
        0.0032312909606844187,
        -0.0038421538192778826,
        -0.02294117584824562,
        0.01616949401795864,
        -0.017334816977381706,
        -0.018029939383268356,
        -0.021898629143834114,
        -0.02075539343059063,
        -0.02264760062098503,
        0.0004647206515073776,
        0.013894811272621155,
        0.00860706064850092,
        -0.010101818479597569,
        0.0010573301697149873,
        -0.017011910676956177,
        -0.017055094242095947,
        0.012299556285142899,
        -0.019963320344686508,
        -0.024494273588061333,
        0.019772863015532494,
        -0.010601402260363102,
        -0.02399795688688755,
        0.020715465769171715,
        -0.0076135327108204365,
        0.023018155246973038,
        0.0059715379029512405,
        -0.007248447742313147,
        -0.00022527646797243506,
        0.016410768032073975,
        -0.013864989392459393,
        0.0006535304710268974,
        -0.026249190792441368,
        -0.026767972856760025,
        -0.016090651974081993,
        -0.026533441618084908,
        0.000722789962310344,
        0.006408558692783117,
        -0.02350444160401821,
        -0.009293898940086365,
        -0.007729705423116684,
        -0.01274822186678648,
        0.017209013924002647,
        -0.01609686017036438,
        0.00009719884837977588,
        -0.018155857920646667,
        -0.001598918461240828,
        0.016408203169703484,
        -0.026246141642332077,
        0.01260448805987835,
        -0.0007376929861493409,
        -0.014999962411820889,
        0.005758596584200859,
        0.002328105503693223,
        0.027422087267041206,
        0.00984904170036316,
        0.006820086855441332,
        0.010023306123912334,
        0.010479345917701721,
        -0.02670266665518284,
        0.012735231779515743,
        -0.008522523567080498,
        -0.010487494058907032,
        0.00394864659756422,
        0.0083225779235363,
        -0.0006465372280217707,
        0.022138133645057678,
        0.0005789598217234015,
        0.010887839831411839,
        -0.013668335042893887,
        -0.009961879812180996,
        -0.021168431267142296,
        -0.025391465052962303,
        0.002260739915072918,
        0.015943530946969986,
        0.00366530055180192,
        -0.004181933123618364,
        0.018486134707927704,
        0.008128012530505657,
        -0.007606590166687965,
        -0.0020888408180326223,
        0.023286212235689163,
        0.01595708355307579,
        -0.014621230773627758,
        0.019245773553848267,
        -0.01968623511493206,
        0.0030593164265155792,
        0.01798134110867977,
        0.006656354293227196,
        -0.007951423525810242,
        -0.017899421975016594,
        -0.01447041891515255,
        -0.024324283003807068,
        0.02315307781100273,
        0.018427958711981773,
        0.021638933569192886,
        0.01573001593351364,
        -0.016054248437285423,
        0.019033383578062057,
        -0.02178407832980156,
        0.012604777701199055,
        0.02097218483686447,
        0.012090718373656273,
        0.005994598381221294,
        0.01455970760434866,
        0.0015414739027619362,
        0.008365299552679062,
        -0.005821196362376213,
        0.005387962330132723,
        -0.0036473022773861885,
        -0.001772766001522541,
        0.020805787295103073,
        -0.002535771345719695,
        0.014970525167882442,
        0.014252323657274246,
        0.014369764365255833,
        -0.003413971746340394,
        0.006892151199281216,
        0.01700129546225071,
        0.0011120294220745564,
        -0.020177224650979042,
        -0.013775448314845562,
        -0.0027070671785622835,
        0.00965208001434803,
        -0.009744171053171158,
        0.00027139094891026616,
        -0.013662666082382202,
        -0.017406011000275612,
        0.012923174537718296,
        -0.008835474029183388,
        -0.012143285013735294,
        -0.0168765876442194,
        -0.01458541490137577,
        -0.00401631323620677,
        -0.015415241941809654,
        -0.009556409902870655,
        0.014328887686133385,
        0.004649717826396227,
        0.016568724066019058,
        0.020698076114058495,
        0.01022101379930973,
        0.020422162488102913,
        -0.01502995379269123,
        0.008779778145253658,
        -0.0009641757351346314,
        -0.009405422955751419,
        0.01895575225353241,
        -0.010553604923188686,
        0.0011842051753774285,
        -0.00399911031126976,
        0.01539349090307951,
        0.005528464913368225,
        -0.020453736186027527,
        -0.0019468612736091018,
        -0.0026898772921413183,
        -0.012004977092146873,
        -0.019272008910775185,
        0.008481636643409729,
        -0.006324279122054577,
        0.009435148909687996,
        0.013750165700912476,
        -0.02268337272107601,
        0.017680075019598007,
        -0.009221358224749565,
        -0.0242127887904644,
        0.0009076077840290964,
        -0.0016909701516851783,
        0.014924336224794388,
        -0.012181593105196953,
        -0.013597331941127777,
        -0.0006587259704247117,
        -0.014601916074752808,
        0.0018172197742387652,
        -0.009864233434200287,
        0.015438963659107685,
        0.01958978734910488,
        0.02470029704272747,
        -0.012917960993945599,
        -0.012812972068786621,
        -0.017953749746084213,
        0.0026532814372330904,
        0.007484995294362307,
        -0.01751900650560856,
        0.011762533336877823,
        0.001367288874462247,
        -0.02261180430650711,
        -0.012807407416403294,
        -0.013846388086676598,
        0.013039389625191689,
        0.012439101003110409,
        -0.003669633762910962,
        -0.0006069426890462637,
        0.012065207585692406,
        -0.0054929726757109165,
        0.016186533495783806,
        -0.015318406745791435,
        -0.00706275412812829,
        0.0029157677199691534,
        -0.016641899943351746,
        -0.016779320314526558,
        -0.017500488087534904,
        -0.014050530269742012,
        -0.004269924946129322,
        0.0207426268607378,
        -0.003142900299280882,
        -0.00725188385695219,
        -0.0004727858176920563,
        0.009028100408613682,
        0.0013480100315064192,
        0.01465847808867693,
        0.012292888946831226,
        -0.028276216238737106,
        -0.007578609511256218,
        0.026409555226564407,
        0.01221491489559412,
        -0.004217016976326704,
        -0.008667348884046078,
        -0.022547733038663864,
        -0.018560752272605896,
        0.004784543998539448,
        0.022962696850299835,
        -0.0026523361448198557,
        -0.010288827121257782,
        -0.011681041680276394,
        -0.014002149924635887,
        -0.015614531934261322,
        -0.002067186404019594,
        0.023963062092661858,
        0.0159822516143322,
        0.017828861251473427,
        -0.017130687832832336,
        0.0126113872975111,
        -0.010061832144856453,
        0.01580945774912834,
        -0.01905282959342003,
        -0.0019021891057491302,
        0.016710590571165085,
        0.0011757351458072662,
        0.008226117119193077,
        -0.010191261768341064,
        0.018909383565187454,
        0.0035989158786833286,
        0.017594901844859123,
        0.014389505609869957,
        0.01699659787118435,
        0.01806638389825821,
        0.008668498136103153,
        -0.001556512783281505,
        0.025744838640093803,
        0.01131749339401722,
        -0.00033012425410561264,
        -0.017603270709514618,
        0.01609722711145878,
        -0.0037735016085207462,
        -0.009921308606863022,
        0.006476300302892923,
        -0.020225519314408302,
        -0.012844907119870186,
        0.0009444146417081356,
        -0.0035841253120452166,
        0.004638052545487881,
        -0.019357848912477493,
        0.007870648056268692,
        -0.021478896960616112,
        -0.014211209490895271,
        -0.020603010430932045,
        -0.010134357959032059,
        -0.019964948296546936,
        -0.0191609188914299,
        -0.002662256360054016,
        -0.023920049890875816,
        0.005699484143406153,
        -0.006372873671352863,
        -0.013396238908171654,
        0.01268173661082983,
        -0.0095304474234581,
        0.0005515098455362022,
        0.003350222948938608,
        0.006433146074414253,
        0.02577458694577217,
        0.026434214785695076,
        0.007837405428290367,
        -0.021440234035253525,
        0.015952063724398613,
        -0.018536753952503204,
        0.008296695537865162,
        -0.023065349087119102,
        0.016040675342082977,
        -0.010363160632550716,
        -0.012285816483199596,
        -0.022524818778038025,
        -0.007831357419490814,
        -0.019046392291784286,
        0.0002051886112894863,
        0.0046877171844244,
        -0.01425610575824976,
        0.007990367710590363,
        0.010487275198101997,
        -0.01089212391525507,
        -0.0024039545096457005,
        -0.024668600410223007,
        0.02212992124259472,
        0.014330782927572727,
        0.005873712711036205,
        -0.005597914103418589,
        -0.026930879801511765,
        -0.009697625413537025,
        -0.016527794301509857,
        -0.011588766239583492,
        0.012568863108754158,
        -0.006432870402932167,
        -0.007759572006762028,
        0.002540736459195614,
        0.00307652004994452,
        -0.020671501755714417,
        -0.014987529255449772,
        -0.024354955181479454,
        -0.00690134521573782,
        -0.014837612397968769,
        -0.018667859956622124,
        0.022928912192583084,
        -0.0007344182813540101,
        -0.00749755697324872,
        0.004992448724806309,
        -0.01831996999680996,
        0.007271690294146538,
        0.016754869371652603,
        0.0026512895710766315,
        -0.015547812916338444,
        0.019640929996967316,
        0.022773005068302155,
        0.020325902849435806,
        -0.004009339027106762,
        -0.012048243544995785,
        0.014414630830287933,
        -0.0026790935080498457,
        -0.00022200420789886266,
        0.0228772833943367,
        -0.017531029880046844,
        0.023898301646113396,
        0.012870440259575844,
        0.020098935812711716,
        -0.00523463636636734,
        -0.023908767849206924,
        -0.009911671280860901,
        -0.01924886740744114,
        0.006932955235242844,
        -0.014401639811694622,
        0.0220746211707592,
        0.009957334958016872,
        0.010002450086176395,
        -0.014861664734780788,
        -0.009796476922929287,
        -0.007464646827429533,
        -0.012903014197945595,
        -0.021424539387226105,
        -0.005269309505820274,
        0.004917929880321026,
        0.017766665667295456,
        0.021480640396475792,
        0.014865202829241753,
        -0.0026856332551687956,
        0.020825810730457306,
        0.013664350844919682,
        0.01657177321612835,
        -0.0036744277458637953,
        -0.015757139772176743,
        -0.01466459408402443,
        0.0019369734218344092,
        -0.012252788990736008,
        -0.008659468963742256,
        0.021069800481200218,
        -0.012140555307269096,
        -0.0007401593611575663,
        -0.012442536652088165,
        0.000042559542634990066,
        -0.0008237417787313461,
        -0.010822218842804432,
        -0.021577004343271255,
        -0.008936857804656029,
        -0.0024909572675824165,
        0.016467781737446785,
        -0.011018134653568268,
        -0.0025824212934821844,
        0.0031655505299568176,
        -0.021147340536117554,
        -0.020805438980460167,
        0.012536068446934223,
        0.002353289630264044,
        0.02194620855152607,
        -0.012461147271096706,
        -0.012302577495574951,
        0.015051217749714851,
        -0.009637264534831047,
        0.014608064666390419,
        -0.0037319979164749384,
        0.012246446684002876,
        0.018915630877017975,
        0.008291423320770264,
        -0.005353592801839113,
        0.002525042975321412,
        0.010742217302322388,
        0.018338795751333237,
        -0.0032517805229872465,
        -0.01212318055331707,
        0.0074471766129136086,
        -0.0025508953258395195,
        0.007151647936552763,
        -0.017957402393221855,
        0.0006217171903699636,
        0.010993474163115025,
        0.003761136904358864,
        -0.00851633120328188,
        0.016398420557379723,
        0.014732512645423412,
        0.0030011481139808893,
        0.022396661341190338,
        0.002006964525207877,
        -0.0012783780694007874,
        0.00590764032676816,
        -0.007095398847013712,
        0.023287124931812286,
        0.013863678090274334,
        0.00542272487655282,
        -0.01730651967227459,
        0.015087341889739037,
        -0.017616508528590202,
        0.015828812494874,
        0.0048264856450259686,
        0.011388540267944336,
        -0.01631831005215645,
        0.013173762708902359,
        -0.008710622787475586,
        0.007369854487478733,
        -0.004905511625111103,
        -0.00005479378887685016,
        -0.017723461613059044,
        -0.02244531735777855,
        -0.021735338494181633,
        0.004533568397164345,
        -0.020702999085187912,
        -0.02013999968767166,
        -0.006390276364982128,
        0.0075449589639902115,
        -0.018749786540865898,
        -0.020216306671500206,
        0.021838268265128136,
        -0.011732199229300022,
        -0.02079036459326744,
        -0.02317832037806511,
        0.011454400606453419,
        -0.009358284994959831,
        -0.014085737057030201,
        -0.004316316451877356,
        0.002010090509429574,
        -0.014533462934195995,
        0.009742198511958122,
        -0.011847148649394512,
        -0.0022644910495728254,
        -0.01436604093760252,
        0.011761950328946114,
        0.00726492190733552,
        0.009752866812050343,
        0.014224707148969173,
        0.014755375683307648,
        -0.004439179785549641,
        -0.011441504582762718,
        -0.0058145225048065186,
        -0.014723449014127254,
        0.005263601895421743,
        0.010163492523133755,
        -0.0019592491444200277,
        0.017080405727028847,
        0.011107901111245155,
        -0.015462386421859264,
        -0.016619915142655373,
        -0.013161192648112774,
        -0.016191935166716576,
        -0.0015110013773664832,
        -0.015745703130960464,
        0.011026948690414429,
        0.011285890825092793,
        -0.0020557716488838196,
        -0.017307665199041367,
        0.017850127071142197,
        0.021603362634778023,
        -0.012823384255170822,
        -0.005362979136407375,
        -0.00479458412155509,
        0.01038400549441576,
        0.007613692432641983,
        -0.021375708281993866,
        0.013988170772790909,
        -0.016426870599389076,
        0.004712378140538931,
        -0.015734924003481865,
        0.007437448482960463,
        0.006052764132618904,
        0.01803424209356308,
        -0.0179680697619915,
        0.014513910748064518,
        -0.017885809764266014,
        -0.007490319199860096,
        0.004051621071994305,
        0.01039847917854786,
        0.014604096300899982,
        -0.005935473833233118,
        0.008930608630180359,
        -0.02229299023747444,
        -0.014970585703849792,
        0.01487601175904274,
        0.003990622702986002,
        0.02464662864804268,
        0.01568692922592163,
        0.004982691258192062,
        0.021758968010544777,
        -0.015681499615311623,
        -0.006687162443995476,
        -0.020090611651539803,
        0.00742800859734416,
        -0.004951898008584976,
        -0.011500699445605278,
        0.009669356979429722,
        0.023243684321641922,
        -0.011133471503853798,
        -0.010761448182165623,
        -0.022256679832935333,
        0.01551823876798153,
        0.005241227336227894,
        0.017999323084950447,
        -0.016790324822068214,
        -0.014914785511791706,
        0.00863500777631998,
        0.013152457773685455,
        -0.012937537394464016,
        -0.023311274126172066,
        0.00392523780465126,
        -0.0048858653753995895,
        0.003998871892690659,
        0.023329490795731544,
        0.013734151609241962,
        0.01919357292354107,
        -0.01940450817346573,
        -0.0044585601426661015,
        -0.008741631172597408,
        0.021118560805916786,
        0.013709315098822117,
        -0.010173133574426174,
        -0.0066481600515544415,
        -0.020033765584230423,
        -0.01889694668352604,
        0.02335071936249733,
        -0.007034820504486561,
        0.020583881065249443,
        0.01661941595375538,
        -0.019622301682829857,
        -0.01534612663090229,
        -0.013789189048111439,
        -0.027975469827651978,
        0.00552245182916522,
        -0.006011258810758591,
        0.015739770606160164,
        -0.024158554151654243,
        0.007660935167223215,
        0.001978307729586959,
        0.01087773498147726,
        0.011469014920294285,
        -0.018390720710158348,
        0.02496069297194481,
        0.006374678574502468,
        0.014753386378288269,
        0.0038830481935292482,
        0.006069859955459833,
        -0.013343948870897293,
        -0.009707645513117313,
        0.02020752988755703,
        0.012751976028084755,
        0.022633422166109085,
        0.01410071924328804,
        -0.01515296008437872,
        0.01561189629137516,
        -0.02707035094499588,
        -0.025757016614079475,
        -0.02333175577223301,
        0.003054733155295253,
        -0.01601056009531021,
        0.015967687591910362,
        -0.0018729586154222488,
        0.010636473074555397,
        -0.018995068967342377,
        0.0046522910706698895,
        -0.009773030877113342,
        0.0038657186087220907,
        -0.01200154423713684,
        0.0206076018512249,
        0.02144371159374714,
        -0.010641551576554775,
        0.008912005461752415,
        -0.021656982600688934,
        0.001789488480426371,
        -0.0033781975507736206,
        0.017781760543584824,
        0.02208678424358368,
        0.013353489339351654,
        -0.01673278957605362,
        -0.01718524657189846,
        0.011225652880966663,
        -0.02610822021961212,
        0.019853364676237106,
        -0.01017460785806179,
        0.012406895868480206,
        0.012607877142727375,
        0.00955191720277071,
        -0.0008358730119653046,
        -0.004098651465028524,
        -0.005376596935093403,
        -0.008004325442016125,
        0.0013515502214431763,
        -0.01318271178752184,
        0.005448202136904001,
        -0.010657953098416328,
        -0.01897289790213108,
        0.02320377714931965,
        0.02661595679819584,
        0.023112449795007706,
        0.003695148043334484,
        0.0025083411019295454,
        -0.006390748545527458,
        0.0031918217428028584,
        -0.015270690433681011,
        -0.01749349758028984,
        -0.015026888810098171,
        -0.014680453576147556,
        0.004403335973620415,
        0.0017405395628884435,
        -0.010811129584908485,
        -0.00028615351766347885,
        -0.02964501455426216,
        0.010140573605895042,
        0.011019617319107056,
        -0.012110169976949692,
        -0.007869862020015717,
        0.006549435667693615,
        0.0026063884142786264,
        0.011788644827902317,
        0.00004323470056988299,
        -0.019099412485957146,
        -0.010385127738118172,
        0.012310843914747238,
        -0.0015523128677159548,
        -0.011775795370340347,
        0.02355095185339451,
        -0.008558368310332298,
        0.025731466710567474,
        0.009923997335135937,
        -0.017436230555176735,
        -0.01910587213933468,
        -0.013494569808244705,
        -0.005921210628002882,
        0.027373086661100388,
        0.007910337299108505,
        -0.003472929820418358,
        -0.015309838578104973,
        0.007215840741991997,
        -0.0005271057016216218,
        -0.026231233030557632,
        0.008554331958293915,
        -0.004185513127595186,
        0.013713480904698372,
        -0.011597058735787868,
        -0.02231445349752903,
        0.016481194645166397,
        -0.018373822793364525,
        0.00028201297391206026,
        -0.01101087499409914,
        -0.019984526559710503,
        -0.0034850947558879852,
        0.005964185576885939,
        0.004356806632131338,
        0.03157065808773041,
        0.012973424047231674,
        -0.0007017715834081173,
        0.005116837564855814,
        0.0026519952807575464,
        -0.021760359406471252,
        -0.020472342148423195,
        -0.00026651821099221706,
        0.018588831648230553,
        0.009363277815282345,
        -0.024561356753110886,
        0.0021091746166348457,
        0.0034986459650099277,
        -0.01068638265132904,
        0.0007162675610743463,
        -0.002125832252204418,
        -0.011348124593496323,
        0.013480016961693764,
        -0.01757935993373394,
        -0.003688707947731018,
        -0.015646282583475113,
        -0.01641126535832882,
        0.009614530950784683,
        0.020119410008192062,
        -0.012324918992817402,
        -0.0031801690347492695,
        0.008600357919931412,
        -0.007361103780567646,
        0.013208886608481407,
        0.007700602989643812,
        -0.0008434660849161446,
        -0.014271076768636703,
        -0.01349729485809803,
        0.0034674082417041063,
        0.006913435645401478,
        -0.016540920361876488,
        0.01682937704026699,
        0.0007853412535041571,
        0.004230659920722246,
        0.009713282808661461,
        0.023904714733362198,
        -0.008883512578904629,
        -0.018354767933487892,
        -0.004764139652252197,
        -0.01037915050983429,
        -0.004166399594396353,
        -0.0238447617739439,
        -0.011013131588697433,
        -0.005636690650135279,
        -0.0023921728134155273,
        -0.017403632402420044,
        -0.00322423642501235,
        0.02356070652604103,
        -0.014883909374475479,
        0.0008720554760657251,
        -0.004002578090876341,
        -0.012801139615476131,
        0.018208283931016922,
        0.013969769701361656,
        -0.0019918852485716343,
        -0.0175025537610054,
        0.013002724386751652,
        0.00869075208902359,
        -0.016325943171977997,
        0.003175259567797184,
        -0.01886230707168579,
        0.012588108889758587,
        0.0025775879621505737,
        0.005313824396580458,
        -0.008924463763833046,
        -0.0019239122048020363,
        0.007958543486893177,
        -0.000022416363208321854,
        0.014013709500432014,
        0.02123824879527092,
        -0.020881718024611473,
        0.02109222300350666,
        -0.008365767076611519,
        0.014446415938436985,
        -0.02360484004020691,
        0.01066829264163971,
        -0.01128888688981533,
        -0.01990433782339096,
        0.02245023474097252,
        0.010706503875553608,
        0.011333193629980087,
        0.026977967470884323,
        -0.009512122720479965,
        0.015340544283390045,
        -0.01987575739622116,
        -0.012865318916738033,
        0.019340531900525093,
        -0.019176354631781578,
        0.01891717128455639,
        0.007033242844045162,
        -0.011785550974309444,
        0.02782762423157692,
        0.00961365271359682,
        0.021534152328968048,
        -0.0053981295786798,
        0.01740281656384468,
        0.00012609023542609066,
        -0.010510537773370743,
        0.015782034024596214,
        -0.013578282669186592,
        -0.006896332371979952,
        -0.02020268701016903,
        -0.006176192779093981,
        -0.009191361255943775,
        0.018735459074378014,
        0.0034907874651253223,
        0.0022451530676335096,
        0.006717241369187832,
        0.00256029749289155,
        0.00715031148865819,
        0.006164258345961571,
        -0.00756277609616518,
        -0.015677766874432564,
        0.020238563418388367,
        0.0005885289865545928,
        0.016590462997555733,
        0.010708209127187729,
        -0.007007553707808256,
        0.017673833295702934,
        0.023527778685092926,
        -0.02415950782597065,
        -0.010645326226949692,
        0.011909296736121178,
        -0.006121344864368439,
        -0.031170638278126717,
        -0.02670135721564293,
        0.006780003197491169,
        -0.028747253119945526,
        0.009937056340277195,
        -0.003993695136159658,
        -0.0058291456662118435,
        -0.005936275701969862,
        -0.022252971306443214,
        -0.012466546148061752,
        -0.008593480102717876,
        0.008885882794857025,
        -0.020364804193377495,
        0.0005618357681669295,
        -0.00038600104744546115,
        0.01422559842467308,
        -0.01960711181163788,
        -0.021175188943743706,
        -0.01653909496963024,
        -0.004660704638808966,
        0.013326739892363548,
        0.016542386263608932,
        0.020255060866475105,
        0.012087815441191196,
        0.014509216882288456,
        -0.002343597123399377,
        -0.016908034682273865,
        0.012356309220194817,
        -0.013783370144665241,
        -0.023111995309591293,
        -0.000645182270091027,
        -0.0017461056122556329,
        -0.01041385903954506,
        0.01710163988173008,
        -0.02307082712650299,
        -0.020868336781859398,
        0.005182232707738876,
        -0.002148462925106287,
        0.018597669899463654,
        -0.005868446081876755,
        -0.007633562665432692,
        0.01268985215574503,
        -0.0017669990193098783,
        0.00908254086971283,
        0.00955998245626688,
        0.008166300132870674,
        0.0004356271238066256,
        0.02096574753522873,
        -0.015689106658101082,
        -0.001819681841880083,
        -0.002494847634807229,
        0.020067017525434494,
        -0.007501577027142048,
        0.016375089064240456,
        -0.01938278041779995,
        0.0005233086412772536,
        -0.024260174483060837,
        0.009400490671396255,
        -0.011625509709119797,
        0.008690276183187962,
        -0.01480927411466837,
        0.0002436331706121564,
        0.020509209483861923,
        -0.007869478315114975,
        -0.005641032941639423,
        0.003162654582411051,
        0.01754760555922985,
        0.0009762285626493394,
        0.017398880794644356,
        0.009937514550983906,
        0.005762371700257063,
        0.012184546329081059,
        -0.020753422752022743,
        -0.00045707228127866983,
        0.00980664324015379,
        0.008147192187607288,
        -0.016993114724755287,
        0.005319254007190466,
        0.00905446708202362,
        0.011774463579058647,
        0.014361740089952946,
        0.0073821647092700005,
        -0.009427927434444427,
        0.013411200605332851,
        0.004756066482514143,
        -0.007133943028748035,
        0.003876701695844531,
        -0.012497702613472939,
        0.01297683734446764,
        -0.017200864851474762,
        0.004427732899785042,
        -0.013902355916798115,
        -0.00807708129286766,
        0.0020752015989273787,
        -0.0046027847565710545,
        0.012309642508625984,
        0.015003548935055733,
        0.008288371376693249,
        0.014375079423189163,
        0.019778713583946228,
        -0.0015938036376610398,
        -0.019349027425050735,
        -0.008304168470203876,
        0.02390904724597931,
        0.009170066565275192,
        -0.011687187477946281,
        0.022057808935642242,
        0.019620630890130997,
        -0.018464578315615654,
        0.02247132733464241,
        -0.009241213090717793,
        -0.025714822113513947,
        -0.0018339470261707902,
        0.004017776809632778,
        -0.021574269980192184,
        -0.004246746189892292,
        -0.01356574334204197,
        -0.016779309138655663,
        -0.01368251908570528,
        -0.02119704894721508,
        -0.018372340127825737,
        -0.015937933698296547,
        -0.02139716036617756,
        0.010980496183037758,
        0.01513989083468914,
        -0.0229076836258173,
        -0.0044205584563314915,
        -0.00875399075448513,
        0.015323065221309662,
        0.0101655637845397,
        0.018245743587613106,
        -0.0004363732587080449,
        -0.0035481236409395933,
        0.013926125131547451,
        0.0002608482609502971,
        -0.013712787069380283,
        0.009645973332226276,
        -0.012173899449408054,
        0.010120153427124023,
        0.018349280580878258,
        0.017392637208104134,
        -0.005911204963922501,
        -0.01762549579143524,
        -0.006708871107548475,
        -0.020129907876253128,
        0.015423825941979885,
        -0.025779156014323235,
        -0.0045880163088440895,
        -0.00010271303472109139,
        0.00946742668747902,
        0.023985929787158966,
        0.021960701793432236,
        0.022373324260115623,
        -0.0023476078640669584,
        0.021065419539809227,
        -0.007783001288771629,
        0.02185211516916752,
        -0.002419636817649007,
        0.009459462016820908,
        -0.013308824971318245,
        -0.006449094507843256,
        -0.010946241207420826,
        0.020945606753230095,
        -0.021279891952872276,
        0.007078250870108604,
        -0.004541962873190641,
        -0.005970126483589411,
        -0.0016587346326559782,
        -0.014689880423247814,
        -0.006938048172742128,
        -0.005680875387042761,
        0.02509137988090515,
        0.003816620446741581,
        -0.016888128593564034,
        0.006684402469545603,
        -0.02030187100172043,
        -0.01635896787047386,
        -0.0011678783921524882,
        0.022504447028040886,
        -0.004567131400108337,
        -0.012934264726936817,
        -0.01509961299598217,
        0.01538767572492361,
        -0.00098106125369668,
        0.0037224646657705307,
        -0.0015681255608797073,
        -0.008290967904031277,
        -0.0016428283415734768,
        -0.004348732065409422,
        -0.024056293070316315,
        0.013257469981908798,
        0.013170911930501461,
        -0.01478516310453415,
        -0.011125167831778526,
        0.014037768356502056,
        0.0020821052603423595,
        0.010825452394783497,
        -0.00023092783521860838,
        -0.0187895055860281,
        -0.019252309575676918,
        -0.01809803768992424,
        -0.0013870390830561519,
        0.007964632473886013,
        0.0067306202836334705,
        0.002247719094157219,
        -0.003215535543859005,
        0.0018328307196497917,
        -0.010560371913015842,
        0.0007317300187423825,
        -0.011832361109554768,
        0.009054029360413551,
        0.01721091754734516,
        0.004765243735164404,
        -0.014628668315708637,
        0.01024595182389021,
        -0.007088060490787029,
        -0.002244300441816449,
        -0.007263483479619026,
        -0.00803834106773138,
        0.011270747520029545,
        0.027803843840956688,
        -0.011428581550717354,
        0.01919572986662388,
        -0.007877867668867111,
        0.01301964558660984,
        -0.01039748452603817,
        0.0026603308506309986,
        0.014313092455267906,
        -0.029525185003876686,
        -0.009872141294181347,
        0.014066276140511036,
        -0.01169896312057972,
        0.0076378108933568,
        0.026983682066202164,
        -0.018592357635498047,
        0.011460165493190289,
        -0.007029087282717228,
        0.006567947566509247,
        0.020065797492861748,
        0.002568695927038789,
        0.021822355687618256,
        -0.009791835211217403,
        -0.0006078516598790884,
        -0.006783925928175449,
        0.0026852949522435665,
        -0.013511719182133675,
        -0.003720282344147563,
        -0.004976764786988497,
        0.011842462234199047,
        0.00542624993249774,
        -0.008521144278347492,
        0.0034429666120558977,
        0.00022118256310932338,
        0.013911827467381954,
        -0.0011483266716822982,
        -0.001941439462825656,
        -0.024387821555137634,
        0.003935628104954958,
        -0.007531627546995878,
        0.023508768528699875,
        -0.007963855750858784,
        0.0007546339184045792,
        0.020389026030898094,
        -0.018320921808481216,
        0.004998705815523863,
        -0.002437880728393793,
        -0.01646164059638977,
        0.010322513990104198,
        0.01459332462400198,
        -0.008195939473807812,
        -0.016414856538176537,
        -0.01260223425924778,
        0.014219922944903374,
        0.016784509643912315,
        -0.021388279274106026,
        -0.01711968332529068,
        0.022069524973630905,
        -0.002769456710666418,
        -0.019003495573997498,
        -0.02399522066116333,
        -0.010784279555082321,
        0.012219211086630821,
        -0.019318902865052223,
        -0.009830865077674389,
        0.022308915853500366,
        -0.018686996772885323,
        0.015651151537895203,
        0.018204068765044212,
        0.0009576919255778193,
        -0.001395495142787695,
        -0.02419518120586872,
        0.00229993206448853,
        -0.017527103424072266,
        -0.015647489577531815,
        -0.017344383522868156,
        0.013127260841429234,
        0.022281059995293617,
        -0.020189853385090828,
        -0.016818104311823845,
        -0.011113021522760391,
        0.013335177674889565,
        -0.0016201495891436934,
        -0.016259439289569855,
        -0.012728079222142696,
        0.018902277573943138,
        -0.019735010340809822,
        0.006679074838757515,
        0.021453209221363068,
        0.023438764736056328,
        0.01925574243068695,
        0.01639413833618164,
        0.01993722654879093,
        -0.005178949795663357,
        0.004627133719623089,
        -0.0022758522536605597,
        0.021225962787866592,
        0.00014127364556770772,
        -0.019802376627922058,
        -0.024123402312397957,
        0.014716511592268944,
        0.013084249570965767,
        0.0022975816391408443,
        -0.010308058001101017,
        0.021413525566458702,
        -0.018838537856936455,
        0.003494905773550272,
        0.013819849118590355,
        -0.013641783967614174,
        -0.011165004223585129,
        0.013068645261228085,
        -0.010256328620016575,
        0.014795064926147461,
        0.006516290362924337,
        0.0027141538448631763,
        0.017851300537586212,
        -0.015827680006623268,
        0.010981066152453423,
        -0.01660587266087532,
        -0.012476734817028046,
        0.00973909068852663,
        -0.0030098112765699625,
        -0.0011275167344138026,
        -0.02240961790084839,
        0.006055224221199751,
        0.011934506706893444,
        -0.016876261681318283,
        0.021526644006371498,
        -0.01676459237933159,
        0.002763516968116164,
        -0.012431882321834564,
        -0.012956323102116585,
        0.019111061468720436,
        -0.01769222877919674,
        -0.01118191983550787,
        0.000180087547050789,
        0.007635295856744051,
        -0.022568117827177048,
        0.020580293610692024,
        -0.01109419297426939,
        0.0029531673062592745,
        0.010189931839704514,
        0.013234702870249748,
        -0.019236326217651367,
        -0.007362487725913525,
        -0.002819421235471964,
        -0.005015641450881958,
        0.01684713177382946,
        -0.012684568762779236,
        -0.013989782892167568,
        0.011409064754843712,
        -0.004435500130057335,
        -0.007811243180185556,
        0.008223428390920162,
        0.0053491368889808655,
        0.0023909013252705336,
        0.014270235784351826,
        -0.010219365358352661,
        0.013904527761042118,
        -0.014025965705513954,
        0.017257414758205414,
        -0.011342737823724747,
        0.01798224076628685,
        -0.018369095399975777,
        0.01609398052096367,
        -0.01178755983710289,
        -0.00797194242477417,
        -0.010995314456522465,
        0.0007981927483342588,
        -0.020715564489364624,
        -0.008056840859353542,
        -0.003079081652686,
        0.0043253968469798565,
        -0.0013252627104520798,
        -0.005845887586474419,
        -0.01648862659931183,
        -0.006677055265754461,
        -0.015485519543290138,
        -0.0038396616000682116,
        0.00921507179737091,
        0.006493964232504368,
        0.019252756610512733,
        0.010366258211433887,
        -0.00767301581799984,
        0.011119063943624496,
        0.007047488819807768,
        0.01926533319056034,
        0.02152198553085327,
        0.021599549800157547,
        -0.009365573525428772,
        -0.02067520283162594,
        0.0025302665308117867,
        -0.012620457448065281,
        -0.018623048439621925,
        -0.022139666602015495,
        -0.001720497733913362,
        0.01753927767276764,
        0.020469963550567627,
        0.020359361544251442,
        -0.010621103458106518,
        -0.014447689056396484,
        0.003204547567293048,
        -0.0219437126070261,
        0.017383702099323273,
        0.008160363882780075,
        -0.0038266486953943968,
        -0.02272883802652359,
        0.011684791184961796,
        -0.005430878140032291,
        -0.006744857877492905,
        0.014251400716602802,
        0.006888085976243019,
        0.015263336710631847,
        -0.004189325962215662,
        0.012148883193731308,
        0.010998006910085678,
        -0.008048716001212597,
        -0.014081627130508423,
        -0.012404493987560272,
        0.004132992587983608,
        0.020663147792220116,
        -0.01875746250152588,
        0.014194123446941376,
        -0.0008601087029092014,
        0.010972532443702221,
        -0.020458796992897987,
        -0.011129413731396198,
        0.018855784088373184,
        -0.013817835599184036,
        -0.00906805507838726,
        0.011369260959327221,
        0.01104985736310482,
        0.009045534767210484,
        0.02441699244081974,
        0.017517272382974625,
        -0.009628999046981335,
        0.0057805064134299755,
        0.018797896802425385,
        -0.0002772945153992623,
        0.004448276478797197,
        -0.01512052956968546,
        -0.015604021027684212,
        0.008266417309641838,
        -0.023311732336878777,
        -0.006807608064264059,
        0.009489120915532112,
        -0.0049878922291100025,
        -0.007219276390969753,
        0.006232020910829306,
        -0.013905121013522148,
        0.015250073745846748,
        -0.012712928466498852,
        0.008698304183781147,
        -0.006759255658835173,
        0.007725930772721767,
        0.018612021580338478,
        0.004088153131306171,
        0.02555946633219719,
        0.012398784048855305,
        -0.006157421041280031,
        0.03619544953107834,
        0.014738325960934162,
        0.019863277673721313,
        -0.020654184743762016,
        -0.01597524806857109,
        0.016814246773719788,
        0.01308982353657484,
        -0.005492136348038912,
        -0.007615298964083195,
        -0.007669997867196798,
        0.015088902786374092,
        0.009598624892532825,
        -0.006990689784288406,
        -0.012625190429389477,
        0.022537635639309883,
        -0.015151669271290302,
        -0.0006188579136505723,
        0.013193447142839432,
        -0.02127794176340103,
        -0.01421546470373869,
        0.009884921833872795,
        -0.02456534095108509,
        0.004714715760201216,
        -0.0043111140839755535,
        0.0035354639403522015,
        0.02171270176768303,
        0.0005461418768391013,
        0.03402985259890556,
        -0.0049413577653467655,
        0.004301971290260553,
        -0.004150052089244127,
        -0.017410414293408394,
        0.016361704096198082,
        -0.013412888161838055,
        -0.0030654629226773977,
        0.00830183643847704,
        -0.005623111966997385,
        0.013707810081541538,
        -0.0027095256373286247,
        -0.005541379563510418,
        0.002985593630000949,
        -0.013529419898986816,
        -0.013427814468741417,
        -0.013136145658791065,
        -0.021844245493412018,
        0.017759688198566437,
        -0.022512489929795265,
        -0.012044858187437057,
        0.026577167212963104,
        0.01225800160318613,
        0.004510110709816217,
        -0.022310743108391762,
        0.007520733401179314,
        0.004445709753781557,
        0.021677549928426743,
        0.01948733627796173,
        -0.014610977843403816,
        -0.004103916697204113,
        -0.0036056065000593662,
        -0.0007478295010514557,
        -0.007303287740796804,
        -0.01294937077909708,
        -0.015475003980100155,
        -0.001066364347934723,
        -0.007619176059961319,
        -0.0016105088870972395,
        0.01707124523818493,
        -0.02341625839471817,
        -0.007513788063079119,
        -0.013797000981867313,
        0.005373838823288679,
        -0.00022989476565271616,
        0.0032749082893133163,
        -0.027312034741044044,
        0.011131545528769493,
        -0.011743934825062752,
        -0.016001250594854355,
        -0.00004372265175334178,
        -0.012056098319590092,
        -0.01812278851866722,
        0.006864470895379782,
        0.0036015883088111877,
        -0.006139214150607586,
        -0.009303899481892586,
        -0.011973564513027668,
        -0.000025424968043807894,
        0.0002305067901033908,
        0.004441825207322836,
        -0.0037175386678427458,
        0.00039620266761630774,
        -0.008017798885703087,
        0.004721500910818577,
        0.004707552492618561,
        0.01318294182419777,
        0.0011475363280624151,
        -0.005028154235333204,
        0.015671536326408386,
        0.0052304500713944435,
        0.020156793296337128,
        0.007213827222585678,
        -0.02500109188258648,
        0.0032423052471131086,
        0.005446821451187134,
        0.01420209277421236,
        -0.014421822503209114,
        0.002795348409563303,
        0.013437100686132908,
        0.014995154924690723,
        0.0275086872279644,
        0.0157944206148386,
        0.0257023386657238,
        -0.0012327255681157112,
        0.009378114715218544,
        0.01866619661450386,
        -0.004493638873100281,
        0.003079319605603814,
        -0.03223269432783127,
        -0.008345129899680614,
        -0.005233364645391703,
        0.006978821009397507,
        0.011730414815247059,
        0.012391387484967709,
        -0.02373887225985527,
        -0.01475336030125618,
        -0.022034330293536186,
        0.01137575414031744,
        -0.0010980769293382764,
        -0.0017482552211731672,
        0.015237176790833473,
        -0.004935750272125006,
        -0.01749121956527233,
        -0.012730815447866917,
        -0.005927118938416243,
        0.011727210134267807,
        0.019099371507763863,
        0.00446205073967576,
        0.0121703390032053,
        0.031174704432487488,
        0.01818394660949707,
        -0.0024524698965251446,
        0.006318648811429739,
        -0.009112296625971794,
        0.009060637094080448,
        0.0016571971355006099,
        -0.011831083334982395,
        -0.02201651781797409,
        -0.008329300209879875,
        0.01021535787731409,
        -0.025870781391859055,
        -0.0026541221886873245,
        -0.016502099111676216,
        -0.005823304411023855,
        0.0015589854447171092,
        -0.012635295279324055,
        -0.019983649253845215,
        -0.02345653437077999,
        -0.010183353908360004,
        0.015513862483203411,
        0.020387256518006325,
        0.014762013219296932,
        0.02881409414112568,
        -0.013679319992661476,
        0.006382321938872337,
        0.02168443240225315,
        0.02314971387386322,
        -0.005878459196537733,
        0.012514131143689156,
        -0.008291956968605518,
        0.021416321396827698,
        0.026606593281030655,
        0.034453410655260086,
        -0.004858701955527067,
        -0.013394041918218136,
        -0.009594916366040707,
        -0.00714523671194911,
        0.01000236626714468,
        -0.0218327809125185,
        0.004779570735991001,
        -0.011596925556659698,
        0.019345968961715698,
        0.01360339391976595,
        0.004118829034268856,
        -0.013259927742183208,
        -0.0020056425128132105,
        -0.018423346802592278,
        -0.021745460107922554,
        0.024943208321928978,
        0.009411526843905449,
        -0.009584675543010235,
        0.004369144327938557,
        0.018498478457331657,
        0.019235730171203613,
        -0.005647342652082443,
        -0.01899082586169243,
        0.008332177996635437,
        0.025536565110087395,
        0.0017800579080358148,
        -0.014408659189939499,
        -0.006469412706792355,
        -0.004145647864788771,
        0.031086299568414688,
        0.013449019752442837,
        -0.00529153598472476,
        0.025334052741527557,
        0.008580276742577553,
        0.016203876584768295,
        -0.021171094849705696,
        -0.022346550598740578,
        -0.02078268676996231,
        0.008867839351296425,
        -0.012655644677579403,
        0.012597916647791862,
        -0.016816409304738045,
        0.010551584884524345,
        -0.006267219316214323,
        0.017729418352246284,
        0.006430634297430515,
        0.018553782254457474,
        0.015965323895215988,
        -0.007010930217802525,
        0.008809806779026985,
        0.0004880663473159075,
        -0.020636022090911865,
        -0.02598716877400875,
        -0.02464970014989376,
        0.0218429546803236,
        0.024974791333079338,
        -0.0030979420989751816,
        0.010347622446715832,
        0.013339991681277752,
        -0.01825585588812828,
        0.004510350525379181,
        0.00482985470443964,
        -0.009543108753859997,
        0.015956031158566475,
        0.018806084990501404,
        -0.02238437905907631,
        -0.01451299712061882,
        -0.014912399463355541,
        -0.013638654723763466,
        -0.02738095633685589,
        0.024509446695446968,
        -0.015232453122735023,
        0.014565792866051197,
        -0.008810681290924549,
        0.018908683210611343,
        -0.003086403477936983,
        0.0034032296389341354,
        0.003192758187651634,
        -0.009246439673006535,
        -0.034779347479343414,
        -0.03439760208129883,
        -0.00448271119967103,
        0.005423841066658497,
        0.015917539596557617,
        0.0013637205120176077,
        -0.01964494399726391,
        0.024135198444128036,
        -0.006918791215866804,
        0.005943430587649345,
        0.005775944795459509,
        0.025244319811463356,
        -0.02868667058646679,
        -0.01677120476961136,
        0.005233552306890488,
        0.0005322082433849573,
        -0.02011522836983204,
        -0.01846170239150524,
        0.003350689075887203,
        0.016744380816817284,
        -0.007301867939531803,
        -0.011945769190788269,
        -0.0041314237751066685,
        0.0308473389595747,
        -0.011265907436609268,
        0.017600640654563904,
        0.008938021026551723,
        -0.02979220263659954,
        0.012030420824885368,
        0.016903819516301155,
        -0.01914762146770954,
        -0.003725753864273429,
        0.018884720280766487,
        0.015271025709807873,
        -0.007902559824287891,
        -0.00978249404579401,
        0.03194586932659149,
        -0.01578616537153721,
        0.018047794699668884,
        0.01897817850112915,
        0.02318894863128662,
        -0.004136248957365751,
        0.011015865951776505,
        -0.015507751144468784,
        0.010463668033480644,
        0.0024577626027166843,
        0.0035892059095203876,
        0.02431385964155197,
        0.005897048395127058,
        -0.018792955204844475,
        0.012644344009459019,
        -0.021434178575873375,
        -0.019312141463160515,
        0.012308415956795216,
        -0.020514797419309616,
        0.0014281254261732101,
        0.00606908742338419,
        -0.01127333752810955,
        0.0018024242017418146,
        0.028144966810941696,
        -0.001178004196844995,
        -0.032302916049957275,
        0.022296428680419922,
        0.02003096602857113,
        0.013361752964556217,
        -0.009675833396613598,
        -0.00983142014592886,
        0.02972322516143322,
        0.014583333395421505,
        -0.011930514127016068,
        0.02166413888335228,
        0.010384728200733662,
        -0.02239256352186203,
        0.016591832041740417,
        0.015566997230052948,
        -0.0009567500092089176,
        0.01034291461110115,
        -0.022620849311351776,
        0.004197221249341965,
        0.011910034343600273,
        0.008788619190454483,
        0.018338454887270927,
        0.010295489802956581,
        0.0031554684974253178,
        -0.027549605816602707,
        0.00022620047093369067,
        -0.003542414866387844,
        -0.0080877635627985,
        0.007313203997910023,
        -0.007750609889626503,
        -0.016177615150809288,
        0.01576993055641651,
        0.01737881451845169,
        -0.016162782907485962,
        0.029320312663912773,
        0.02231675758957863,
        0.0003937783185392618,
        0.015954526141285896,
        0.016800323501229286,
        -0.018882857635617256,
        0.011030193418264389,
        0.029032189399003983,
        0.011866474524140358,
        -0.018175087869167328,
        0.0012550882529467344,
        -0.011041732504963875,
        0.026701390743255615,
        -0.010050002485513687,
        -0.005266987252980471,
        -0.0017091358313336968,
        -0.011937383562326431,
        0.010483392514288425,
        0.011606452986598015,
        -0.022682830691337585,
        0.002745500998571515,
        0.0005420184461399913,
        -0.013351798057556152,
        -0.022500988095998764,
        -0.021325215697288513,
        0.02808913215994835,
        0.009413315914571285,
        -0.015407071448862553,
        0.005820909980684519,
        0.03486177325248718,
        0.0250870268791914,
        -0.011430995538830757,
        0.01287342980504036,
        0.009169130586087704,
        0.023452945053577423,
        0.03286520391702652,
        -0.006592436693608761,
        0.006428030785173178,
        0.016136804595589638,
        0.014346220530569553,
        0.0015194113366305828,
        0.008815938606858253,
        0.014004797674715519,
        -0.026615995913743973,
        -0.021183758974075317,
        -0.0008874633931554854,
        0.007620011921972036,
        -0.018082359805703163,
        -0.009172501973807812,
        -0.029995862394571304,
        -0.009587084874510765,
        -0.012408017180860043,
        -0.013050113804638386,
        -0.018009522929787636,
        -0.0051108840852975845,
        -0.0024982907343655825,
        0.009494640864431858,
        0.014754405245184898,
        0.022290339693427086,
        0.01772553287446499,
        0.02063990943133831,
        -0.0179190244525671,
        0.008916769176721573,
        0.038556549698114395,
        0.000765809731092304,
        0.018780896440148354,
        -0.0036353517789393663,
        0.01844906434416771,
        -0.006800525821745396,
        0.014972299337387085,
        -0.0349091999232769,
        -0.0362745001912117,
        -0.011206691153347492,
        -0.03564504534006119,
        0.0081194918602705,
        -0.017167501151561737,
        -0.00015708053251728415,
        -0.01528236549347639,
        -0.028724728152155876,
        -0.0018475878750905395,
        0.011406715027987957,
        0.017927370965480804,
        -0.01040581800043583,
        0.0018035972025245428,
        0.032980822026729584,
        -0.022044319659471512,
        0.034471940249204636,
        0.00563394371420145,
        -0.0001090267687686719,
        0.0021758617367595434,
        0.027477875351905823,
        0.023273058235645294,
        -0.022850165143609047,
        -0.01169754471629858,
        -0.005116187501698732,
        -0.0008874406921677291,
        0.00047466796240769327,
        -0.01726786606013775,
        0.004142978228628635,
        -0.02715718187391758,
        0.006380092352628708,
        -0.030972186475992203,
        -0.005615842994302511,
        -0.01642361469566822,
        -0.0406150221824646,
        -0.021429361775517464,
        -0.01082141324877739,
        0.012714399956166744,
        0.005244867410510778,
        -0.018653759732842445,
        0.013468158431351185,
        0.0074817766435444355,
        0.0015917859273031354,
        -0.008588106371462345,
        0.04341637343168259,
        0.03152262419462204,
        -0.022144734859466553,
        0.006103289779275656,
        -0.0067776464857161045,
        0.009156868793070316,
        -0.023077506572008133,
        0.00878006499260664,
        -0.011637689545750618,
        -0.02711324580013752,
        -0.02821703441441059,
        -0.009023692458868027,
        -0.007713531609624624,
        -0.012470449320971966,
        0.0019350772490724921,
        -0.046777211129665375,
        -0.04125533998012543,
        -0.031039908528327942,
        -0.019534006714820862,
        -0.026094568893313408,
        -0.0057745506055653095,
        0.006035636179149151,
        0.016824806109070778,
        -0.025564013049006462,
        0.0004140019591432065,
        -0.009890471585094929,
        0.005444392096251249,
        0.003936433233320713,
        0.006055945064872503,
        -0.0016360151348635554,
        0.003487885696813464,
        -0.022790109738707542,
        -0.011788971722126007,
        -0.015983600169420242,
        0.015411446802318096,
        -0.0011930374894291162,
        0.005838159006088972,
        -0.003467573318630457,
        -0.001368763973005116,
        -0.03146212920546532,
        -0.01848374493420124,
        -0.018957991153001785,
        0.006335527170449495,
        -0.02599490061402321,
        -0.025011982768774033,
        -0.026710914447903633,
        -0.047598011791706085,
        -0.012970621697604656,
        -0.042134761810302734,
        0.0006853562663309276,
        -0.02843647636473179,
        -0.028649885207414627,
        -0.014060142450034618,
        -0.017444094642996788,
        0.008423999883234501,
        -0.010271711274981499,
        0.026084208860993385,
        -0.00965835154056549,
        0.006086753681302071,
        0.010930889286100864,
        -0.017799196764826775,
        -0.013955598697066307,
        0.016560006886720657,
        0.004053123760968447,
        -0.017979953438043594,
        0.0013792946701869369,
        0.016208240762352943,
        0.02196599915623665,
        -0.032266344875097275,
        -0.016103548929095268,
        -0.023870199918746948,
        -0.03736620768904686,
        -0.00418297853320837,
        -0.011904293671250343,
        -0.030262498185038567,
        -0.009457774460315704,
        0.006149632390588522,
        -0.03363768756389618,
        -0.017109716311097145,
        0.002353225601837039,
        -0.015983199700713158,
        0.022957932204008102,
        -0.00843360461294651,
        0.015119841322302818,
        -0.009038155898451805,
        -0.010981542989611626,
        0.004008435178548098,
        0.021847961470484734,
        -0.01320882048457861,
        0.023185787722468376,
        -0.009690424427390099,
        0.01017511822283268,
        -0.018003974109888077,
        -0.001024018507450819,
        -0.011527853086590767,
        0.006801561452448368,
        -0.03209549933671951,
        -0.006969544105231762,
        0.01474719773977995,
        -0.03197568282485008,
        -0.005206236150115728,
        -0.017447397112846375,
        -0.046516455709934235,
        -0.015225180424749851,
        0.007850884459912777,
        -0.03790177032351494,
        -0.024911310523748398,
        0.007958485744893551,
        -0.0008543339208699763,
        0.005352201405912638,
        0.017173366621136665,
        0.019121333956718445,
        -0.0021399350371211767,
        0.017655853182077408,
        -0.017815478146076202,
        0.005343948490917683,
        0.02179458551108837,
        -0.007995487190783024,
        -0.028408069163560867,
        0.014985533431172371,
        0.009615162387490273,
        0.006593275815248489,
        -0.013314162380993366,
        -0.026132170110940933,
        -0.00723994430154562,
        -0.03498340770602226,
        0.0006874822429381311,
        -0.041953425854444504,
        -0.005747797433286905,
        -0.010120204649865627,
        -0.025254210457205772,
        -0.010181750170886517,
        0.0024984763003885746,
        -0.030948903411626816,
        -0.012502823956310749,
        -0.022740859538316727,
        -0.001921755843795836,
        -0.01587502472102642,
        0.0019853413105010986,
        -0.004853437189012766,
        0.004456981550902128,
        -0.01196120586246252,
        0.023373356088995934,
        -0.01642542891204357,
        0.021177178248763084,
        -0.023138049989938736,
        -0.017068754881620407,
        0.003779955441132188,
        -0.005135891027748585,
        -0.010329938493669033,
        -0.016206583008170128,
        -0.010336233302950859,
        -0.005233175586909056,
        -0.0031861281022429466,
        -0.03024081513285637,
        0.004668055567890406,
        -0.021759597584605217,
        -0.010452307760715485,
        -0.00861596129834652,
        -0.004069652408361435,
        -0.013580452650785446,
        0.0032916353084146976,
        -0.0014995690435171127,
        0.021589066833257675,
        -0.0033385574351996183,
        0.017286090180277824,
        0.003657573601230979,
        -0.006360569037497044,
        0.010011561214923859,
        0.01350945420563221,
        0.02155051752924919,
        -0.008240495808422565,
        -0.010477368719875813,
        0.011798635125160217,
        -0.026840815320611,
        -0.014936670660972595,
        0.01602059416472912,
        -0.02366732247173786,
        0.002489386359229684,
        0.018658703193068504,
        0.0038574235513806343,
        -0.025017190724611282,
        0.009980990551412106,
        -0.02676548808813095,
        -0.007812531664967537,
        -0.014038395136594772,
        -0.014793229289352894,
        -0.02169598825275898,
        -0.023949041962623596,
        -0.017653219401836395,
        0.011270788498222828,
        0.02101556770503521,
        -0.003113933140411973,
        -0.0034181217197328806,
        0.017639221623539925,
        0.014050135388970375,
        -0.019563276320695877,
        0.007687088567763567,
        0.01883813552558422,
        -0.004446806851774454,
        0.023228392004966736,
        -0.013109958730638027,
        0.01936887763440609,
        -0.0033265966922044754,
        -0.008756459690630436,
        -0.01888352259993553,
        -0.009549811482429504,
        0.010418251156806946,
        -0.011841853149235249,
        -0.009611171670258045,
        -0.0018188804388046265,
        0.009404378943145275,
        -0.006577740423381329,
        -0.0008965128799900413,
        -0.011374793015420437,
        -0.0018341329414397478,
        0.0006737299263477325,
        -0.014353311620652676,
        -0.016286147758364677,
        0.014002896845340729,
        0.005001325160264969,
        0.02229100465774536,
        0.0006435099639929831,
        -0.0015383934369310737,
        0.013074743561446667,
        0.010427502915263176,
        -0.015770897269248962,
        0.023275531828403473,
        -0.021740403026342392,
        0.016775211319327354,
        0.015630392357707024,
        0.011945688165724277,
        -0.0005771653959527612,
        0.0003174382436554879,
        -0.011707988567650318,
        0.0009169637924060225,
        0.01617146097123623,
        -0.007043981458991766,
        -0.0008248850936070085,
        -0.0005037447554059327,
        -0.01197966281324625,
        0.01519729569554329,
        -0.00647819833829999,
        -0.017752783372998238,
        -0.018882306292653084,
        -0.013708040118217468,
        -0.022829169407486916,
        -0.01884528435766697,
        0.004302302375435829,
        -0.020720936357975006,
        0.0044364468194544315,
        0.019359640777111053,
        -0.0041138119995594025,
        0.0018217609031125903,
        -0.015450811013579369,
        0.002107568085193634,
        -0.003563927486538887,
        0.01566324196755886,
        0.0033279387280344963,
        0.01039737556129694,
        -0.01396622508764267,
        -0.013109410181641579,
        0.020032595843076706,
        -0.005693959072232246,
        -0.009896577335894108,
        0.016034547239542007,
        0.01622351072728634,
        0.02225855179131031,
        0.013626620173454285,
        0.004209689795970917,
        0.0060120755806565285,
        0.0023635898251086473,
        -0.01831110753118992,
        -0.015203864313662052,
        0.003508300520479679,
        -0.014050579629838467,
        -0.00007961812661960721,
        0.007216518744826317,
        0.018182165920734406,
        -0.000867779366672039,
        0.014440108090639114,
        -0.021010950207710266,
        0.016216108575463295,
        0.009087173268198967,
        -0.016134275123476982,
        -0.021321000531315804,
        -0.01068628765642643,
        0.00004081032966496423,
        -0.02050199545919895,
        0.00003263357939431444,
        -0.013680939562618732,
        0.01606815494596958,
        0.014750860631465912,
        0.0054191346280276775,
        0.02038445509970188,
        -0.02295774221420288,
        0.0033443071879446507,
        0.01997746154665947,
        -0.019945520907640457,
        -0.02338309772312641,
        0.0010223033605143428,
        -0.01974283717572689,
        -0.01644130051136017,
        0.01122867688536644,
        0.014604983851313591,
        0.013554496690630913,
        0.0048504904843866825,
        -0.016068805009126663,
        0.01809534803032875,
        0.008435467258095741,
        0.01202949695289135,
        0.0029400221537798643,
        0.004052259493619204,
        0.014735645614564419,
        0.013721042312681675,
        -0.011698129586875439,
        -0.028913656249642372,
        -0.009309324435889721,
        0.0005336080794222653,
        -0.006165558937937021,
        -0.030773941427469254,
        -0.020154833793640137,
        -0.0005357308546081185,
        0.0113168153911829,
        -0.03158332780003548,
        -0.012368756346404552,
        -0.023303480818867683,
        -0.031241022050380707,
        -0.01329273171722889,
        -0.04420963674783707,
        -0.0075732567347586155,
        -0.01808008924126625,
        0.016370834782719612,
        -0.00813663937151432,
        0.022814543917775154,
        -0.003154176287353039,
        0.004024466499686241,
        -0.0016760785365477204,
        0.005333337001502514,
        -0.015435934066772461,
        0.023243816569447517,
        -0.004443502984941006,
        0.01522904634475708,
        0.0127568319439888,
        -0.003775846678763628,
        -0.005364648532122374,
        -0.019521383568644524,
        0.010165857151150703,
        -0.016496723517775536,
        0.005032230634242296,
        0.001734757679514587,
        -0.0026273694820702076,
        -0.03129736706614494,
        -0.023302022367715836,
        -0.009358413517475128,
        -0.04536477476358414,
        -0.019030442461371422,
        -0.03275278955698013,
        -0.022716792300343513,
        0.007004579529166222,
        -0.01472293958067894,
        -0.008209616877138615,
        0.009371788240969181,
        -0.0021974509581923485,
        0.010521036572754383,
        0.014435987919569016,
        -0.004577341489493847,
        -0.013856414705514908,
        0.0007867537206038833,
        0.031644463539123535,
        -0.00022213777992874384,
        0.012817399576306343,
        -0.010817054659128189,
        0.036588795483112335,
        0.000013655468137585558,
        0.022963378578424454,
        0.0069329761900007725,
        -0.013232440687716007,
        -0.011736738495528698,
        -0.016136012971401215,
        0.015547930262982845,
        -0.028331322595477104,
        -0.040934715420007706,
        -0.0011477727675810456,
        -0.0017774326261132956,
        -0.015636874362826347,
        -0.0007309854263439775,
        -0.007333402056246996,
        0.018922585994005203,
        -0.00015227371477521956,
        0.02864317037165165,
        0.0249225702136755,
        0.0019584628753364086,
        0.00534838205203414,
        0.02115125022828579,
