{
  "learningRate": 0.001,
  "layers": [
    {
      "type": "input",
      "shape": [
        1,
        28,
        28,
        1
      ]
    },
    {
      "type": "conv2d",
      "strideH": 1,
      "strideW": 1,
      "padTop": 0,
      "padBottom": 0,
      "padLeft": 0,
      "padRight": 0,
      "activation": "leakyRelu",
      "kernel": [
        0.19507813453674316,
        0.19287410378456116,
        0.2623741626739502,
        -0.01548672839999199,
        -0.07687000930309296,
        0.026839660480618477,
        -0.14653044939041138,
        0.24375660717487335,
        0.2919780910015106,
        -0.3623802959918976,
        -0.09970708936452866,
        -0.08139795064926147,
        -0.27504995465278625,
        -0.029036669060587883,
        -0.19529610872268677,
        0.295445054769516,
        0.3144543766975403,
        -0.5350406169891357,
        -0.08216823637485504,
        0.03766968473792076,
        -0.04867204651236534,
        -0.025724733248353004,
        0.0572795532643795,
        -0.062080126255750656,
        0.2974233031272888,
        0.4605602025985718,
        0.1252349317073822,
        0.03031667321920395,
        -0.23140287399291992,
        -0.0008395908516831696,
        -0.2141004204750061,
        -0.012593057937920094,
        0.25075048208236694,
        -0.04573605954647064,
        -0.26643475890159607,
        -0.08573091775178909,
        -0.1651427000761032,
        -0.03948714956641197,
        -0.10525313019752502,
        0.12919162213802338,
        0.2828671336174011,
        -0.6402330994606018,
        -0.035864584147930145,
        -0.048981718719005585,
        0.1997459977865219,
        0.0037013795226812363,
        0.19200469553470612,
        -0.22724898159503937,
        0.3306441903114319,
        0.3806792199611664,
        -0.16538764536380768,
        0.08234405517578125,
        -0.1989871859550476,
        -0.03794706612825394,
        -0.18828335404396057,
        -0.07355797290802002,
        0.2602863013744354,
        0.24817274510860443,
        -0.33607611060142517,
        0.03032972291111946,
        0.11595693230628967,
        -0.005703057628124952,
        -0.0034292435739189386,
        -0.2168598175048828,
        0.3366667628288269,
        -0.5878918170928955,
        0.03806862607598305,
        -0.04161541536450386,
        0.19252602756023407,
        -0.04429860785603523,
        0.18200628459453583,
        -0.4222590923309326
      ],
      "kernelShape": [
        3,
        3,
        1,
        8
      ],
      "bias": [
        -0.1641400307416916,
        0.36131903529167175,
        0.3563299775123596,
        0.043026264756917953,
        0.2655441164970398,
        -0.009119275026023388,
        0.20435753464698792,
        0.3325215280056
      ],
      "outShape": [
        1,
        26,
        26,
        8
      ]
    },
    {
      "type": "pool",
      "windowH": 2,
      "windowW": 2,
      "strideH": 2,
      "strideW": 2,
      "outShape": [
        1,
        13,
        13,
        8
      ],
      "channels": 8
    },
    {
      "type": "conv2d",
      "strideH": 1,
      "strideW": 1,
      "padTop": 0,
      "padBottom": 0,
      "padLeft": 0,
      "padRight": 0,
      "activation": "leakyRelu",
      "kernel": [
        0.06351864337921143,
        -0.026405928656458855,
        -0.008954686112701893,
        0.08887267112731934,
        0.05707087740302086,
        -0.011325046420097351,
        0.02714124135673046,
        0.26725247502326965,
        0.11200565844774246,
        -0.05867480859160423,
        0.015941521152853966,
        0.006406169850379229,
        -0.05573978275060654,
        -0.02502128854393959,
        -0.054324936121702194,
        -0.031116396188735962,
        -0.04166924208402634,
        0.02523728646337986,
        0.28195685148239136,
        -0.11326717585325241,
        0.2148280292749405,
        0.060711558908224106,
        -0.029279358685016632,
        -0.00871103536337614,
        -0.0331217460334301,
        0.05429849773645401,
        0.03262678533792496,
        0.02735346183180809,
        0.1772322654724121,
        0.047648221254348755,
        0.06187082454562187,
        0.02604569122195244,
        -0.012399544939398766,
        -0.04431890696287155,
        0.0242623183876276,
        -0.038804858922958374,
        0.0008952494245022535,
        -0.07783286273479462,
        0.002101282589137554,
        -0.017430756241083145,
        0.06424559652805328,
        -0.038282472640275955,
        -0.033560510724782944,
        0.025822492316365242,
        0.057254087179899216,
        -0.013465765863656998,
        0.02883824147284031,
        0.013342044316232204,
        -0.05149247497320175,
        -0.04326176643371582,
        0.08454803377389908,
        -0.008754484355449677,
        -0.011850975453853607,
        0.06325401365756989,
        -0.01891755871474743,
        -0.03963539004325867,
        -0.007899562828242779,
        -0.02349524386227131,
        0.01683839038014412,
        0.017005158588290215,
        -0.022221727296710014,
        0.03884904831647873,
        -0.029486216604709625,
        0.030613061040639877,
        -0.00683984998613596,
        -0.04072633013129234,
        -0.061161838471889496,
        -0.05457232519984245,
        -0.08260615170001984,
        -0.01356340292841196,
        -0.026382533833384514,
        -0.07093427330255508,
        -0.011389064602553844,
        -0.0010734113166108727,
        -0.01766611449420452,
        0.03280537948012352,
        0.03936198353767395,
        0.028983451426029205,
        0.07906175404787064,
        -0.022827329114079475,
        -0.038499534130096436,
        0.04729858413338661,
        0.025794854387640953,
        -0.002660661470144987,
        0.02262297458946705,
        -0.023516856133937836,
        0.04673277214169502,
        0.04345868527889252,
        -0.02396976202726364,
        0.03692443296313286,
        -0.0325835756957531,
        -0.02486642263829708,
        0.04612654820084572,
        0.01664668135344982,
        -0.020125100389122963,
        0.04387196525931358,
        -0.05350550264120102,
        0.04887319728732109,
        0.018054939806461334,
        -0.058836884796619415,
        -0.05797237530350685,
        -0.019474321976304054,
        -0.01905268244445324,
        0.004355412442237139,
        0.028770139440894127,
        -0.002991234418004751,
        0.02735544554889202,
        0.009327077306807041,
        -0.0169084332883358,
        0.010347417555749416,
        0.056944020092487335,
        -0.007931080646812916,
        -0.028791403397917747,
        -0.03600927069783211,
        0.05145160108804703,
        -0.12542974948883057,
        0.14896060526371002,
        0.021198652684688568,
        -0.036724817007780075,
        0.013773410581052303,
        0.05275750905275345,
        0.03022594004869461,
        -0.004081766586750746,
        0.011844392865896225,
        0.013059007935225964,
        0.017895564436912537,
        0.033729832619428635,
        0.037613414227962494,
        0.07222703844308853,
        -0.01768386922776699,
        -0.17127060890197754,
        0.1417430192232132,
        -0.024285009130835533,
        -0.09967947006225586,
        -0.0003500922175589949,
        0.00717358011752367,
        0.008636822924017906,
        0.01068802922964096,
        0.00459682010114193,
        -0.05789189785718918,
        -0.004725057166069746,
        0.018298547714948654,
        0.031857073307037354,
        -0.026084572076797485,
        -0.011315212585031986,
        -0.0394321046769619,
        0.32346275448799133,
        -0.10436420142650604,
        -0.06947959214448929,
        0.3014068007469177,
        0.0335465632379055,
        0.1631665974855423,
        0.05127093568444252,
        -0.02877139300107956,
        0.01956970803439617,
        0.09698525816202164,
        0.07362474501132965,
        -0.018968945369124413,
        -0.012426082044839859,
        -0.0156757403165102,
        0.0001231262576766312,
        -0.021627048030495644,
        0.059585921466350555,
        -0.08389239013195038,
        0.13713450729846954,
        -0.00027374469209462404,
        -0.03665747493505478,
        0.11398451030254364,
        0.09877534955739975,
        0.0031249227467924356,
        -0.0321693941950798,
        0.07789488881826401,
        -0.015419185161590576,
        -0.015549641102552414,
        -0.022690055891871452,
        -0.04046933352947235,
        0.03557979315519333,
        -0.0018014626111835241,
        0.06982895731925964,
        0.023003851994872093,
        -0.05783820524811745,
        0.01634059101343155,
        0.04939420521259308,
        -0.018776841461658478,
        0.0053032683208584785,
        -0.023398518562316895,
        -0.0406978465616703,
        0.022194871678948402,
        -0.03562750294804573,
        0.02020573802292347,
        -0.0500367134809494,
        0.039262574166059494,
        -0.006057958118617535,
        -0.028155220672488213,
        -0.011473337188363075,
        -0.0558367595076561,
        0.10437166690826416,
        -0.07824661582708359,
        -0.035870932042598724,
        -0.04298530891537666,
        0.008117067627608776,
        -0.03687359765172005,
        -0.009667856618762016,
        -0.019300885498523712,
        0.008199604228138924,
        -0.01831972226500511,
        0.0813358947634697,
        0.035320933908224106,
        0.04722819849848747,
        -0.025450851768255234,
        0.008891141973435879,
        -0.021299609914422035,
        0.04775993898510933,
        0.0018006425816565752,
        0.030518675222992897,
        -0.045033328235149384,
        -0.03818470612168312,
        0.04692888632416725,
        0.024167871102690697,
        0.05038762837648392,
        0.027221323922276497,
        0.025415971875190735,
        0.025503695011138916,
        0.01073393877595663,
        0.04042835533618927,
        0.04176349565386772,
        0.00860651582479477,
        -0.016538692638278008,
        0.15943175554275513,
        -0.05534585565328598,
        0.03371678665280342,
        0.010107481852173805,
        -0.0006490173400379717,
        -0.008228958584368229,
        0.032494284212589264,
        -0.020707281306385994,
        0.06426753848791122,
        0.03988442197442055,
        0.04260115697979927,
        -0.035650890320539474,
        0.020912546664476395,
        0.03995732590556145,
        0.074295774102211,
        -0.10263331979513168,
        0.11383673548698425,
        0.01955234631896019,
        0.037463683634996414,
        0.14894548058509827,
        0.05952739715576172,
        0.021168453618884087,
        0.012467626482248306,
        0.07622048258781433,
        -0.021923741325736046,
        -0.0017211027443408966,
        0.01854110136628151,
        -0.04806656390428543,
        0.07053913921117783,
        -0.042946550995111465,
        -0.10908602178096771,
        0.12006596475839615,
        0.078512042760849,
        -0.10884828865528107,
        0.02852512151002884,
        -0.13883347809314728,
        0.020679082721471786,
        0.04253266006708145,
        -0.02958410233259201,
        -0.07325155287981033,
        0.08034025132656097,
        0.026572562754154205,
        0.06764567643404007,
        -0.01753237470984459,
        -0.05106901749968529,
        0.019253049045801163,
        0.09686818718910217,
        -0.11196772009134293,
        -0.07949796319007874,
        0.16862021386623383,
        -0.016036290675401688,
        0.05486961081624031,
        -0.007289822679013014,
        -0.023929983377456665,
        -0.007367240730673075,
        0.04317997023463249,
        0.023002946749329567,
        0.01621099002659321,
        -0.09214169532060623,
        0.044380929321050644,
        -0.0026261364109814167,
        0.014437096193432808,
        0.04552633315324783,
        -0.10834851115942001,
        0.11812756210565567,
        -0.020624451339244843,
        -0.010574938729405403,
        0.1781693547964096,
        -0.0007939094211906195,
        0.0038533618208020926,
        -0.005673307925462723,
        0.0242707971483469,
        -0.03637684881687164,
        -0.0038293737452477217,
        -0.04150347039103508,
        0.026282232254743576,
        0.018735582008957863,
        -0.010970480740070343,
        0.025926144793629646,
        -0.012773972935974598,
        -0.0028619752265512943,
        0.025631681084632874,
        0.03509603068232536,
        -0.0442490316927433,
        0.01806841604411602,
        0.01565428636968136,
        -0.02262013405561447,
        -0.02049730345606804,
        0.017958983778953552,
        -0.031650979071855545,
        -0.05251060053706169,
        0.013644308783113956,
        -0.011138960719108582,
        -0.01719331368803978,
        0.09181561321020126,
        -0.12153897434473038,
        0.009222526103258133,
        -0.035184990614652634,
        -0.0051763891242444515,
        0.1384013146162033,
        0.07553702592849731,
        -0.017330141738057137,
        0.017623281106352806,
        0.022128988057374954,
        -0.01674683205783367,
        0.014737457036972046,
        0.02045891061425209,
        -0.016919152811169624,
        -0.047828834503889084,
        -0.011792482808232307,
        -0.015337632037699223,
        0.04332253336906433,
        0.012488322332501411,
        0.05031062290072441,
        0.0035724318586289883,
        0.03376820683479309,
        -0.03528042882680893,
        0.043091967701911926,
        0.03527326509356499,
        0.014946999959647655,
        0.0006303776754066348,
        -0.022225243970751762,
        -0.006300271954387426,
        0.013020203448832035,
        -0.024367326870560646,
        -0.047289494425058365,
        0.10822319239377975,
        -0.06026699021458626,
        0.08708257973194122,
        0.004657138139009476,
        0.012132913805544376,
        0.1323828101158142,
        0.05360040068626404,
        -0.04897703602910042,
        -0.02116108499467373,
        -0.005500128027051687,
        0.02615269459784031,
        -0.03101402521133423,
        -0.034317683428525925,
        0.021847624331712723,
        0.05878737196326256,
        -0.021143436431884766,
        -0.03490036725997925,
        -0.16341549158096313,
        0.06676186621189117,
        0.019732166081666946,
        -0.026911772787570953,
        0.1293213665485382,
        0.01802968606352806,
        -0.05602088198065758,
        0.012560620903968811,
        0.0483376570045948,
        0.02979501336812973,
        -0.05113310366868973,
        -0.027096068486571312,
        0.025511158630251884,
        0.06667299568653107,
        -0.009437170810997486,
        0.12968525290489197,
        0.09457708150148392,
        0.00931487139314413,
        0.12774328887462616,
        -0.02659328654408455,
        0.12171559780836105,
        0.04114489629864693,
        -0.0060741291381418705,
        0.011273994110524654,
        -0.11156900227069855,
        -0.11786875128746033,
        -0.011797734536230564,
        -0.02944559045135975,
        0.027595220133662224,
        -0.001208856119774282,
        0.04882979020476341,
        0.27232468128204346,
        -0.1345105916261673,
        0.2277769148349762,
        -0.032951872795820236,
        0.030531220138072968,
        0.124121755361557,
        -0.014402026310563087,
        0.09309850633144379,
        0.01714717596769333,
        0.12027711421251297,
        0.20729924738407135,
        0.08076627552509308,
        -0.052642058581113815,
        -0.0176860298961401,
        0.017387114465236664,
        0.029956243932247162,
        0.025930464267730713,
        -0.08429879695177078,
        0.13338327407836914,
        -0.018546296283602715,
        -0.046672556549310684,
        0.008187397383153439,
        0.06496764719486237,
        -0.006809467449784279,
        -0.013442335650324821,
        0.04727160930633545,
        0.03806426003575325,
        0.03884688764810562,
        0.002987405750900507,
        0.001628170139156282,
        0.010384980589151382,
        0.027743980288505554,
        -0.011854398064315319,
        -0.038806572556495667,
        -0.004958483390510082,
        -0.020102303475141525,
        0.012448565103113651,
        -0.01877145655453205,
        0.005797143094241619,
        -0.011853125877678394,
        -0.010639000684022903,
        0.05037352070212364,
        -0.022716235369443893,
        -0.011518463492393494,
        0.004786656238138676,
        0.04812156781554222,
        -0.0457872711122036,
        -0.01953910104930401,
        -0.07056935131549835,
        -0.05923660099506378,
        -0.011880571953952312,
        -0.002701191697269678,
        -0.0407053604722023,
        -0.07463984936475754,
        0.04071307182312012,
        -0.026550956070423126,
        -0.0340346060693264,
        0.044930797070264816,
        -0.003407625015825033,
        -0.009009075351059437,
        0.06138627976179123,
        -0.041461046785116196,
        0.011861076578497887,
        0.035863012075424194,
        -0.044494133442640305,
        -0.00842352770268917,
        -0.017459800466895103,
        -0.037864770740270615,
        -0.017375586554408073,
        0.021251177415251732,
        -0.007354718167334795,
        0.04647107049822807,
        -0.014715350233018398,
        0.0017370537389069796,
        -0.046436239033937454,
        -0.039743706583976746,
        -0.023118333891034126,
        -0.004437160678207874,
        -0.044363733381032944,
        -0.03883814811706543,
        -0.0305468812584877,
        -0.09390360116958618,
        -0.013141377829015255,
        -0.061533745378255844,
        -0.03395950049161911,
        0.018277483060956,
        0.014426331035792828,
        -0.0022917413152754307,
        0.020758895203471184,
        0.054456647485494614,
        0.05163266882300377,
        0.008970197290182114,
        0.04383330047130585,
        0.03956742584705353,
        0.08390882611274719,
        -0.00151208252646029,
        -0.025629006326198578,
        -0.1113448515534401,
        0.1674572378396988,
        -0.0340421125292778,
        -0.027680687606334686,
        0.15400123596191406,
        0.112049400806427,
        -0.003860655939206481,
        -0.023207154124975204,
        0.038281094282865524,
        0.04722245782613754,
        0.02011282369494438,
        -0.011834139935672283,
        -0.0384957455098629,
        0.04588393494486809,
        -0.04488402232527733,
        -0.18404516577720642,
        0.12289624661207199,
        0.006990923546254635,
        0.11770424991846085,
        -0.013321076519787312,
        -0.11332262307405472,
        -0.006419276352971792,
        0.021165838465094566,
        -0.028776317834854126,
        -0.047376442700624466,
        -0.09288766235113144,
        0.018352996557950974,
        0.05668489262461662,
        -0.038147490471601486,
        -0.04284089431166649,
        0.03844224289059639,
        0.4032600224018097,
        -0.1476384848356247,
        -0.08420049399137497,
        0.25567427277565,
        0.02367849089205265,
        0.10773360729217529,
        -0.05290651321411133,
        -0.013742916285991669,
        -0.015193245373666286,
        0.10796023160219193,
        -0.007445105817168951,
        0.015949266031384468,
        -0.06160804629325867,
        0.0036059326957911253,
        0.09981143474578857,
        -0.022249408066272736,
        0.008115571923553944,
        -0.11123617738485336,
        0.04704366624355316,
        -0.07160133868455887,
        -0.04973110556602478,
        0.20484709739685059,
        0.027811067178845406,
        -0.01023863721638918,
        -0.009217709302902222,
        0.0467282235622406,
        0.05423144996166229,
        -0.025086628273129463,
        0.04511493071913719,
        0.017991984263062477,
        -0.017611585557460785,
        -0.004812236409634352,
        0.030375877395272255,
        -0.019064879044890404,
        -0.004107553977519274,
        0.03380037844181061,
        0.03247149661183357,
        -0.005462713539600372,
        -0.019446656107902527,
        0.05017969384789467,
        0.00002584512549219653,
        0.02159060724079609,
        -0.000014188017303240485,
        -0.022119764238595963,
        -0.01918468251824379,
        0.04221982881426811,
        0.03066839464008808,
        -0.028359737247228622,
        0.02650473266839981,
        -0.11632859706878662,
        0.18668930232524872,
        -0.04815509915351868,
        -0.027403604239225388,
        0.08523214608430862,
        0.06765372306108475,
        0.02746177650988102,
        -0.004974104929715395,
        0.003166913753375411,
        0.04159913212060928,
        0.035395871847867966,
        0.07395392656326294,
        0.016175461933016777,
        -0.018136870115995407,
        -0.036414798349142075,
        -0.02905435301363468,
        0.027352051809430122,
        0.010311031714081764,
        0.008863850496709347,
        -0.00424779299646616,
        0.0071913935244083405,
        -0.0011201571905985475,
        -0.01715058460831642,
        -0.03404900059103966,
        0.04089807718992233,
        0.026995385065674782,
        -0.049609165638685226,
        -0.005117669235914946,
        0.012624900788068771,
        0.01862839050590992,
        -0.01568400301039219,
        0.045881833881139755,
        -0.054304566234350204,
        0.1786920130252838,
        -0.01973600685596466,
        -0.04598863050341606,
        0.033392950892448425,
        0.044984400272369385,
        0.030376378446817398,
        0.03761381283402443,
        0.07280023396015167,
        0.04520561546087265,
        0.008124801330268383,
        -0.02683223970234394,
        0.02179737389087677,
        0.10202500224113464,
        -0.02451242133975029,
        0.03851861134171486,
        -0.09530714899301529,
        -0.03362860903143883,
        -0.02985539101064205,
        -0.022069567814469337,
        0.1341625154018402,
        0.06646423786878586,
        -0.0466466099023819,
        0.02676687389612198,
        0.03799578174948692,
        -0.03344803676009178,
        0.01929321140050888,
        -0.0009761485853232443,
        0.0006898579304106534,
        0.018730437383055687,
        0.03370196744799614,
        -0.20377759635448456,
        0.1694498360157013,
        0.12186441570520401,
        -0.234152153134346,
        -0.009283713065087795,
        -0.11076387017965317,
        0.06050160899758339,
        0.005170964170247316,
        -0.051541417837142944,
        -0.06703794747591019,
        -0.04563140124082565,
        0.07553040981292725,
        0.036123860627412796,
        -0.011814565397799015,
        -0.08247195929288864,
        0.04318352788686752,
        0.18381351232528687,
        -0.09380026161670685,
        0.010552655905485153,
        0.35110706090927124,
        -0.04101280868053436,
        -0.003272715490311384,
        -0.0762263759970665,
        0.028176873922348022,
        0.010747586376965046,
        0.08263637870550156,
        0.09998733550310135,
        -0.03974941000342369,
        -0.06760518997907639,
        0.03231242671608925,
        0.06346272677183151,
        -0.03722454607486725,
        0.035642776638269424,
        -0.10443717241287231,
        0.061031490564346313,
        0.06255452334880829,
        0.030074186623096466,
        0.10033939778804779,
        0.04587089642882347,
        -0.05378520488739014,
        0.037229008972644806,
        0.030947735533118248,
        0.028080694377422333,
        0.009219570085406303,
        0.047554295510053635,
        -0.040689945220947266,
        -0.011541049927473068,
        -0.00951986201107502,
        -0.03297033905982971,
        0.03260326385498047,
        -0.050305839627981186,
        0.08122970163822174,
        -0.022456228733062744,
        -0.025436710566282272,
        -0.023337721824645996,
        0.014760809950530529,
        0.03874911367893219,
        0.02338845282793045,
        -0.030102567747235298,
        -0.0312759205698967,
        -0.021287672221660614,
        -0.02410040982067585,
        -0.03400464728474617,
        -0.044812850654125214,
        0.0775294080376625,
        -0.08527638763189316,
        0.0830286517739296,
        0.023401860147714615,
        0.024008825421333313,
        0.21200481057167053,
        -0.02272423356771469,
        -0.05264650285243988,
        0.013609555549919605,
        0.022331148386001587,
        0.04161924123764038,
        -0.049533940851688385,
        0.017437508329749107,
        -0.024792328476905823,
        0.007762473542243242,
        -0.005658615380525589,
        0.001260027289390564,
        -0.041181530803442,
        0.0052879671566188335,
        0.01842648535966873,
        0.008233591914176941,
        -0.03581417724490166,
        -0.009267519228160381,
        -0.021018467843532562,
        -0.007235299330204725,
        0.0044270777143538,
        -0.01759907230734825,
        -0.041324783116579056,
        0.02640567161142826,
        0.0024552494287490845,
        -0.017936505377292633,
        -0.019456399604678154,
        0.14864398539066315,
        -0.058297049254179,
        0.0053546312265098095,
        0.012915601022541523,
        -0.03810294717550278,
        0.1556532084941864,
        -0.04385323077440262,
        -0.03541361540555954,
        -0.0003126562514808029,
        0.0637996569275856,
        0.02095208130776882,
        0.025837624445557594,
        -0.019538886845111847,
        -0.013675815425813198,
        0.11177311837673187,
        -0.04770331457257271,
        0.015410265885293484,
        -0.10506217926740646,
        0.11022644490003586,
        -0.011101111769676208,
        -0.04052519425749779,
        0.010991698130965233,
        0.08165052533149719,
        0.02098844200372696,
        -0.03680477291345596,
        0.06947805732488632,
        0.05404599383473396,
        -0.05449208244681358,
        -0.03524523600935936,
        -0.013534980826079845,
        -0.17216220498085022,
        0.024741437286138535,
        0.11638403683900833,
        0.15745608508586884,
        -0.2133360356092453,
        0.0480697937309742,
        -0.04289840906858444,
        -0.039213333278894424,
        -0.11496642231941223,
        0.015525837428867817,
        -0.005269784014672041,
        0.010951555334031582,
        0.029270583763718605,
        -0.014538348652422428,
        -0.033629126846790314,
        -0.004929192364215851,
        0.045821625739336014,
        -0.016333963721990585,
        0.14883162081241608,
        -0.077251136302948,
        0.2577148377895355,
        0.007160643115639687,
        -0.04560783877968788,
        0.22665049135684967,
        0.07454656809568405,
        0.07737281173467636,
        0.04302842170000076,
        0.07776589691638947,
        0.20491880178451538,
        0.06813637912273407,
        -0.036133140325546265,
        -0.0068785687908530235,
        0.12289562821388245,
        -0.007853159680962563,
        -0.0728437677025795,
        -0.11654522269964218,
        0.15990696847438812,
        -0.01291750743985176,
        0.04246310144662857,
        0.11264704912900925,
        0.0008363343076780438,
        -0.04267415404319763,
        -0.03185762092471123,
        0.0705576166510582,
        0.042452335357666016,
        -0.027873417362570763,
        0.024537689983844757,
        -0.0031725019216537476,
        -0.020239699631929398,
        0.005285151302814484,
        0.04411550611257553,
        0.03414996340870857,
        -0.014960138127207756,
        0.04618716239929199,
        -0.003968236036598682,
        -0.033842965960502625,
        0.0329589769244194,
        0.04950950667262077,
        -0.012773287482559681,
        0.03706763684749603,
        0.04331708326935768,
        0.04975125938653946,
        -0.057081349194049835,
        -0.01663201116025448,
        0.03686421364545822,
        -0.0027110560331493616,
        -0.0608023963868618,
        -0.01365403551608324,
        0.028705202043056488,
        -0.05703652277588844,
        -0.03211624547839165,
        -0.04318198561668396,
        0.03353983536362648,
        0.040997929871082306,
        -0.04968589171767235,
        -0.0014982916181907058,
        -0.04900802671909332,
        -0.03164387866854668,
        0.04919266700744629,
        -0.03153218328952789,
        0.03255760297179222,
        -0.034635718911886215,
        0.004756476264446974,
        0.015910493209958076,
        -0.047738153487443924,
        0.03677064925432205,
        -0.017112214118242264,
        -0.04788033291697502,
        0.026606792584061623,
        -0.048447005450725555,
        -0.03357124701142311,
        0.028095142915844917,
        -0.03091185912489891,
        0.045919135212898254,
        0.04203396290540695,
        0.013061458244919777,
        0.04685841128230095,
        -0.016764339059591293,
        -0.04078960418701172,
        -0.08649934083223343,
        0.014829709194600582,
        0.022973671555519104,
        -0.005826082080602646,
        -0.047203339636325836,
        0.009818466380238533,
        -0.009014795534312725,
        0.019149627536535263,
        0.026672201231122017,
        0.0030975029803812504,
        0.035685259848833084,
        0.05244876816868782,
        0.023294515907764435,
        0.1138254702091217,
        0.0071076685562729836,
        0.04423808678984642,
        -0.13103879988193512,
        0.17849406599998474,
        -0.06779235601425171,
        0.011007468216121197,
        0.17625026404857635,
        0.055438023060560226,
        0.036084700375795364,
        0.005156521685421467,
        0.017527034506201744,
        0.01721389777958393,
        -0.002627817913889885,
        -0.03288307040929794,
        -0.001366312149912119,
        -0.1445196270942688,
        -0.03303423896431923,
        -0.035977937281131744,
        0.1934737265110016,
        -0.06926736235618591,
        0.15114955604076385,
        -0.03182154521346092,
        -0.2564490735530853,
        -0.0492752380669117,
        -0.05123689025640488,
        0.018209926784038544,
        -0.06536734849214554,
        -0.05143031105399132,
        -0.08278492838144302,
        0.07009515911340714,
        -0.024863924831151962,
        -0.07144784927368164,
        -0.036189109086990356,
        0.40773001313209534,
        -0.15302811563014984,
        -0.056956131011247635,
        0.08465585857629776,
        0.005660238675773144,
        0.04643518477678299,
        -0.04870070517063141,
        0.016827618703246117,
        -0.040815580636262894,
        0.07624606043100357,
        0.08294419199228287,
        0.08625030517578125,
        -0.03427524119615555,
        0.009691078215837479,
        0.07450752705335617,
        -0.039901021867990494,
        -0.0013637361116707325,
        -0.05783294141292572,
        0.09392717480659485,
        -0.005511314142495394,
        0.010973254218697548,
        0.1683647185564041,
        0.08795014768838882,
        0.018186893314123154,
        -0.00687770638614893,
        0.0386466421186924,
        0.038934968411922455,
        0.02022463269531727,
        -0.03113502264022827,
        0.011311503127217293,
        0.03667353466153145,
        -0.008102726191282272,
        0.033199384808540344,
        0.015905363485217094,
        -0.030692467465996742,
        -0.021794477477669716,
        -0.04174436256289482,
        0.035244349390268326,
        -0.03417768329381943,
        0.022620171308517456,
        -0.024980030953884125,
        0.04851258546113968,
        0.04499709606170654,
        -0.028796285390853882,
        -0.005149295553565025,
        0.03300141170620918,
        0.047333817929029465,
        -0.01964770071208477,
        -0.033085279166698456,
        -0.08734176307916641,
        0.16589726507663727,
        -0.10164517909288406,
        -0.007623010315001011,
        0.13640403747558594,
        -0.013698688708245754,
        0.02406686544418335,
        0.039442140609025955,
        0.04757542163133621,
        0.06336671859025955,
        -0.01899663358926773,
        -0.01704682782292366,
        -0.028395554050803185,
        0.034425877034664154,
        0.03581131994724274,
        -0.006546921096742153,
        -0.017543336376547813,
        -0.020262647420167923,
        0.032799266278743744,
        0.018644463270902634,
        -0.04601246118545532,
        -0.02556181326508522,
        0.041204169392585754,
        0.006295471452176571,
        -0.015663232654333115,
        -0.02343268319964409,
        0.031159067526459694,
        -0.020419303327798843,
        0.037426769733428955,
        -0.007802069187164307,
        -0.047519709914922714,
        -0.012727834284305573,
        -0.032180532813072205,
        0.12906719744205475,
        -0.06206513196229935,
        -0.030603939667344093,
        0.12179496884346008,
        0.019070224836468697,
        0.018128210678696632,
        0.023796606808900833,
        0.07836171984672546,
        0.006824078969657421,
        -0.011213420890271664,
        0.03026789426803589,
        0.045255716890096664,
        0.10474126040935516,
        0.04057616367936134,
        0.0028428363148123026,
        -0.13159094750881195,
        0.03417164459824562,
        0.0007020001066848636,
        -0.010365149937570095,
        0.12468241900205612,
        0.06803223490715027,
        -0.03418536111712456,
        0.027493715286254883,
        0.016146542504429817,
        -0.00810307078063488,
        -0.030491631478071213,
        -0.01778368465602398,
        -0.02524634264409542,
        -0.0488714836537838,
        0.025229938328266144,
        -0.15631969273090363,
        0.13918370008468628,
        -0.00746492762118578,
        -0.107838474214077,
        0.023221276700496674,
        -0.19879412651062012,
        -0.10044492781162262,
        0.02616991102695465,
        -0.03300679475069046,
        0.006656722165644169,
        -0.015725992619991302,
        0.064219169318676,
        0.03450179472565651,
        -0.046314917504787445,
        -0.04985424131155014,
        0.034574393182992935,
        0.1124187484383583,
        -0.1222156211733818,
        0.009885434061288834,
        0.3036462068557739,
        -0.04471272975206375,
        -0.04471605643630028,
        -0.04556851461529732,
        -0.02990759164094925,
        -0.023287566378712654,
        0.02028737962245941,
        0.05220136418938637,
        -0.04230998829007149,
        0.017724188044667244,
        0.02759176678955555,
        0.0988011434674263,
        0.048062924295663834,
        0.05551605671644211,
        -0.10903714597225189,
        0.04968899488449097,
        0.05579820275306702,
        0.046015508472919464,
        0.13355189561843872,
        0.07034614682197571,
        0.024681592360138893,
        -0.04267919808626175,
        0.058300867676734924,
        -0.014403382316231728,
        -0.0024612382985651493,
        -0.014069436118006706,
        -0.0344521626830101,
        -0.00038192534702830017,
        -0.006489968858659267,
        0.022152788937091827,
        -0.006783254444599152,
        -0.020275849848985672,
        0.005466728005558252,
        -0.044009979814291,
        0.015384400263428688,
        -0.020216142758727074,
        0.02522391639649868,
        0.021874841302633286,
        -0.03222715109586716,
        0.03727787360548973,
        0.04684765264391899,
        -0.029922345653176308,
        -0.04791806638240814,
        0.08135741204023361,
        -0.01836192049086094,
        0.05951428785920143,
        -0.09862641990184784,
        0.0778924897313118,
        -0.042672548443078995,
        -0.027121957391500473,
        0.1771886646747589,
        0.027103101834654808,
        0.0038737349677830935,
        -0.0011862121755257249,
        0.040173664689064026,
        0.03448957949876785,
        0.007989884354174137,
        -0.029118254780769348,
        -0.011915921233594418,
        0.029456494376063347,
        0.04753714054822922,
        -0.023227646946907043,
        -0.02949945442378521,
        -0.01414841040968895,
        0.015936819836497307,
        -0.043978288769721985,
        0.00429049227386713,
        0.02022801712155342,
        0.006658492609858513,
        -0.004528233781456947,
        -0.04126256704330444,
        -0.017277341336011887,
        -0.02804403193295002,
        -0.04038362577557564,
        0.010635566897690296,
        -0.002523812698200345,
        0.027509862557053566,
        0.07472310960292816,
        -0.09182799607515335,
        0.025271359831094742,
        0.009946434758603573,
        -0.010743794962763786,
        0.12104498594999313,
        -0.017555026337504387,
        0.03248731046915054,
        -0.002538799773901701,
        0.029724683612585068,
        0.025558527559041977,
        -0.04090794548392296,
        -0.02173176407814026,
        0.015345307998359203,
        0.13894447684288025,
        -0.026522386819124222,
        -0.0037437528371810913,
        -0.1353093981742859,
        0.13205894827842712,
        0.07761360704898834,
        -0.016163580119609833,
        0.09164309501647949,
        0.11804305016994476,
        -0.036995209753513336,
        0.013991344720125198,
        0.011139142327010632,
        0.00694554578512907,
        0.007593159098178148,
        -0.0023671318776905537,
        -0.03796207159757614
      ],
      "kernelShape": [
        3,
        3,
        8,
        16
      ],
      "bias": [
        0.04817947372794151,
        -0.002953358693048358,
        0.1142287477850914,
        -0.0014684509951621294,
        0.1018422544002533,
        0.002945433836430311,
        -0.002503021154552698,
        0.08030541241168976,
        0.053708259016275406,
        -0.007625202182680368,
        -0.015635287389159203,
        0.08982496708631516,
        0.052085451781749725,
        0.0069743054918944836,
        -0.021300114691257477,
        -0.00016417604638263583
      ],
      "outShape": [
        1,
        11,
        11,
        16
      ]
    },
    {
      "type": "pool",
      "windowH": 2,
      "windowW": 2,
      "strideH": 2,
      "strideW": 2,
      "outShape": [
        1,
        5,
        5,
        16
      ],
      "channels": 16
    },
    {
      "type": "flatten",
      "size": 400
    },
    {
      "type": "dense",
      "inputSize": 400,
      "outputSize": 64,
      "activation": "leakyRelu",
      "weights": [
        0.045494094491004944,
        -0.02344241738319397,
        -0.008787615224719048,
        -0.03927890956401825,
        0.002113393507897854,
        -0.012037341482937336,
        -0.013023687526583672,
        -0.0017601660219952464,
        0.023631958290934563,
        -0.00880403071641922,
        0.01880582608282566,
        0.0350375659763813,
        -0.02894490398466587,
        0.009504125453531742,
        0.0007032649009488523,
        0.030149908736348152,
        -0.007423716131597757,
        0.01536479126662016,
        -0.007556812837719917,
        -0.006482311058789492,
        0.005121377296745777,
        0.036749862134456635,
        0.019701257348060608,
        -0.020703263580799103,
        -0.019404299557209015,
        -0.005141638219356537,
        -0.0018755396595224738,
        0.013468380086123943,
        -0.023450026288628578,
        0.010847984813153744,
        -0.007433874066919088,
        0.0005501548876054585,
        -0.021150225773453712,
        -0.022014014422893524,
        0.027833053842186928,
        0.000011165751857333817,
        -0.020992601290345192,
        -0.022998271510004997,
        -0.02677149325609207,
        0.013454834930598736,
        0.00043700047535821795,
        0.030921362340450287,
        0.017872480675578117,
        0.02345951274037361,
        0.02216256596148014,
        0.019979052245616913,
        0.008546007797122002,
        -0.022633913904428482,
        0.001047852449119091,
        0.030261388048529625,
        -0.014311915263533592,
        0.03901365026831627,
        -0.026423295959830284,
        -0.027383852750062943,
        0.004036044701933861,
        0.027345947921276093,
        -0.008797270245850086,
        0.014001146890223026,
        0.012931033037602901,
        0.006310488097369671,
        -0.03134169802069664,
        -0.015561556443572044,
        0.01061286311596632,
        -0.000548988115042448,
        0.009301417507231236,
        0.013480291701853275,
        -0.027330147102475166,
        0.00862959586083889,
        0.026640858501195908,
        0.02005603350698948,
        0.006585600785911083,
        0.010481676086783409,
        -0.02119792066514492,
        -0.033515769988298416,
        0.02315753698348999,
        0.026224007830023766,
        0.007804871071130037,
        -0.03667128458619118,
        -0.01635759510099888,
        0.004870821721851826,
        0.0072746239602565765,
        -0.024182315915822983,
        -0.014638136141002178,
        -0.06924733519554138,
        0.02227897010743618,
        0.029391592368483543,
        -0.02706896699965,
        -0.005325249396264553,
        0.01879739761352539,
        0.004605802241712809,
        -0.015373213216662407,
        -0.025604091584682465,
        -0.013237396255135536,
        0.011767049320042133,
        -0.020212946459650993,
        -0.009683014824986458,
        -0.05433410406112671,
        0.02243187464773655,
        0.062463827431201935,
        0.044867150485515594,
        -0.04221368581056595,
        0.056143831461668015,
        0.023196550086140633,
        -0.026500608772039413,
        -0.04805188626050949,
        -0.0033585194032639265,
        0.031109562143683434,
        0.029312945902347565,
        0.015109531581401825,
        0.015190528705716133,
        -0.010881418362259865,
        -0.005081782117486,
        -0.004793595056980848,
        -0.0162652675062418,
        0.08217092603445053,
        0.06305207312107086,
        0.045083727687597275,
        0.04089481383562088,
        0.025318138301372528,
        0.05926739424467087,
        0.025135010480880737,
        -0.009894836694002151,
        0.000094585120677948,
        0.013621767051517963,
        0.0309434924274683,
        0.01821005716919899,
        0.00146376749034971,
        -0.03115369752049446,
        0.007823767140507698,
        0.02455298788845539,
        -0.02440945990383625,
        0.03561383858323097,
        0.020055901259183884,
        -0.03437534347176552,
        0.026579486206173897,
        0.051623038947582245,
        -0.018357235938310623,
        -0.027432752773165703,
        0.01270544994622469,
        0.018971286714076996,
        0.03241897001862526,
        -0.015562453307211399,
        0.04037559777498245,
        -0.021318264305591583,
        -0.016794521361589432,
        -0.01701338030397892,
        -0.004428707994520664,
        0.008048627525568008,
        -0.02569110132753849,
        0.01974732242524624,
        0.004096522927284241,
        -0.017341021448373795,
        -0.005487270187586546,
        0.01340927742421627,
        0.02135275863111019,
        -0.03348839282989502,
        0.007296905852854252,
        -0.012301030568778515,
        0.034433599561452866,
        0.015469840727746487,
        0.022278480231761932,
        0.01539874542504549,
        -0.016837770119309425,
        0.0016372345853596926,
        0.005124622490257025,
        -0.007232943084090948,
        0.013781575486063957,
        -0.042881716042757034,
        0.01638377644121647,
        -0.0031001849565654993,
        -0.010805926285684109,
        -0.016672229394316673,
        0.04172111675143242,
        -0.0058049531653523445,
        0.0047731599770486355,
        0.01526741124689579,
        -0.034178487956523895,
        -0.00253067328594625,
        0.05063378065824509,
        0.019570617005228996,
        -0.040448613464832306,
        0.06941023468971252,
        -0.028835831210017204,
        -0.011401889845728874,
        -0.046517759561538696,
        0.01610102690756321,
        -0.0032167616300284863,
        -0.0016262343851849437,
        0.02793947048485279,
        0.01853296533226967,
        0.014603654853999615,
        -0.009910762310028076,
        -0.03989386186003685,
        -0.022498199716210365,
        0.07272908091545105,
        -0.0020749669056385756,
        0.027160940691828728,
        0.0422862246632576,
        0.004422553349286318,
        0.021523525938391685,
        0.01527373120188713,
        -0.020288649946451187,
        -0.0032795967999845743,
        0.024515360593795776,
        0.020586393773555756,
        0.02170439250767231,
        0.03574014827609062,
        0.011020161211490631,
        0.0319276824593544,
        0.029978055506944656,
        -0.001682091853581369,
        0.07055548578500748,
        0.004043363034725189,
        -0.0010693486547097564,
        0.013136304914951324,
        0.004523818846791983,
        0.000895528239198029,
        -0.007654493674635887,
        -0.0014794169692322612,
        -0.03734215348958969,
        -0.00260341283865273,
        0.03474513441324234,
        0.023295996710658073,
        0.031099114567041397,
        0.010851341299712658,
        -0.008020487613976002,
        -0.025428548455238342,
        0.01737363263964653,
        0.029208235442638397,
        -0.02922801487147808,
        0.018085012212395668,
        0.054155003279447556,
        0.02743435464799404,
        0.014849011786282063,
        -0.01704581081867218,
        -0.003909854218363762,
        -0.010606640949845314,
        0.036758262664079666,
        0.012012699618935585,
        0.03065406158566475,
        0.009537292644381523,
        -0.010145725682377815,
        0.014333567582070827,
        0.01406598649919033,
        -0.0163510013371706,
        0.005540770012885332,
        -0.024122998118400574,
        0.013251871801912785,
        -0.013055655173957348,
        0.01889876089990139,
        -0.012634357437491417,
        -0.041199833154678345,
        -0.013925952836871147,
        0.001630966435186565,
        0.022419515997171402,
        0.004204961005598307,
        -0.025282427668571472,
        0.028362374752759933,
        -0.017825152724981308,
        0.057136211544275284,
        -0.020162757486104965,
        0.03487170487642288,
        0.008934450335800648,
        -0.029827779158949852,
        -0.036928337067365646,
        -0.025367217138409615,
        0.006708255037665367,
        -0.04342139512300491,
        -0.02186274155974388,
        -0.008152466267347336,
        -0.0071352627128362656,
        0.025937065482139587,
        0.03602411597967148,
        0.019851263612508774,
        0.053324416279792786,
        -0.023974966257810593,
        0.026718148961663246,
        -0.015339938923716545,
        -0.0182076096534729,
        0.0681222528219223,
        -0.014780608005821705,
        0.024895163252949715,
        -0.0002444423153065145,
        -0.007847844623029232,
        0.021460633724927902,
        -0.02513965405523777,
        -0.02415342628955841,
        -0.023321541026234627,
        0.05028269439935684,
        -0.03277599439024925,
        -0.0026924004778265953,
        -0.007693399675190449,
        0.04686792939901352,
        -0.04176018759608269,
        0.02334212139248848,
        0.02550586126744747,
        -0.019340740516781807,
        -0.01728147268295288,
        -0.03014513850212097,
        -0.02291308157145977,
        0.019843434914946556,
        -0.011089923791587353,
        0.0053037796169519424,
        -0.0022510006092488766,
        -0.019268590956926346,
        -0.0030880365520715714,
        -0.04344126209616661,
        0.000997532275505364,
        0.013200894929468632,
        0.036206185817718506,
        -0.026694810017943382,
        0.012490988709032536,
        -0.03200560435652733,
        0.00572537025436759,
        -0.023784462362527847,
        -0.015428860671818256,
        0.009098661132156849,
        0.03294794261455536,
        0.032365091145038605,
        0.008808859623968601,
        -0.002358259167522192,
        0.0015450690407305956,
        0.013758623972535133,
        -0.008908387273550034,
        -0.020772984251379967,
        0.02371726557612419,
        -0.02022029273211956,
        -0.021030869334936142,
        0.02337050251662731,
        -0.0029296891298145056,
        -0.0188211090862751,
        -0.031028244644403458,
        -0.03644465282559395,
        -0.018443427979946136,
        0.02679111622273922,
        0.029886949807405472,
        0.006054253783077002,
        0.01391290407627821,
        -0.027748925611376762,
        -0.02572125941514969,
        0.013949397020041943,
        0.025736549869179726,
        0.002446007914841175,
        0.007023083046078682,
        -0.004160268697887659,
        0.024897785857319832,
        -0.006477395072579384,
        -0.017933232709765434,
        -0.023969639092683792,
        0.017522046342492104,
        -0.023478316143155098,
        0.01699785515666008,
        0.012857186608016491,
        0.005426276009529829,
        0.026551218703389168,
        -0.052662283182144165,
        0.034284260123968124,
        -0.026681311428546906,
        0.009920792654156685,
        0.055333271622657776,
        0.016431352123618126,
        0.00308250798843801,
        0.012746375054121017,
        0.057315852493047714,
        0.05595160275697708,
        -0.03085165098309517,
        0.010347917675971985,
        -0.000952463480643928,
        -0.0005569737986661494,
        -0.029253456741571426,
        0.014703705906867981,
        -0.02912098355591297,
        0.011118976399302483,
        -0.0029884788673371077,
        -0.02763546071946621,
        -0.001387018128298223,
        0.017293475568294525,
        0.018494445830583572,
        0.026966772973537445,
        -0.0061468761414289474,
        0.012632494792342186,
        0.00489926477894187,
        0.014600163325667381,
        0.01589187979698181,
        0.01781126856803894,
        -0.02640768140554428,
        0.01204056479036808,
        0.030218394473195076,
        0.017472807317972183,
        0.014785426668822765,
        0.024257881566882133,
        0.05548989400267601,
        0.0016918781911954284,
        0.004083400592207909,
        -0.02599828504025936,
        -0.01445777527987957,
        0.00667289225384593,
        0.03403322026133537,
        0.025690041482448578,
        0.02363329567015171,
        0.044491060078144073,
        -0.019658252596855164,
        -0.062289077788591385,
        0.016992174088954926,
        0.022010760381817818,
        -0.06391803175210953,
        0.017829567193984985,
        -0.027699803933501244,
        0.006780803203582764,
        -0.03417310491204262,
        -0.02085772529244423,
        -0.00899951346218586,
        -0.04912946745753288,
        -0.007504520006477833,
        -0.009530141949653625,
        -0.014229854568839073,
        -0.0010449341498315334,
        0.028094004839658737,
        -0.009567643515765667,
        -0.049832783639431,
        -0.0476226881146431,
        0.00006116013537393883,
        -0.01634429395198822,
        -0.03005833923816681,
        -0.03496142104268074,
        0.02884828858077526,
        -0.029773350805044174,
        -0.03467174619436264,
        -0.020841913297772408,
        0.029553068801760674,
        0.01652238517999649,
        -0.021091392263770103,
        0.026969540864229202,
        0.006906019989401102,
        0.012549012899398804,
        -0.018451541662216187,
        -0.015366743318736553,
        0.040239255875349045,
        -0.02660265937447548,
        0.0034783827140927315,
        0.010105686262249947,
        0.0061363945715129375,
        0.017424391582608223,
        0.000648827466648072,
        0.04068534076213837,
        -0.01772761531174183,
        -0.002883498091250658,
        0.02584705874323845,
        0.0465676411986351,
        0.017557883635163307,
        0.0005421458627097309,
        -0.005104048643261194,
        -0.014306265860795975,
        -0.01852932572364807,
        -0.014045648276805878,
        0.0008425990818068385,
        -0.0067654321901500225,
        -0.008608503267168999,
        -0.007748862728476524,
        -0.028460154309868813,
        -0.019627084955573082,
        0.013494493439793587,
        -0.009690996259450912,
        0.0115797258913517,
        0.006058645900338888,
        0.03181388974189758,
        -0.0324193611741066,
        0.014367996715009212,
        0.00936433020979166,
        -0.007773658260703087,
        -0.015728676691651344,
        -0.05485408008098602,
        0.02330525405704975,
        0.0040145316161215305,
        -0.023543639108538628,
        -0.0023045740090310574,
        -0.02867836132645607,
        -0.028313491493463516,
        0.005880741402506828,
        0.0071472604759037495,
        0.02088019996881485,
        0.02695208042860031,
        -0.035684749484062195,
        -0.018195701763033867,
        0.03798438236117363,
        -0.04594285786151886,
        0.025491859763860703,
        -0.027878200635313988,
        0.040449805557727814,
        -0.02011132426559925,
        -0.019054457545280457,
        0.006666786503046751,
        0.01980792172253132,
        0.03666326776146889,
        0.007648809812963009,
        0.028357723727822304,
        -0.03809255361557007,
        -0.018001282587647438,
        0.017758704721927643,
        0.013300136663019657,
        -0.05748386308550835,
        0.06467723846435547,
        -0.030086569488048553,
        -0.048294905573129654,
        -0.03023095801472664,
        0.0008943511638790369,
        -0.028947530314326286,
        -0.029819898307323456,
        0.02002689614892006,
        0.0314924530684948,
        -0.01743340492248535,
        0.01165089476853609,
        0.021082326769828796,
        -0.012627379037439823,
        0.05952681973576546,
        0.02522038109600544,
        0.0180168729275465,
        0.05719717592000961,
        -0.003271603025496006,
        0.05118077993392944,
        0.023785140365362167,
        0.02758614532649517,
        0.02610044926404953,
        0.005698352120816708,
        0.002569605829194188,
        0.007731460966169834,
        -0.02481449395418167,
        0.019523372873663902,
        0.0076412633061409,
        0.02383362501859665,
        0.0017266948707401752,
        -0.04499300569295883,
        0.055168576538562775,
        -0.0020871777087450027,
        0.01966591738164425,
        0.027418747544288635,
        -0.00264966138638556,
        -0.025880461558699608,
        0.017559845000505447,
        0.031146500259637833,
        0.00393912848085165,
        0.0282586719840765,
        0.0036354775074869394,
        -0.027824735268950462,
        -0.010711726732552052,
        0.031177638098597527,
        -0.007722801528871059,
        0.021380940452218056,
        0.018227431923151016,
        0.049628276377916336,
        -0.013955840840935707,
        -0.03640030324459076,
        -0.003996997606009245,
        -0.00761852553114295,
        -0.025813378393650055,
        -0.04356996715068817,
        -0.005141936708241701,
        0.0011895557399839163,
        -0.005986550357192755,
        -0.016921652480959892,
        0.0263681598007679,
        0.03185588866472244,
        -0.002931642346084118,
        -0.059807728976011276,
        0.036429934203624725,
        0.02294221706688404,
        0.024158049374818802,
        -0.035327374935150146,
        -0.02813415415585041,
        0.011114703491330147,
        -0.010934935882687569,
        -0.02285141684114933,
        -0.01663612388074398,
        0.00877961702644825,
        0.007591076195240021,
        0.021658292040228844,
        -0.02509966306388378,
        -0.027164919301867485,
        0.05588913336396217,
        0.04424242302775383,
        -0.025098450481891632,
        0.025865275412797928,
        -0.017279986292123795,
        -0.015990782529115677,
        -0.05401460453867912,
        -0.012451699003577232,
        -0.018735241144895554,
        -0.025975193828344345,
        -0.03357943519949913,
        0.03763740137219429,
        -0.004025958478450775,
        0.02386348322033882,
        -0.005116574000567198,
        -0.0029958582017570734,
        0.06696659326553345,
        -0.023679133504629135,
        0.04254627972841263,
        0.07937897741794586,
        -0.0065044439397752285,
        0.003468045499175787,
        -0.02526399865746498,
        0.031786222010850906,
        -0.01922696642577648,
        0.03281548619270325,
        0.041433095932006836,
        -0.011376590467989445,
        0.0042911130003631115,
        0.003984556533396244,
        0.018896060064435005,
        -0.013810181058943272,
        -0.02994374930858612,
        0.04250355064868927,
        0.04470784589648247,
        -0.007825505919754505,
        0.0014820536598563194,
        -0.0011988523183390498,
        0.0194163266569376,
        -0.017798371613025665,
        -0.03137270361185074,
        0.007015804294496775,
        -0.01155100204050541,
        0.027922607958316803,
        0.028187498450279236,
        -0.0014186435146257281,
        0.0051106857135891914,
        0.013210562989115715,
        -0.06582171469926834,
        0.012994753196835518,
        0.022357938811182976,
        -0.012181632220745087,
        0.0231087077409029,
        0.05960937961935997,
        0.02968425303697586,
        -0.01060866005718708,
        0.023412223905324936,
        0.004400759004056454,
        0.004978566896170378,
        0.032497942447662354,
        0.028270497918128967,
        0.025286011397838593,
        0.021699201315641403,
        -0.008949573151767254,
        -0.012382285669445992,
        -0.03376581892371178,
        0.030515845865011215,
        -0.04868241026997566,
        0.013261393643915653,
        0.020967358723282814,
        0.0027792584151029587,
        0.004293279256671667,
        0.02796846255660057,
        -0.020688999444246292,
        0.014168559573590755,
        0.011442291550338268,
        -0.01603563502430916,
        -0.01063510961830616,
        -0.0180381927639246,
        -0.008455677889287472,
        -0.0003275011258665472,
        0.04432776942849159,
        0.0005938152316957712,
        0.0520150363445282,
        0.021315837278962135,
        -0.04699738696217537,
        -0.006091375835239887,
        0.030233856290578842,
        -0.01328915636986494,
        -0.03152871131896973,
        -0.055545415729284286,
        0.0026351374108344316,
        0.007826663553714752,
        0.011925539933145046,
        -0.0026731437537819147,
        0.005797755438834429,
        0.020064182579517365,
        -0.023381732404232025,
        0.06262688338756561,
        0.015086227096617222,
        -0.027262208983302116,
        0.04198134317994118,
        0.02602340467274189,
        0.036213118582963943,
        0.018483148887753487,
        -0.016706060618162155,
        0.05068451911211014,
        0.011985467746853828,
        -0.011473502963781357,
        0.020530540496110916,
        0.01910110004246235,
        -0.02149374596774578,
        -0.002495719585567713,
        0.04427321255207062,
        0.039744626730680466,
        0.02295686863362789,
        0.016761988401412964,
        -0.020879171788692474,
        0.014361928217113018,
        -0.021424517035484314,
        0.020877229049801826,
        -0.015619589947164059,
        0.03734223172068596,
        0.027740150690078735,
        0.034796491265296936,
        0.006671871058642864,
        -0.016319291666150093,
        0.013814819045364857,
        -0.0025086626410484314,
        -0.01483854092657566,
        -0.04362577572464943,
        0.06785031408071518,
        0.002706104191020131,
        -0.04575331509113312,
        -0.03551194444298744,
        -0.009793461300432682,
        0.028019951656460762,
        -0.007331634406000376,
        -0.03104870580136776,
        0.03481436148285866,
        0.005959923379123211,
        -0.020129062235355377,
        0.03317827358841896,
        -0.0052634128369390965,
        -0.05257191136479378,
        0.03559865057468414,
        0.027489999309182167,
        -0.0019611194729804993,
        0.02111082896590233,
        0.02387073077261448,
        -0.024618037045001984,
        0.01192188449203968,
        0.013051451183855534,
        -0.027312854304909706,
        -0.013357080519199371,
        -0.035229187458753586,
        0.00602438161149621,
        -0.02686402201652527,
        -0.017869317904114723,
        0.02416234090924263,
        0.006216731853783131,
        -0.024192538112401962,
        0.05005573108792305,
        -0.024311669170856476,
        -0.01249152235686779,
        0.0003669245052151382,
        0.012227006256580353,
        -0.021085023880004883,
        -0.012851396575570107,
        0.015353534370660782,
        -0.04125608503818512,
        -0.017788195982575417,
        0.030001431703567505,
        -0.02784205600619316,
        0.037302084267139435,
        -0.02995024435222149,
        0.04602362960577011,
        -0.026721397414803505,
        0.055886682122945786,
        -0.026135269552469254,
        -0.0056461552157998085,
        0.04507455229759216,
        -0.001250684610567987,
        0.005262456834316254,
        -0.03028259612619877,
        -0.01719021052122116,
        0.026737036183476448,
        0.023451147601008415,
        -0.027386939153075218,
        0.018207622691988945,
        -0.010792573913931847,
        -0.02546781115233898,
        0.008722208440303802,
        -0.029746226966381073,
        0.054364271461963654,
        -0.014996027573943138,
        -0.017980946227908134,
        0.0340711809694767,
        0.004973794333636761,
        -0.026550104841589928,
        -0.026738779619336128,
        -0.0035755052231252193,
        0.021265920251607895,
        -0.01719440147280693,
        0.006723181344568729,
        -0.007373338099569082,
        0.024373039603233337,
        -0.03060571290552616,
        0.0059113712050020695,
        0.02027053013443947,
        0.008953031152486801,
        -0.008174484595656395,
        -0.02529706060886383,
        -0.010569282807409763,
        0.03486861661076546,
        -0.003328749444335699,
        0.021861033514142036,
        -0.028889836743474007,
        -0.0013367593055590987,
        0.0030669679399579763,
        0.027781959623098373,
        0.012698773294687271,
        -0.02593226172029972,
        -0.031959787011146545,
        -0.037703774869441986,
        0.085659921169281,
        -0.027988577261567116,
        -0.020579105243086815,
        -0.014308659359812737,
        -0.05879390984773636,
        0.012108082883059978,
        0.015115706250071526,
        0.003909123130142689,
        -0.023061810061335564,
        -0.00811942107975483,
        0.006387266796082258,
        -0.0006987747619859874,
        0.019885733723640442,
        -0.0014911731705069542,
        0.001491918577812612,
        -0.0638962984085083,
        -0.0033905520103871822,
        -0.019734537228941917,
        0.01413904782384634,
        0.0050062029622495174,
        -0.0069018518552184105,
        -0.02222420647740364,
        -0.03199158236384392,
        0.004720164928585291,
        -0.0010522528318688273,
        0.0016928669065237045,
        -0.024093544110655785,
        -0.035912737250328064,
        -0.023733198642730713,
        0.0021607514936476946,
        -0.017554081976413727,
        -0.025225745514035225,
        -0.068842314183712,
        0.040510911494493484,
        0.031052350997924805,
        -0.024242596700787544,
        0.02887134626507759,
        -0.01705927960574627,
        0.011100945994257927,
        0.01943521946668625,
        -0.02780931629240513,
        -0.029871607199311256,
        0.023487934842705727,
        -0.02365056239068508,
        -0.002913018921390176,
        0.037788815796375275,
        0.024452989920973778,
        -0.03632545471191406,
        -0.01824854500591755,
        -0.005599113181233406,
        0.0033075616229325533,
        -0.020164769142866135,
        -0.007295128423720598,
        0.018009934574365616,
        -0.022422781214118004,
        -0.021478556096553802,
        -0.01567847840487957,
        0.014299909584224224,
        -0.012671209871768951,
        0.018296996131539345,
        -0.0006135887815617025,
        0.02438705414533615,
        0.0002488784375600517,
        -0.015515795908868313,
        0.05283345654606819,
        0.005031514447182417,
        -0.020564012229442596,
        -0.031419537961483,
        -0.012451612390577793,
        -0.02749527618288994,
        0.01932627707719803,
        -0.014412707649171352,
        -0.02025788277387619,
        -0.0274485033005476,
        0.027695633471012115,
        -0.0013162805698812008,
        -0.0010531861335039139,
        -0.0009079104056581855,
        0.02236492745578289,
        -0.05023198947310448,
        0.09031212329864502,
        0.0107232965528965,
        -0.009131059050559998,
        -0.01716812327504158,
        -0.00009091003448702395,
        0.0328395739197731,
        -0.030475737527012825,
        0.0009863661834970117,
        -0.017342733219265938,
        -0.042472537606954575,
        0.00147084123454988,
        0.04018578305840492,
        0.022356228902935982,
        0.0017350853886455297,
        -0.0012600048212334514,
        -0.04791497066617012,
        -0.029215099290013313,
        -0.017767533659934998,
        -0.035473018884658813,
        -0.007951482199132442,
        0.029272573068737984,
        0.014496983028948307,
        -0.025489019230008125,
        0.010015237145125866,
        0.01523668598383665,
        -0.00280974549241364,
        0.018482668325304985,
        0.012761637568473816,
        0.010534488596022129,
        0.017352532595396042,
        0.013312727212905884,
        -0.060975223779678345,
        -0.0485222265124321,
        -0.007607861887663603,
        -0.008965125307440758,
        -0.008445421233773232,
        -0.03846922144293785,
        0.02999376691877842,
        0.007076723501086235,
        0.011492813006043434,
        0.015846893191337585,
        -0.0025688237510621548,
        -0.026529110968112946,
        0.007862813770771027,
        -0.020799005404114723,
        -0.025948382914066315,
        -0.007401504088193178,
        0.00405149394646287,
        -0.06203325465321541,
        -0.03178009018301964,
        -0.03888248652219772,
        0.01700839027762413,
        -0.05809459462761879,
        0.029655417427420616,
        0.01981842704117298,
        0.017445988953113556,
        0.016936108469963074,
        -0.007603305391967297,
        -0.02508627437055111,
        -0.021294157952070236,
        0.009719258174300194,
        0.006193823646754026,
        -0.027342306450009346,
        0.03157629817724228,
        0.004470452666282654,
        -0.021597035229206085,
        0.04766957461833954,
        -0.0018090357771143317,
        -0.025495782494544983,
        -0.040181148797273636,
        0.03154497593641281,
        0.031754352152347565,
        -0.02064698562026024,
        -0.0007259006961248815,
        0.01977369375526905,
        0.01790512353181839,
        0.01933361403644085,
        0.0005877235089428723,
        -0.020419374108314514,
        0.002190450904890895,
        0.021492892876267433,
        0.04374966025352478,
        -0.0598345585167408,
        0.022085610777139664,
        0.05631110817193985,
        -0.004368331283330917,
        0.008099406957626343,
        0.020526645705103874,
        0.032631777226924896,
        -0.001118183950893581,
        -0.010697337798774242,
        0.035773664712905884,
        -0.02703835815191269,
        -0.016397561877965927,
        0.014271823689341545,
        -0.0118803009390831,
        -0.034764304757118225,
        -0.02675476297736168,
        0.003017705399543047,
        0.018891312181949615,
        0.008267874829471111,
        0.0035368369426578283,
        -0.018942445516586304,
        0.03235597908496857,
        0.019417671486735344,
        -0.03419392555952072,
        -0.008453497663140297,
        0.03045537695288658,
        0.00742467911913991,
        -0.046621207147836685,
        0.0223546139895916,
        0.003472335636615753,
        0.00011972364882240072,
        -0.017443092539906502,
        -0.017352554947137833,
        0.007394970394670963,
        -0.034806665033102036,
        -0.013204610906541348,
        -0.003513373900204897,
        0.006601457018405199,
        -0.022495217621326447,
        0.003427721792832017,
        0.02339581400156021,
        0.004767308477312326,
        -0.030889634042978287,
        -0.02008754573762417,
        -0.019455110654234886,
        0.001367427408695221,
        0.022200869396328926,
        -0.0026031075976788998,
        -0.0273248590528965,
        -0.007538556586951017,
        -0.06522461026906967,
        -0.001339916605502367,
        -0.02537654899060726,
        -0.01228029653429985,
        -0.016737906262278557,
        -0.01741787977516651,
        0.029363103210926056,
        -0.025677910074591637,
        -0.02132304385304451,
        -0.037910737097263336,
        -0.026787718757987022,
        0.026779571548104286,
        0.012244525365531445,
        -0.02666683867573738,
        0.041717082262039185,
        -0.027660895138978958,
        -0.057328961789608,
        -0.03278147429227829,
        0.001003426848910749,
        0.018106091767549515,
        0.003865569829940796,
        -0.005494943354278803,
        -0.01234778668731451,
        0.00903498288244009,
        -0.023068509995937347,
        0.046815723180770874,
        0.026316123083233833,
        -0.03279803693294525,
        -0.04595107212662697,
        0.041769254952669144,
        -0.044784065335989,
        0.028932370245456696,
        0.021192751824855804,
        0.0559726245701313,
        -0.008320736698806286,
        0.02452097274363041,
        -0.017897959798574448,
        -0.011037813499569893,
        0.003428193274885416,
        0.023425739258527756,
        -0.022747643291950226,
        -0.005444142501801252,
        0.02648143842816353,
        0.006433202885091305,
        0.048541359603405,
        0.01735258661210537,
        -0.014783047139644623,
        -0.004329176619648933,
        -0.01285130437463522,
        -0.012385531328618526,
        -0.006775714922696352,
        -0.024806061759591103,
        -0.01729307323694229,
        0.006861218251287937,
        0.0184869933873415,
        0.04334701970219612,
        0.0027236011810600758,
        -0.043528273701667786,
        -0.027508161962032318,
        -0.01131207961589098,
        0.016862014308571815,
        -0.03539733588695526,
        -0.032803986221551895,
        0.011486041359603405,
        -0.05728702247142792,
        -0.04346385970711708,
        0.014538401737809181,
        0.02276722341775894,
        -0.02947176992893219,
        0.012449823319911957,
        -0.00022107231779955328,
        0.03192467615008354,
        0.01652502454817295,
        -0.0008721123449504375,
        0.014531813561916351,
        0.00890322495251894,
        0.08097425848245621,
        -0.06683722138404846,
        -0.02811768278479576,
        -0.029135119169950485,
        -0.026528706774115562,
        -0.03725167736411095,
        -0.01870778016746044,
        0.016993654891848564,
        0.008065463043749332,
        0.02268412336707115,
        0.031737320125103,
        0.029010042548179626,
        0.016453217715024948,
        -0.04588361456990242,
        0.030786801129579544,
        0.04786670580506325,
        0.0012089981464669108,
        -0.01164196152240038,
        0.04904590919613838,
        0.012952432036399841,
        -0.04812104254961014,
        -0.037520233541727066,
        0.0295648742467165,
        0.009132664650678635,
        -0.007551516406238079,
        0.027240615338087082,
        0.010063975118100643,
        -0.011114658787846565,
        -0.002583552850410342,
        0.022594274953007698,
        0.03227975219488144,
        0.018275337293744087,
        -0.01023613940924406,
        0.003870529355481267,
        -0.05267566069960594,
        0.03066420368850231,
        0.0006096521392464638,
        0.04169992357492447,
        -0.02082282304763794,
        -0.01448072213679552,
        0.022819343954324722,
        0.016146117821335793,
        -0.004493798594921827,
        0.04141037166118622,
        0.012965619564056396,
        -0.019879497587680817,
        -0.032447025179862976,
        -0.020788168534636497,
        0.029482830315828323,
        -0.029943441972136497,
        0.014813599176704884,
        -0.01906498335301876,
        -0.014927305281162262,
        0.016993246972560883,
        0.014995329082012177,
        -0.0004880830820184201,
        0.01301295030862093,
        -0.0362851656973362,
        -0.03139651194214821,
        -0.022652054205536842,
        0.025371549651026726,
        -0.003491294337436557,
        0.01700805127620697,
        -0.005002750549465418,
        0.08237272500991821,
        -0.02625134401023388,
        0.00015978275041561574,
        0.00028328102780506015,
        -0.03310877084732056,
        -0.01703125424683094,
        0.027300050482153893,
        0.019416164606809616,
        -0.004037325736135244,
        -0.026036104187369347,
        0.02827121689915657,
        -0.011978586204349995,
        0.03158274665474892,
        -0.041403546929359436,
        0.01021703239530325,
        0.015110107138752937,
        0.08241006731987,
        -0.0537136010825634,
        0.04208169877529144,
        -0.00037342868745326996,
        -0.06516409665346146,
        -0.027481121942400932,
        -0.01192506030201912,
        0.003939828369766474,
        -0.01974763534963131,
        0.0170337725430727,
        0.006949239410459995,
        0.007429018616676331,
        -0.00026437226915732026,
        0.0026483538094908,
        0.007274537812918425,
        -0.0030182008631527424,
        0.04395104572176933,
        -0.02402270771563053,
        0.029676716774702072,
        0.00758938305079937,
        -0.039842694997787476,
        -0.03575610741972923,
        0.0027185992803424597,
        0.02700423263013363,
        -0.02656407654285431,
        -0.01606232300400734,
        -0.027987511828541756,
        0.013181009329855442,
        0.03252615034580231,
        -0.020814970135688782,
        0.008671136572957039,
        -0.028689254075288773,
        -0.012637226842343807,
        -0.011138170957565308,
        -0.004433116409927607,
        0.0054085575975477695,
        0.003914598375558853,
        0.007962934672832489,
        0.0246924739331007,
        -0.02729516662657261,
        0.02317660115659237,
        0.02061469480395317,
        0.003709181444719434,
        -0.020395759493112564,
        0.01795458421111107,
        0.03229420259594917,
        -0.006277886219322681,
        0.013042348437011242,
        -0.01398630440235138,
        0.012994284741580486,
        -0.027048783376812935,
        0.002322860760614276,
        0.01423560082912445,
        0.024718206375837326,
        -0.007134670857340097,
        -0.014197384007275105,
        0.021797213703393936,
        0.00412316108122468,
        0.02176780439913273,
        -0.031496159732341766,
        0.015731776133179665,
        -0.0052029904909431934,
        -0.023823410272598267,
        0.020589854568243027,
        0.007860426791012287,
        0.02916753478348255,
        0.027422288432717323,
        0.016984838992357254,
        -0.01509675569832325,
        -0.0012068655341863632,
        -0.014863594435155392,
        0.013653669506311417,
        0.02546231634914875,
        0.019687481224536896,
        -0.029301611706614494,
        0.017031975090503693,
        0.017560912296175957,
        -0.024130314588546753,
        0.023919839411973953,
        0.02002037689089775,
        0.02617005631327629,
        -0.02004646509885788,
        0.031131988391280174,
        -0.016626853495836258,
        -0.02357732132077217,
        0.02935260534286499,
        -0.028226828202605247,
        0.029162362217903137,
        -0.028599202632904053,
        0.006433488801121712,
        -0.0010165354469791055,
        0.005492746829986572,
        0.0252096988260746,
        -0.022646019235253334,
        -0.02101624570786953,
        0.023553095757961273,
        -0.014193735085427761,
        0.025250857695937157,
        0.014720396138727665,
        -0.0137089928612113,
        -0.030374113470315933,
        0.027709953486919403,
        0.011304427869617939,
        0.029968425631523132,
        -0.007408126723021269,
        0.021785901859402657,
        0.0057314541190862656,
        0.0037330889608711004,
        0.011927677318453789,
        0.02850758470594883,
        -0.027185125276446342,
        -0.035041097551584244,
        -0.029539676383137703,
        -0.018929287791252136,
        0.02306676097214222,
        -0.011788122355937958,
        0.022639799863100052,
        0.0032615833915770054,
        -0.02893475629389286,
        0.03160639852285385,
        -0.014465706422924995,
        0.015286515466868877,
        -0.010126525536179543,
        -0.017655516043305397,
        -0.027786580845713615,
        0.005332308821380138,
        0.03239201754331589,
        0.020467421039938927,
        0.006244462914764881,
        0.004042294807732105,
        -0.007410960737615824,
        0.018504001200199127,
        0.009689152240753174,
        -0.01812918484210968,
        -0.005365902092307806,
        0.03217795863747597,
        0.006498160306364298,
        -0.011697297915816307,
        0.007187784183770418,
        -0.007653913926333189,
        0.010113945230841637,
        0.018718669191002846,
        -0.014730934053659439,
        -0.005792970769107342,
        0.019282573834061623,
        -0.029390087351202965,
        0.022194866091012955,
        0.016309110447764397,
        0.0182341281324625,
        -0.009348289109766483,
        0.012694115750491619,
        -0.008149574510753155,
        -0.0039116134867072105,
        0.01796254888176918,
        -0.013903484679758549,
        -0.024321511387825012,
        0.0009891751687973738,
        -0.012654122896492481,
        0.0009637526236474514,
        0.015481141395866871,
        0.024404365569353104,
        -0.017757408320903778,
        -0.008141646161675453,
        -0.008752266876399517,
        -0.006002976093441248,
        -0.02770199440419674,
        -0.01384815014898777,
        -0.025058435276150703,
        -0.005815252661705017,
        -0.026769038289785385,
        0.028118440881371498,
        0.0020952133927494287,
        0.0035486218985170126,
        -0.010243337601423264,
        -0.020329326391220093,
        0.004084242042154074,
        0.004312607459723949,
        -0.02248769998550415,
        0.03201399743556976,
        -0.014325907453894615,
        0.006670661270618439,
        -0.01709568500518799,
        0.018843401223421097,
        -0.023080432787537575,
        -0.027733566239476204,
        0.0072108060121536255,
        0.01868981495499611,
        0.010976328514516354,
        -0.02540837600827217,
        -0.023199481889605522,
        -0.017858998849987984,
        0.030942942947149277,
        0.006050826050341129,
        0.02762097306549549,
        -0.006235904525965452,
        0.025404540821909904,
        -0.008398735895752907,
        0.026954110711812973,
        -0.030522622168064117,
        0.01834186166524887,
        -0.01213618740439415,
        0.009259485639631748,
        -0.006920101121068001,
        0.023472726345062256,
        0.01487638708204031,
        -0.011859101243317127,
        -0.0027592091355472803,
        0.03286859393119812,
        0.02443435974419117,
        0.02088560350239277,
        -0.012563856318593025,
        0.013958506286144257,
        0.014118950814008713,
        -0.005245640873908997,
        0.005279418546706438,
        0.027264539152383804,
        0.011101002804934978,
        -0.008145553059875965,
        0.022972790524363518,
        0.0021058525890111923,
        0.008063366636633873,
        -0.010927872732281685,
        0.013276229612529278,
        0.020571831613779068,
        0.009588849730789661,
        -0.014862781390547752,
        0.013389416970312595,
        -0.020296165719628334,
        -0.008083282969892025,
        -0.029289336875081062,
        0.010625800117850304,
        0.004830962512642145,
        0.014865475706756115,
        -0.005334853194653988,
        0.03043489344418049,
        -0.0005929038161411881,
        0.030022677034139633,
        -0.01108893845230341,
        -0.009407817386090755,
        0.016832733526825905,
        -0.0036805039271712303,
        0.005289179738610983,
        0.02024795673787594,
        -0.026814764365553856,
        0.0003503287734929472,
        -0.0004596998624037951,
        -0.019690830260515213,
        0.01467246562242508,
        -0.0024886280298233032,
        -0.022103972733020782,
        -0.027823442593216896,
        0.004324650391936302,
        0.001834570080973208,
        0.019886242225766182,
        0.020747195929288864,
        -0.021120287477970123,
        -0.028937265276908875,
        0.02715691179037094,
        0.033441752195358276,
        -0.031563650816679,
        0.028958545997738838,
        -0.019395925104618073,
        0.02484029531478882,
        0.022562138736248016,
        -0.03042246401309967,
        -0.014652777463197708,
        0.028496116399765015,
        -0.017713498324155807,
        -0.027375508099794388,
        0.01262458972632885,
        -0.014757099561393261,
        0.02240387350320816,
        0.0038601227570325136,
        0.02585863508284092,
        0.005249955225735903,
        0.00523835513740778,
        -0.023172391578555107,
        0.032706961035728455,
        -0.017089951783418655,
        -0.007637929171323776,
        0.023488545790314674,
        0.02458743378520012,
        -0.024101903662085533,
        0.03273545205593109,
        0.027302227914333344,
        -0.002982618287205696,
        -0.024282706901431084,
        -0.0005937474779784679,
        -0.014474737457931042,
        0.026564590632915497,
        -0.024483121931552887,
        -0.012212773784995079,
        0.030723799020051956,
        0.027290919795632362,
        -0.03241832181811333,
        0.009953239932656288,
        0.026125328615307808,
        -0.0250385869294405,
        0.02230813354253769,
        0.01973591558635235,
        0.0009118238231167197,
        0.02770998328924179,
        0.009566687047481537,
        0.033001165837049484,
        -0.019907662644982338,
        0.0017810118151828647,
        -0.019667332991957664,
        -0.023330427706241608,
        0.017648914828896523,
        -0.003960304893553257,
        -0.018018746748566628,
        0.019818928092718124,
        -0.006606569513678551,
        0.0025024444330483675,
        0.02567301131784916,
        0.012516605667769909,
        0.018976939842104912,
        -0.017492281273007393,
        -0.004929522518068552,
        0.02713683433830738,
        -0.02335314080119133,
        0.006477463990449905,
        -0.009555432014167309,
        -0.013421764597296715,
        -0.006862801965326071,
        0.02959688939154148,
        0.026482954621315002,
        -0.03145642206072807,
        0.003230087924748659,
        -0.01293338555842638,
        0.02032209374010563,
        0.023723838850855827,
        0.01680750399827957,
        -0.03392043337225914,
        -0.027023043483495712,
        0.019720761105418205,
        -0.01710401475429535,
        -0.0017383699305355549,
        0.0009270969894714653,
        0.00882957223802805,
        -0.027424614876508713,
        -0.031420957297086716,
        -0.024467019364237785,
        -0.03164225444197655,
        0.03046349063515663,
        0.01610935479402542,
        0.005069130565971136,
        0.006733912043273449,
        0.0023449724540114403,
        -0.02638998068869114,
        -0.028902998194098473,
        -0.014516874216496944,
        0.01236673817038536,
        0.008250276558101177,
        -0.018022149801254272,
        -0.010623990558087826,
        0.03436635062098503,
        0.020658859983086586,
        -0.024303972721099854,
        -0.01699112355709076,
        0.0149148004129529,
        0.002819392364472151,
        0.009156661108136177,
        -0.031059810891747475,
        0.0009436167310923338,
        0.027512485161423683,
        0.0009730506571941078,
        0.02750992402434349,
        -0.005014694761484861,
        0.030211182311177254,
        0.02305121161043644,
        0.0077317324467003345,
        0.0017276135040447116,
        -0.008009925484657288,
        0.0006199405761435628,
        -0.021833667531609535,
        -0.02069690264761448,
        0.008651397190988064,
        0.016842735931277275,
        -0.0028751271311193705,
        0.020511172711849213,
        -0.03171686455607414,
        -0.03260664641857147,
        -0.012046204879879951,
        0.019783513620495796,
        0.01929437182843685,
        -0.01718060113489628,
        -0.001723113120533526,
        -0.02845967747271061,
        -0.01560008991509676,
        0.007720783352851868,
        -0.027568748220801353,
        -0.004429609049111605,
        -0.026976395398378372,
        0.005190859083086252,
        -0.0174480639398098,
        -0.003968324512243271,
        -0.017520209774374962,
        -0.02295421063899994,
        -0.027898268774151802,
        -0.013182926923036575,
        -0.009742830879986286,
        0.034136977046728134,
        -0.00479594711214304,
        0.009495233185589314,
        0.02838056907057762,
        -0.027262937277555466,
        -0.0042203511111438274,
        -0.03019513189792633,
        0.0051769353449344635,
        0.011206758208572865,
        0.01698111742734909,
        -0.027849964797496796,
        0.01798928529024124,
        -0.009995781816542149,
        -0.0009924423648044467,
        -0.026441212743520737,
        -0.015176203101873398,
        0.014914029277861118,
        -0.025485964491963387,
        -0.02763405628502369,
        0.003988341428339481,
        -0.0297453161329031,
        0.02322300709784031,
        0.00893455557525158,
        0.016332751139998436,
        0.023282654583454132,
        -0.021297674626111984,
        -0.0025034702848643064,
        -0.00931614451110363,
        -0.008518747985363007,
        -0.019444677978754044,
        0.03503309190273285,
        -0.03053739108145237,
        -0.015040689148008823,
        0.019799064844846725,
        0.02187734842300415,
        -0.03107432834804058,
        -0.029736977070569992,
        -0.028773384168744087,
        -0.0023988124448806047,
        -0.016508370637893677,
        0.015084265731275082,
        -0.018416685983538628,
        0.01629764400422573,
        0.021199196577072144,
        0.001517265453003347,
        0.021214397624135017,
        0.030509017407894135,
        -0.008900661952793598,
        0.019096113741397858,
        0.03148767724633217,
        0.03324935957789421,
        -0.0007832806441001594,
        0.015580452047288418,
        0.015704073011875153,
        -0.007465342991054058,
        -0.031084539368748665,
        -0.0008420142694376409,
        0.028156017884612083,
        -0.008699501864612103,
        0.009996860288083553,
        0.03191056847572327,
        -0.01580047607421875,
        0.024501187726855278,
        0.02947274036705494,
        -0.015491295605897903,
        0.027684466913342476,
        0.010897105559706688,
        0.022321602329611778,
        0.0070753442123532295,
        -0.0005868275184184313,
        0.01780681684613228,
        0.020450841635465622,
        0.024980228394269943,
        0.02108161523938179,
        0.0062006316147744656,
        0.015444142743945122,
        0.030418623238801956,
        0.01552868913859129,
        -0.03708421066403389,
        0.016371460631489754,
        0.03006994165480137,
        0.010432973504066467,
        0.02704913727939129,
        0.008208799175918102,
        -0.013285147026181221,
        0.003642286406829953,
        0.02693582884967327,
        0.004959451500326395,
        -0.025104543194174767,
        0.028635872527956963,
        0.024310030043125153,
        -0.001293427194468677,
        0.02967832237482071,
        -0.02873620018362999,
        -0.013972129672765732,
        -0.001947368960827589,
        -0.01279839314520359,
        -0.0015269855502992868,
        0.029567893594503403,
        -0.015111997723579407,
        -0.011868688277900219,
        0.008326925337314606,
        0.0253706406801939,
        -0.015423399396240711,
        0.015950370579957962,
        -0.021221863105893135,
        0.022643962875008583,
        -0.021603159606456757,
        -0.0008290645782835782,
        -0.006121641956269741,
        0.029977431520819664,
        -0.030099527910351753,
        0.004682264290750027,
        -0.02101154811680317,
        -0.03627294301986694,
        -0.008230618201196194,
        0.0013557604979723692,
        0.018951069563627243,
        0.015318217687308788,
        0.007518990430980921,
        0.010287899523973465,
        0.02261502854526043,
        -0.0075336177833378315,
        -0.014028067700564861,
        -0.023465927690267563,
        0.010996614582836628,
        -0.0023909169249236584,
        0.017473794519901276,
        -0.00023416013573296368,
        -0.005815178621560335,
        -0.005720832850784063,
        -0.004404060542583466,
        -0.025146029889583588,
        0.029613442718982697,
        -0.026533564552664757,
        0.016040056943893433,
        -0.03168615326285362,
        -0.017322342842817307,
        0.013437682762742043,
        -0.029996201395988464,
        -0.009400369599461555,
        -0.022844307124614716,
        -0.023939942941069603,
        -0.017421657219529152,
        0.026852339506149292,
        -0.0004297180857975036,
        0.0035419161431491375,
        -0.030905654653906822,
        0.030466357246041298,
        0.03176862373948097,
        -0.0271754190325737,
        0.013190481811761856,
        0.013263783417642117,
        -0.023156307637691498,
        -0.01871461048722267,
        0.029998527839779854,
        -0.02770216017961502,
        0.0009376969537697732,
        -0.002300531603395939,
        0.025626493617892265,
        0.021345026791095734,
        -0.010560408234596252,
        0.018109479919075966,
        -0.020283447578549385,
        0.006502380594611168,
        0.025454318150877953,
        -0.02241899073123932,
        0.015798505395650864,
        0.009514202363789082,
        -0.01874307356774807,
        -0.012305733747780323,
        0.011498261243104935,
        0.03271123021841049,
        -0.003089875215664506,
        0.019705386832356453,
        0.027506647631525993,
        -0.01062548253685236,
        -0.015737567096948624,
        -0.012778610922396183,
        0.012724174186587334,
        -0.0022276800591498613,
        -0.014112603850662708,
        0.03261857479810715,
        -0.027723805978894234,
        0.00261719455011189,
        -0.013775797560811043,
        0.010451587848365307,
        0.02962562069296837,
        -0.032419364899396896,
        -0.010155794210731983,
        0.015159591101109982,
        0.0033541719894856215,
        0.004694443661719561,
        -0.02586294151842594,
        -0.021567638963460922,
        0.009979261085391045,
        -0.01337625551968813,
        -0.004471054300665855,
        -0.007165401242673397,
        0.016985204070806503,
        -0.002241518348455429,
        -0.0153596056625247,
        0.00811134371906519,
        0.02491205558180809,
        0.009796762838959694,
        0.005204584915190935,
        -0.03284185007214546,
        -0.01139451377093792,
        0.00865828339010477,
        0.02341221086680889,
        0.008130696602165699,
        0.033117733895778656,
        -0.0332610048353672,
        -0.016805782914161682,
        -0.021585404872894287,
        -0.0005096031236462295,
        0.009796973317861557,
        0.0069586471654474735,
        -0.028630787506699562,
        -0.00974705908447504,
        0.01922493614256382,
        -0.010940643958747387,
        0.005833268631249666,
        0.02042568475008011,
        -0.03084760345518589,
        0.005281310528516769,
        -0.007932803593575954,
        0.020607715472579002,
        0.008263749070465565,
        0.019641133025288582,
        -0.028620963916182518,
        0.02759786695241928,
        -0.010388044640421867,
        0.02770807594060898,
        0.016644760966300964,
        0.0007115464541129768,
        0.005309386644512415,
        0.016014130786061287,
        0.024411946535110474,
        -0.01912890560925007,
        0.017389530315995216,
        -0.012681063264608383,
        0.005385931581258774,
        0.029333513230085373,
        0.02989748865365982,
        0.0014891508035361767,
        -0.007241227198392153,
        0.016387324780225754,
        -0.018760457634925842,
        -0.009833598509430885,
        -0.0017701757606118917,
        0.005086279474198818,
        0.016486963257193565,
        0.02245086058974266,
        0.008129987865686417,
        -0.030675332993268967,
        -0.02812342718243599,
        -0.00041009855340234935,
        0.020489854738116264,
        -0.008772356435656548,
        -0.0056267292238771915,
        0.011266198009252548,
        0.03280223160982132,
        -0.013021597638726234,
        0.02147735469043255,
        0.029684675857424736,
        0.009777398779988289,
        -0.013757869601249695,
        0.02878672070801258,
        -0.003178815823048353,
        0.02030474692583084,
        -0.009217578917741776,
        -0.008750944398343563,
        -0.032380107790231705,
        0.017675720155239105,
        -0.020296083763241768,
        -0.019482137635350227,
        0.02244037576019764,
        0.014077260158956051,
        0.0014975758967921138,
        -0.031645555049180984,
        0.029166309162974358,
        0.010377281345427036,
        0.006338576320558786,
        0.009139391593635082,
        0.017196152359247208,
        -0.03258088603615761,
        0.029391344636678696,
        0.025812027975916862,
        -0.014490993693470955,
        -0.012240778654813766,
        0.026507092639803886,
        0.027180420234799385,
        0.030980531126260757,
        -0.030790776014328003,
        0.012276862747967243,
        0.029655756428837776,
        -0.0012449444038793445,
        0.03154269605875015,
        -0.018598729744553566,
        0.0033255685120821,
        -0.015251369215548038,
        0.019530005753040314,
        0.011192436330020428,
        0.005810129456222057,
        0.029950285330414772,
        -0.004662477411329746,
        0.008381827734410763,
        -0.025097394362092018,
        -0.02591063641011715,
        -0.031746625900268555,
        -0.018698396161198616,
        -0.029353950172662735,
        0.007740671280771494,
        -0.019412392750382423,
        0.021065035834908485,
        0.004635788965970278,
        -0.01337684690952301,
        -0.007149589713662863,
        0.002998080337420106,
        -0.023662421852350235,
        0.025380553677678108,
        -0.012160791084170341,
        0.01170432660728693,
        0.023985978215932846,
        -0.018842285498976707,
        -0.01899043843150139,
        0.006683886516839266,
        -0.004057491663843393,
        -0.03041587583720684,
        -0.015632137656211853,
        0.008088290691375732,
        0.022688517346978188,
        0.020180776715278625,
        0.015879198908805847,
        0.014574138447642326,
        -0.02084215357899666,
        0.029459772631525993,
        -0.005576818250119686,
        -0.007230513729155064,
        -0.009109556674957275,
        0.03043707273900509,
        0.005047603510320187,
        0.03360288590192795,
        0.020471062511205673,
        0.029083287343382835,
        -0.028771832585334778,
        0.014272584579885006,
        -0.029024342074990273,
        -0.027241501957178116,
        -0.002047059591859579,
        -0.026537436991930008,
        -0.013421480543911457,
        0.02922399900853634,
        -0.030324788764119148,
        0.027424339205026627,
        0.008805492892861366,
        0.025019828230142593,
        0.002479755785316229,
        -0.017209380865097046,
        0.022080538794398308,
        -0.023733900859951973,
        -0.012873596511781216,
        -0.0033099346328526735,
        -0.0034821336157619953,
        0.01054145023226738,
        -0.027298446744680405,
        -0.021064214408397675,
        0.0058494992554187775,
        -0.0004443154321052134,
        0.01220723893493414,
        -0.028813237324357033,
        0.022467566654086113,
        0.03225105255842209,
        0.032268498092889786,
        -0.007104960270226002,
        -0.01914518140256405,
        -0.00979692954570055,
        -0.01492559164762497,
        -0.03384184092283249,
        -0.02164219506084919,
        -0.009138346649706364,
        -0.014694469049572945,
        -0.037206485867500305,
        0.011681273579597473,
        -0.019517997279763222,
        -0.007471475284546614,
        -0.016612982377409935,
        -0.017149481922388077,
        0.014070732519030571,
        0.026139963418245316,
        -0.007216155529022217,
        -0.008967005647718906,
        0.0255675558000803,
        0.028098847717046738,
        0.005841522011905909,
        0.029747022315859795,
        0.009458860382437706,
        -0.023050351068377495,
        -0.012478784658014774,
        0.026093317195773125,
        -0.019393542781472206,
        -0.02614259347319603,
        -0.018475541844964027,
        0.02249079942703247,
        0.022036338225007057,
        -0.03120865486562252,
        0.013872089795768261,
        -0.02538946270942688,
        -0.010600562207400799,
        0.024982236325740814,
        -0.006175878457725048,
        -0.013960594311356544,
        -0.003549302229657769,
        0.00024735284387134016,
        -0.0278399046510458,
        -0.013530939817428589,
        -0.032202448695898056,
        0.021387575194239616,
        -0.003877897746860981,
        -0.02787378989160061,
        0.029316527768969536,
        -0.00501116830855608,
        -0.028098315000534058,
        -0.030493952333927155,
        -0.009527916088700294,
        -0.02635706216096878,
        -0.010723849758505821,
        0.006413698196411133,
        -0.004777442663908005,
        -0.00019149741274304688,
        0.010611354373395443,
        0.028149379417300224,
        0.026278875768184662,
        -0.0036334244068711996,
        -0.03179246187210083,
        0.021708905696868896,
        0.029579564929008484,
        -0.00041733935358934104,
        0.006386522203683853,
        0.006019460968673229,
        0.015659751370549202,
        -0.018566172569990158,
        -0.0202912800014019,
        0.01135807391256094,
        0.004477516748011112,
        0.03991616144776344,
        -0.017807476222515106,
        0.0030040342826396227,
        -0.004616734106093645,
