{
  "learningRate": 0.001,
  "layers": [
    {
      "type": "input",
      "shape": [
        1,
        28,
        28,
        1
      ]
    },
    {
      "type": "conv2d",
      "strideH": 1,
      "strideW": 1,
      "padTop": 0,
      "padBottom": 0,
      "padLeft": 0,
      "padRight": 0,
      "activation": "leakyRelu",
      "kernel": [
        -0.8500397205352783,
        -0.9076455235481262,
        0.7369455695152283,
        -0.6717199683189392,
        -0.49328505992889404,
        0.8285351395606995,
        0.3288048803806305,
        -0.1856040507555008,
        -1.637644648551941,
        0.13137371838092804,
        0.23582597076892853,
        -1.310886263847351,
        -0.7710195779800415,
        -0.4597699046134949,
        0.272722452878952,
        -0.6673794984817505,
        -0.11842655390501022,
        0.1271199733018875,
        -0.8222299218177795,
        -1.1628477573394775,
        -0.8387857675552368,
        -0.6044526696205139,
        0.4317740499973297,
        -0.04274634271860123,
        0.8195566534996033,
        -1.6455543041229248,
        0.18126700818538666,
        -1.1335901021957397,
        0.5177832245826721,
        0.031471751630306244,
        0.255516916513443,
        -0.7939777970314026,
        -0.5808024406433105,
        0.7505624890327454,
        -0.4487518072128296,
        -0.08341618627309799,
        0.6746917963027954,
        -1.1978679895401,
        0.06835091859102249,
        -0.47186172008514404,
        -1.5364201068878174,
        0.7937485575675964,
        -0.34639880061149597,
        0.4847991168498993,
        0.5011481046676636,
        -0.08701113611459732,
        0.09385461360216141,
        0.6477699875831604,
        0.45713984966278076,
        -1.2505006790161133,
        -0.7781357765197754,
        -0.019513776525855064,
        -0.18340866267681122,
        -1.0591299533843994,
        -0.014892718754708767,
        -1.0561987161636353,
        1.3228808641433716,
        0.7275372743606567,
        -0.2045210599899292,
        0.7626724243164062,
        -0.1215091198682785,
        -0.3583955764770508,
        -0.02024160884320736,
        0.10747291147708893,
        0.205191507935524,
        0.3634697496891022,
        0.5924690961837769,
        0.07858128100633621,
        0.16072356700897217,
        0.41553303599357605,
        -0.13639308512210846,
        0.41928449273109436
      ],
      "kernelShape": [
        3,
        3,
        1,
        8
      ],
      "bias": [
        1.5272895097732544,
        0.7161497473716736,
        0.2228781133890152,
        1.641986608505249,
        0.41183456778526306,
        1.5625311136245728,
        -0.039820898324251175,
        1.0678921937942505
      ],
      "outShape": [
        1,
        26,
        26,
        8
      ]
    },
    {
      "type": "pool",
      "windowH": 2,
      "windowW": 2,
      "strideH": 2,
      "strideW": 2,
      "outShape": [
        1,
        13,
        13,
        8
      ],
      "channels": 8
    },
    {
      "type": "conv2d",
      "strideH": 1,
      "strideW": 1,
      "padTop": 0,
      "padBottom": 0,
      "padLeft": 0,
      "padRight": 0,
      "activation": "leakyRelu",
      "kernel": [
        0.48969486355781555,
        -0.5846636891365051,
        0.13108950853347778,
        -0.09321440011262894,
        0.09957292675971985,
        -0.303485631942749,
        0.2773963212966919,
        -0.47734278440475464,
        0.10082132369279861,
        -0.3418191075325012,
        -0.2643675208091736,
        -0.08589152991771698,
        0.07477591931819916,
        0.4505791962146759,
        -0.20031705498695374,
        -0.03267410397529602,
        0.0367867536842823,
        0.7287492156028748,
        0.052473265677690506,
        0.08633574098348618,
        -0.23932872712612152,
        -0.12412858009338379,
        -0.5598123669624329,
        -0.07434272766113281,
        0.13992799818515778,
        0.05278019234538078,
        -0.0621756836771965,
        0.14482824504375458,
        -0.09551947563886642,
        0.01366005465388298,
        -0.18475723266601562,
        0.47596561908721924,
        -0.0014025382697582245,
        -0.07642846554517746,
        0.07099258154630661,
        0.31184497475624084,
        -0.10633847862482071,
        -0.09286396205425262,
        -0.0792989656329155,
        -0.17907597124576569,
        0.009642861783504486,
        -0.07428576052188873,
        -0.09413215517997742,
        0.04312711954116821,
        -0.06541071087121964,
        0.13913516700267792,
        0.11615106463432312,
        -0.014962147921323776,
        0.21729712188243866,
        -0.0419963002204895,
        -0.05746614187955856,
        0.3573306202888489,
        -0.05800113454461098,
        -0.3357119858264923,
        -0.10086400806903839,
        -0.2652590572834015,
        0.1770070344209671,
        -0.06685629487037659,
        -0.061310648918151855,
        0.006952137220650911,
        -0.15132656693458557,
        0.028950661420822144,
        -0.02259807288646698,
        0.39544111490249634,
        0.18274740874767303,
        -0.1544540524482727,
        -0.0012019278947263956,
        -0.04148820787668228,
        0.06572343409061432,
        -0.05599210038781166,
        -0.011669072322547436,
        -0.1778678447008133,
        0.1475013792514801,
        -0.014166245236992836,
        -0.02436589077115059,
        0.030103040859103203,
        0.06917133927345276,
        0.07232747972011566,
        0.002492703730240464,
        0.07558692246675491,
        0.03699579834938049,
        -0.027379576116800308,
        0.1442037969827652,
        0.5573201775550842,
        -0.37625038623809814,
        -0.3532889187335968,
        0.11917814612388611,
        0.04914887621998787,
        0.11666859686374664,
        -0.13708887994289398,
        -0.020616820082068443,
        0.0506388284265995,
        -0.4414069950580597,
        0.242743119597435,
        0.03853441774845123,
        0.1796424388885498,
        0.06471524387598038,
        -0.09059439599514008,
        -0.09337994456291199,
        -0.1876029521226883,
        -0.07628690451383591,
        0.046050574630498886,
        -0.182846337556839,
        -0.1317661553621292,
        -0.1295153647661209,
        -0.06770619004964828,
        -0.06217021495103836,
        -0.023331081494688988,
        -0.11509598046541214,
        -0.1401037722826004,
        0.005152970086783171,
        -0.09960078448057175,
        0.0582953616976738,
        0.35588353872299194,
        -0.0229363813996315,
        0.21508853137493134,
        -0.22092507779598236,
        -0.25874456763267517,
        -0.08673399686813354,
        -0.10500466078519821,
        -0.0193772055208683,
        -0.12210720032453537,
        -0.06608620285987854,
        0.01983802765607834,
        -0.144330695271492,
        0.13611756265163422,
        -0.037079233676195145,
        0.36435678601264954,
        0.19014553725719452,
        0.11833582073450089,
        0.0010276715038344264,
        -0.04621436074376106,
        0.027361588552594185,
        -0.3281875252723694,
        -0.11107730865478516,
        -0.5905032157897949,
        -0.09626735746860504,
        -0.21891114115715027,
        -0.4016227722167969,
        0.03425465524196625,
        -0.2910716235637665,
        -0.0871158316731453,
        0.42759332060813904,
        -0.14390653371810913,
        0.09419235587120056,
        -0.2015894055366516,
        0.001374608837068081,
        0.08174130320549011,
        -0.3381929099559784,
        -0.24644429981708527,
        -0.08290117979049683,
        0.6476051211357117,
        0.1982455551624298,
        -0.3054599165916443,
        -0.146757572889328,
        0.1416694074869156,
        -0.4112728238105774,
        0.3527217507362366,
        0.09762603789567947,
        -0.06348156929016113,
        -0.03351398557424545,
        -0.18795934319496155,
        -0.08808339387178421,
        0.17956054210662842,
        -0.0030586400534957647,
        0.05135525390505791,
        -0.053814176470041275,
        0.0389397032558918,
        -0.12792469561100006,
        -0.005050035659223795,
        -0.05460219085216522,
        0.024420686066150665,
        0.3494689464569092,
        0.044564396142959595,
        0.11811130493879318,
        -0.07700604945421219,
        0.3081812858581543,
        -0.23467251658439636,
        -0.0416056364774704,
        0.5294010639190674,
        -0.1828397959470749,
        -0.36380600929260254,
        -0.37322667241096497,
        0.08814326673746109,
        0.3927583396434784,
        -0.1277528554201126,
        -0.33813953399658203,
        0.11989167332649231,
        -0.24116814136505127,
        0.1307004988193512,
        0.25769686698913574,
        0.049350887537002563,
        0.07003000378608704,
        -0.0248066745698452,
        -0.047424379736185074,
        -0.05560886859893799,
        0.06591536849737167,
        -0.10009929537773132,
        0.04828988388180733,
        -0.23192252218723297,
        0.24897000193595886,
        0.023285334929823875,
        -0.1155945286154747,
        0.11211977154016495,
        -0.09376026690006256,
        -0.025226492434740067,
        0.05814436078071594,
        0.11239932477474213,
        -0.08555774390697479,
        -0.07884695380926132,
        -0.27396172285079956,
        0.2503587007522583,
        -0.38544946908950806,
        -0.07911501079797745,
        -0.008729127235710621,
        0.2881384491920471,
        0.018909407779574394,
        -0.17262926697731018,
        -0.23817865550518036,
        -0.0376867949962616,
        0.34241989254951477,
        0.044239483773708344,
        0.21009480953216553,
        -0.05874474346637726,
        0.08776228874921799,
        -0.10525770485401154,
        -0.05435950681567192,
        -0.2678755819797516,
        0.0008947726455517113,
        0.08645237237215042,
        -0.11529054492712021,
        -0.10781259089708328,
        -0.05902384966611862,
        0.057090114802122116,
        -0.04184655472636223,
        -0.10027769207954407,
        -0.0798085555434227,
        -0.02233894355595112,
        -0.07669740170240402,
        -0.04869292303919792,
        -0.00024534459225833416,
        -0.20803318917751312,
        -0.0780559554696083,
        0.2774251699447632,
        -0.1636575609445572,
        -0.2881315350532532,
        -0.048532698303461075,
        0.44756919145584106,
        0.27162644267082214,
        -0.209574893116951,
        -0.1307947039604187,
        -0.10896123200654984,
        -0.12122205644845963,
        0.20272144675254822,
        0.12322548776865005,
        -0.02890651673078537,
        -0.15816645324230194,
        0.18901821970939636,
        -0.053220782428979874,
        -0.29224103689193726,
        -0.006423857994377613,
        -0.3150573670864105,
        -0.03043721430003643,
        -0.3223974406719208,
        0.39646685123443604,
        -0.044123437255620956,
        -0.3075045943260193,
        0.1523907482624054,
        -0.09341994673013687,
        -0.3898654580116272,
        0.16653013229370117,
        -0.2402724176645279,
        -0.035683415830135345,
        0.4601309895515442,
        -0.2665330171585083,
        -0.13266988098621368,
        -0.13076193630695343,
        -0.15776272118091583,
        -0.0073879072442650795,
        0.09225644171237946,
        -0.22035592794418335,
        -0.30315789580345154,
        -0.3541314899921417,
        -0.1477663815021515,
        0.3820769786834717,
        -0.2342880368232727,
        0.3066823482513428,
        -0.004442357923835516,
        -0.10090085864067078,
        -0.03753542900085449,
        -0.13479793071746826,
        -0.04740303009748459,
        -0.04611443355679512,
        0.18422697484493256,
        0.08412279933691025,
        0.01174909994006157,
        -0.06639442592859268,
        -0.08228065818548203,
        -0.09980812668800354,
        -0.0159290861338377,
        0.2479977160692215,
        -0.12923799455165863,
        0.06577789783477783,
        -0.0566229373216629,
        0.09886262565851212,
        -0.11891435831785202,
        -0.4872349202632904,
        0.16090518236160278,
        -0.3793468773365021,
        -0.12382133305072784,
        -0.2496916651725769,
        -0.11614345014095306,
        0.484531044960022,
        -0.07444978505373001,
        -0.2203456312417984,
        0.1366017609834671,
        0.21590331196784973,
        -0.3813370168209076,
        0.5467734932899475,
        -0.04813280329108238,
        0.056615449488162994,
        -0.039715614169836044,
        -0.1106940433382988,
        0.10009513795375824,
        -0.041367001831531525,
        -0.09888579696416855,
        0.032829999923706055,
        -0.21464890241622925,
        0.49409928917884827,
        -0.009853103198111057,
        -0.009422444738447666,
        0.18215301632881165,
        -0.06479279696941376,
        -0.17538927495479584,
        0.07131413370370865,
        0.05438604578375816,
        -0.18475238978862762,
        -0.0692020133137703,
        -0.34083664417266846,
        -0.05073706805706024,
        -0.12620699405670166,
        0.19291266798973083,
        -0.09772390872240067,
        -0.06004224345088005,
        -0.07726289331912994,
        -0.10293194651603699,
        -0.32034415006637573,
        -0.10375278443098068,
        0.37907329201698303,
        -0.22926925122737885,
        0.16160999238491058,
        -0.19396452605724335,
        0.05828981101512909,
        -0.06428701430559158,
        -0.062103550881147385,
        -0.2921108901500702,
        -0.01087268814444542,
        0.036535605788230896,
        -0.13845166563987732,
        -0.05485493317246437,
        -0.03525746241211891,
        -0.037904564291238785,
        0.01292229164391756,
        -0.1139603778719902,
        -0.13846512138843536,
        -0.0665343776345253,
        -0.05344763398170471,
        0.023270966485142708,
        -0.09766443073749542,
        0.17932336032390594,
        -0.36828482151031494,
        0.12356061488389969,
        -0.24727293848991394,
        -0.08770047873258591,
        -0.08585049957036972,
        0.0532078854739666,
        -0.04872111976146698,
        -0.17810773849487305,
        -0.23947294056415558,
        -0.13296730816364288,
        0.2931130528450012,
        -0.27507174015045166,
        0.19410653412342072,
        -0.03815331682562828,
        -0.12744328379631042,
        -0.3637036979198456,
        0.03150263428688049,
        -0.09959878772497177,
        -0.553871750831604,
        0.22464242577552795,
        0.4935004711151123,
        -0.3102509677410126,
        -0.003730467986315489,
        -0.17296282947063446,
        0.34048357605934143,
        -0.3323253095149994,
        -0.5623123645782471,
        0.39014193415641785,
        0.21817384660243988,
        0.014329255558550358,
        -0.1998186707496643,
        0.7620187401771545,
        0.07769801467657089,
        0.04891958460211754,
        -0.44163697957992554,
        -0.1130465492606163,
        -0.12376995384693146,
        0.06738430261611938,
        -0.15146221220493317,
        0.1481654942035675,
        -0.14832709729671478,
        -0.038478489965200424,
        -0.12877239286899567,
        -0.17521725594997406,
        -0.12514880299568176,
        0.38784974813461304,
        0.019104287028312683,
        -0.0050555565394461155,
        0.031886953860521317,
        0.08009190112352371,
        -0.07167620211839676,
        0.08623462170362473,
        0.10134037584066391,
        0.031232744455337524,
        -0.025096220895648003,
        -0.08528358489274979,
        0.12870772182941437,
        -0.04194393754005432,
        0.23884989321231842,
        -0.038623541593551636,
        0.05161941796541214,
        -0.11234234273433685,
        0.034282930195331573,
        -0.21473775804042816,
        0.0833791047334671,
        0.0950908362865448,
        -0.4247618317604065,
        0.22906379401683807,
        0.06308181583881378,
        -0.17021915316581726,
        -0.19073553383350372,
        -0.025013580918312073,
        0.13520179688930511,
        -0.3265773355960846,
        -0.2497994750738144,
        0.1630983054637909,
        0.24821119010448456,
        0.18890336155891418,
        0.09008505195379257,
        -0.2319697141647339,
        0.14825402200222015,
        -0.17470547556877136,
        -0.029334373772144318,
        0.20477072894573212,
        0.17931361496448517,
        -0.217108815908432,
        -0.1396528035402298,
        -0.12377915531396866,
        0.09282036870718002,
        -0.15826202929019928,
        -0.0677647814154625,
        0.24581293761730194,
        0.18599355220794678,
        0.06880471855401993,
        -0.22880850732326508,
        -0.05558205395936966,
        -0.19731424748897552,
        0.22968360781669617,
        -0.4361218214035034,
        0.13378934562206268,
        0.13246841728687286,
        0.28559601306915283,
        0.14810411632061005,
        -0.044428251683712006,
        0.1990566849708557,
        0.048980023711919785,
        -0.011569365859031677,
        -0.23737910389900208,
        -0.026971397921442986,
        0.15139669179916382,
        0.09814716875553131,
        -0.13163462281227112,
        -0.08402150869369507,
        -0.17178486287593842,
        -0.03022514283657074,
        0.016970844939351082,
        -0.1289038360118866,
        -0.030342161655426025,
        -0.15884698927402496,
        0.029357366263866425,
        -0.07732635736465454,
        -0.08581968396902084,
        -0.09519898891448975,
        -0.03926175832748413,
        -0.07642795145511627,
        -0.12104210257530212,
        -0.20236635208129883,
        0.212907075881958,
        -0.03523816540837288,
        0.2690717279911041,
        -0.39875125885009766,
        -0.07456962019205093,
        0.11525844037532806,
        0.09297565370798111,
        -0.08197479695081711,
        0.004723059944808483,
        0.00849172007292509,
        -0.08921385556459427,
        0.02308402583003044,
        -0.09724699705839157,
        -0.1731111705303192,
        0.24902555346488953,
        -0.2712268531322479,
        0.0868121087551117,
        -0.007971984334290028,
        -0.05886269360780716,
        -0.24666482210159302,
        0.5657312273979187,
        0.9676790833473206,
        -0.42322278022766113,
        -0.23096036911010742,
        0.10757873207330704,
        0.13600610196590424,
        -0.17230045795440674,
        -0.07584871351718903,
        0.32231447100639343,
        0.03494487702846527,
        -0.0608464814722538,
        -0.34463298320770264,
        -0.08988190442323685,
        -0.11657913029193878,
        -0.07973536103963852,
        -0.46818289160728455,
        0.15872077643871307,
        -0.21753355860710144,
        0.6893389225006104,
        -0.014478063210844994,
        -0.21718426048755646,
        0.05849221721291542,
        -0.2034822553396225,
        0.4459715187549591,
        -0.4290282726287842,
        -0.17965923249721527,
        -0.27255484461784363,
        0.007336750160902739,
        -0.040533293038606644,
        0.09082279354333878,
        0.03874215483665466,
        0.2620506286621094,
        0.019493574276566505,
        -0.04718126356601715,
        -0.1228780746459961,
        -0.12382464855909348,
        0.0449024923145771,
        -0.12467699497938156,
        -0.10057362914085388,
        0.46843481063842773,
        -0.05051586031913757,
        -0.0006815334782004356,
        -0.15591812133789062,
        -0.12896545231342316,
        -0.12997928261756897,
        -0.18787968158721924,
        0.4280480444431305,
        -0.08190516382455826,
        0.6423101425170898,
        -0.10640563070774078,
        0.03630395606160164,
        -0.017249062657356262,
        0.19266872107982635,
        -0.05399142950773239,
        -0.2911991775035858,
        0.2805251479148865,
        -0.18026459217071533,
        0.2820909023284912,
        -0.1690012663602829,
        0.021519677713513374,
        -0.208133727312088,
        -0.026175271719694138,
        0.1253768801689148,
        -0.05171923711895943,
        0.28627434372901917,
        0.2536441385746002,
        -0.1714305877685547,
        -0.15359985828399658,
        0.005820471793413162,
        -0.02025454118847847,
        0.053035710006952286,
        -0.05038172006607056,
        0.10870522260665894,
        0.1274472326040268,
        -0.021849235519766808,
        -0.20822782814502716,
        -0.10966698080301285,
        -0.12740597128868103,
        0.2117598056793213,
        0.1758391112089157,
        0.06809362769126892,
        0.049854375422000885,
        0.25731196999549866,
        0.31764909625053406,
        -0.016166800633072853,
        -0.04336636886000633,
        -0.07217583060264587,
        0.7530962228775024,
        -0.30187708139419556,
        -0.11749711632728577,
        -0.22152921557426453,
        0.03117433935403824,
        -0.12048085778951645,
        -0.06591078639030457,
        -0.23807212710380554,
        0.05965634062886238,
        -0.10336665064096451,
        -0.13175441324710846,
        -0.09958308935165405,
        -0.2298145443201065,
        0.02974908985197544,
        -0.0607757493853569,
        -0.11394406855106354,
        -0.09609679877758026,
        0.0135038448497653,
        0.03148728981614113,
        -0.09155118465423584,
        -0.2844904065132141,
        -0.17737658321857452,
        -0.14420312643051147,
        0.19368746876716614,
        -0.16256225109100342,
        0.05001893267035484,
        -0.03711894527077675,
        0.3951963484287262,
        0.17816968262195587,
        -0.026033973321318626,
        0.03789934143424034,
        -0.22076715528964996,
        0.47936758399009705,
        -0.28990986943244934,
        -0.16675826907157898,
        -0.19208785891532898,
        -0.5800800323486328,
        0.44911128282546997,
        -0.02798384800553322,
        0.1864435374736786,
        0.025073083117604256,
        0.3110525608062744,
        0.18473391234874725,
        -0.3618159890174866,
        -0.1664966642856598,
        0.17509497702121735,
        -0.5093777179718018,
        -0.278523713350296,
        -0.13293078541755676,
        -0.26778578758239746,
        -0.18961164355278015,
        -0.5253569483757019,
        -0.33968377113342285,
        0.27454206347465515,
        0.08293422311544418,
        -0.012608028948307037,
        0.027129709720611572,
        0.23223260045051575,
        0.05557812377810478,
        -0.1550140678882599,
        0.039960455149412155,
        -0.1637890785932541,
        0.04144458845257759,
        -0.377968966960907,
        0.06906986236572266,
        -0.227268248796463,
        -0.33916568756103516,
        -0.17501597106456757,
        -0.04489637538790703,
        -0.020637106150388718,
        0.09847257286310196,
        0.04055272415280342,
        0.19551952183246613,
        -0.02171906642615795,
        0.041751712560653687,
        -0.03810785710811615,
        -0.16022264957427979,
        -0.08026999235153198,
        -0.11568620055913925,
        -0.14509806036949158,
        -0.03241509199142456,
        -0.1350823938846588,
        -0.007605120539665222,
        -0.0921940803527832,
        -0.18925358355045319,
        -0.03715310990810394,
        -0.03751601278781891,
        0.3206661641597748,
        0.20163516700267792,
        0.6839543581008911,
        -0.46424853801727295,
        -0.41535958647727966,
        0.11391951888799667,
        0.2801456153392792,
        -0.4120393395423889,
        -0.5687493085861206,
        -0.07355239987373352,
        -0.31699123978614807,
        -0.05959220975637436,
        -0.35021767020225525,
        -0.07101535052061081,
        -0.0028320690616965294,
        -0.12818709015846252,
        0.051531825214624405,
        -0.08892060071229935,
        0.2883013188838959,
        0.04508042335510254,
        -0.13101434707641602,
        -0.017399488016963005,
        0.06785719841718674,
        -0.10995705425739288,
        -0.04842224717140198,
        -0.16016696393489838,
        -0.12518593668937683,
        -0.01804836094379425,
        -0.24689744412899017,
        -0.23035524785518646,
        0.10175393521785736,
        0.25991514325141907,
        0.08960919827222824,
        0.24874860048294067,
        0.004392396658658981,
        -0.10907111316919327,
        -0.10104413330554962,
        0.0452398844063282,
        -0.05541076138615608,
        -0.2069932222366333,
        -0.29059502482414246,
        -0.2461860030889511,
        -0.31754401326179504,
        -0.23694613575935364,
        -0.30679595470428467,
        0.13990575075149536,
        -0.09221228957176208,
        0.0005555553361773491,
        -0.07203042507171631,
        0.015250562690198421,
        0.0002511467318981886,
        -0.12534360587596893,
        -0.06775501370429993,
        -0.15300603210926056,
        0.017397869378328323,
        0.018829461187124252,
        -0.03592691570520401,
        -0.06002362072467804,
        -0.012565606273710728,
        0.0030345446430146694,
        -0.07944615185260773,
        -0.2100631296634674,
        0.021343646571040154,
        0.1552182286977768,
        0.11073635518550873,
        0.07883673161268234,
        0.08121109008789062,
        -0.01777130365371704,
        -0.16574780642986298,
        0.07108128815889359,
        -0.1050204336643219,
        -0.09384113550186157,
        -0.3688749670982361,
        -0.011904935352504253,
        -0.21136946976184845,
        -0.27325600385665894,
        -0.15325157344341278,
        -0.12828606367111206,
        -0.15678802132606506,
        -0.46608680486679077,
        -0.21465907990932465,
        -0.13847094774246216,
        0.11251242458820343,
        -0.031485918909311295,
        -0.20590342581272125,
        -0.004011085256934166,
        -0.13010039925575256,
        0.4460989236831665,
        0.17150846123695374,
        -0.21566221117973328,
        -0.4785498380661011,
        -0.31829071044921875,
        0.11558033525943756,
        -0.42710357904434204,
        0.3164043128490448,
        0.009043654426932335,
        0.16602177917957306,
        -0.1910398304462433,
        0.04891836270689964,
        -0.05878014862537384,
        0.20125433802604675,
        0.029505297541618347,
        0.5460535287857056,
        0.029893437400460243,
        0.08959539234638214,
        0.11965355277061462,
        -0.30720293521881104,
        -0.253686785697937,
        0.48324382305145264,
        0.05406684800982475,
        -0.15260566771030426,
        0.27872252464294434,
        -0.06179434806108475,
        0.07349889725446701,
        -0.11033589392900467,
        0.11420349776744843,
        0.06372310221195221,
        0.08578788489103317,
        -0.05098525807261467,
        0.12557928264141083,
        0.19796915352344513,
        0.3709509074687958,
        -0.08400904387235641,
        0.0009399846894666553,
        -0.13360434770584106,
        -0.020467087626457214,
        0.010810659267008305,
        -0.11944509297609329,
        -0.013098569586873055,
        0.00625967001542449,
        0.26319363713264465,
        -0.2272997945547104,
        -0.2119731456041336,
        -0.004962165839970112,
        0.20972417294979095,
        0.19986014068126678,
        0.5704365968704224,
        -0.00492725009098649,
        -0.15946745872497559,
        -0.18413393199443817,
        0.2852058708667755,
        -0.0845712423324585,
        -0.10705505311489105,
        -0.1285908818244934,
        -0.3448118269443512,
        0.0588281974196434,
        0.22225603461265564,
        -0.023404540494084358,
        -0.09602996706962585,
        -0.07720498740673065,
        0.06355392187833786,
        0.10665332525968552,
        0.2769412100315094,
        -0.12409886717796326,
        -0.10519154369831085,
        0.016526058316230774,
        -0.12574169039726257,
        -0.014480016194283962,
        -0.02323695831000805,
        0.5268554091453552,
        -0.13931745290756226,
        0.19822563230991364,
        -0.28669941425323486,
        0.0011676448630169034,
        0.26920220255851746,
        0.12663285434246063,
        0.06834195554256439,
        0.1728241741657257,
        0.3414471745491028,
        0.47978290915489197,
        -0.2663789689540863,
        -0.08869515359401703,
        0.24109211564064026,
        0.10226023197174072,
        -0.10113614797592163,
        0.09186743199825287,
        -0.1252313107252121,
        0.09028558433055878,
        -0.03033456951379776,
        -0.1280675083398819,
        -0.07303313165903091,
        -0.1540263444185257,
        -0.038320768624544144,
        -0.12260068953037262,
        -0.08738720417022705,
        0.0003640187787823379,
        0.008456588722765446,
        -0.026878098025918007,
        -0.10095157474279404,
        -0.1311156153678894,
        0.19101852178573608,
        0.024838019162416458,
        0.12189195305109024,
        -0.20091983675956726,
        -0.1151140108704567,
        0.016743019223213196,
        0.012771067209541798,
        0.04227767139673233,
        0.2810727059841156,
        0.033689554780721664,
        0.1557902693748474,
        0.3982710838317871,
        -0.18477341532707214,
        -0.2201414704322815,
        0.36952152848243713,
        -0.23178742825984955,
        0.14680436253547668,
        -0.4456149637699127,
        -0.046406690031290054,
        -0.08988481014966965,
        -0.24294957518577576,
        0.5981823205947876,
        -0.16240550577640533,
        -0.03941897302865982,
        -0.14151549339294434,
        0.7539035677909851,
        0.6960145831108093,
        0.29944583773612976,
        -0.10122528672218323,
        -0.45787084102630615,
        0.05097982659935951,
        -0.31828856468200684,
        -0.057762499898672104,
        0.25373536348342896,
        0.24723725020885468,
        0.3777467608451843,
        -0.24497470259666443,
        -0.07313045114278793,
        0.4233115613460541,
        0.09121125191450119,
        -0.14902226626873016,
        -0.04864761233329773,
        -0.04843281954526901,
        0.11539246886968613,
        -0.2321431040763855,
        -0.34824129939079285,
        -0.07714497298002243,
        0.07373486459255219,
        0.059112798422575,
        0.5578138828277588,
        -0.019606813788414,
        0.424920916557312,
        -0.07206086814403534,
        0.28886184096336365,
        -0.10781711339950562,
        -0.24254804849624634,
        -0.03371254354715347,
        -0.029588712379336357,
        -0.13850001990795135,
        0.13787679374217987,
        0.21601451933383942,
        -0.015351266600191593,
        -0.13264676928520203,
        -0.07118862122297287,
        -0.2021910548210144,
        0.19908280670642853,
        -0.013414867222309113,
        0.5523356795310974,
        -0.08009714633226395,
        -0.26107898354530334,
        -0.2397090047597885,
        -0.02478078007698059,
        -0.017887553200125694,
        0.32624131441116333,
        0.8621402978897095,
        -0.10271696001291275,
        -0.017821693792939186,
        -0.2440217137336731,
        -0.13866059482097626,
        -0.0014423414831981063,
        0.05985306203365326,
        -0.15001243352890015,
        -0.04067085683345795,
        0.010023831389844418,
        0.1300162523984909,
        0.21205878257751465,
        -0.28788959980010986,
        0.09807697683572769,
        0.1285077929496765,
        -0.007657747250050306,
        0.6126490831375122,
        0.03805260732769966,
        0.15335288643836975,
        -0.07066109776496887,
        -0.04529480263590813,
        0.08235521614551544,
        -0.04056495428085327,
        0.8708059787750244,
        -0.05034608393907547,
        0.6735697984695435,
        -0.3063722550868988,
        0.14131693542003632,
        -0.1017698347568512,
        -0.00009474137186771259,
        -0.09313558042049408,
        0.18746036291122437,
        0.020060231909155846,
        -0.280653178691864,
        0.27243009209632874,
        -0.13320046663284302,
        -0.10325414687395096,
        0.0751868262887001,
        0.05677491053938866,
        -0.017786754295229912,
        -0.07178745418787003,
        -0.004429742693901062,
        0.015230411663651466,
        -0.20606476068496704,
        -0.04131200537085533,
        -0.21690022945404053,
        -0.011865357868373394,
        -0.11359282582998276,
        -0.15522214770317078,
        -0.04424506425857544,
        0.07058389484882355,
        -0.011014023795723915,
        -0.0901373028755188,
        -0.14267493784427643,
        -0.14687982201576233,
        0.37199583649635315,
        0.13967645168304443,
        0.3317113518714905,
        -0.23830600082874298,
        -0.0825505256652832,
        0.1351243108510971,
        0.1809864640235901,
        -0.11345996707677841,
        -0.00302144605666399,
        0.018873289227485657,
        -0.100908063352108,
        -0.07604046911001205,
        -0.15005257725715637,
        -0.10733131319284439,
        -0.07090435177087784,
        0.3251841366291046,
        -0.10496509820222855,
        -0.010507390834391117,
        0.07718728482723236,
        -0.38333582878112793,
        0.937652587890625,
        -0.007380024995654821,
        0.09039024263620377,
        -0.09814935177564621,
        -0.038626547902822495,
        0.5375052690505981,
        0.20143629610538483,
        0.4238647520542145,
        -0.426628053188324,
        -0.031242595985531807,
        -0.043292466551065445,
        0.25995561480522156,
        0.17900317907333374,
        0.010951080359518528,
        -0.020872505381703377,
        -0.13225334882736206,
        -0.24001477658748627,
        0.22339001297950745,
        0.0814763680100441,
        -0.04860169440507889,
        0.2842300832271576,
        -0.45738697052001953,
        -0.5274949669837952,
        -0.07876604795455933,
        -0.3699798882007599,
        -0.23232516646385193,
        0.0625852644443512,
        0.00037581243668682873,
        0.23817084729671478,
        0.20264381170272827,
        0.20848605036735535,
        0.03992565721273422,
        0.16467858850955963,
        0.025231800973415375,
        -0.02398751489818096,
        0.0015895981341600418,
        -0.07539224624633789,
        -0.11242805421352386,
        0.10796962678432465,
        0.16180245578289032,
        -0.02083110436797142,
        -0.04997779801487923,
        0.03499209135770798,
        -0.0014385643880814314,
        0.3393670916557312,
        0.16377995908260345,
        0.15373598039150238,
        -0.2000921666622162,
        -0.28830868005752563,
        -0.13335204124450684,
        0.24544790387153625,
        -0.044271424412727356,
        -0.1592302918434143,
        0.14820995926856995,
        -0.25561028718948364,
        0.18122297525405884,
        -0.14860129356384277,
        -0.22110968828201294,
        -0.04193780943751335,
        0.2750752866268158,
        -0.07345693558454514,
        0.12286542356014252,
        -0.012253930792212486,
        -0.08457786589860916,
        0.05668002739548683,
        -0.05477781221270561,
        0.2572036385536194,
        0.07977020740509033,
        -0.1327648162841797,
        0.32074490189552307,
        0.016918886452913284,
        0.1371045559644699,
        -0.01704389974474907,
        -0.06406650692224503,
        0.2986562252044678,
        -0.04177026078104973,
        0.5476446747779846,
        0.004156762734055519,
        0.2924880087375641,
        -0.15083815157413483,
        -0.021814977750182152,
        0.17613013088703156,
        0.13655270636081696,
        0.1413891464471817,
        0.06187275052070618,
        0.004908884409815073,
        -0.22493644058704376,
        0.1872449517250061,
        -0.13373199105262756,
        -0.047571178525686264,
        0.1234109178185463,
        -0.05498717352747917,
        -0.0808912143111229,
        -0.04403204843401909,
        -0.03987618163228035,
        -0.003229242516681552,
        -0.04285268113017082,
        -0.06654365360736847,
        -0.12955313920974731,
        0.014668531715869904,
        0.009837218560278416,
        -0.1341552436351776,
        -0.06565383821725845,
        -0.07917187362909317,
        0.06031200289726257,
        -0.0021600816398859024,
        -0.07571310549974442,
        -0.005983106326311827,
        0.25411805510520935,
        0.13203713297843933,
        0.0948733389377594,
        -0.18830734491348267,
        -0.24849958717823029,
        0.1602872610092163,
        0.21786561608314514,
        -0.052782174199819565,
        0.0979347974061966,
        -0.27403023838996887,
        -0.29473719000816345,
        0.02064405381679535,
        -0.11105147749185562,
        -0.24835620820522308
      ],
      "kernelShape": [
        3,
        3,
        8,
        16
      ],
      "bias": [
        0.6987732648849487,
        -0.27435675263404846,
        -0.03150317445397377,
        -0.8401830792427063,
        -0.07573643326759338,
        -0.14919786155223846,
        -0.14239808917045593,
        0.46491071581840515,
        -0.5062107443809509,
        0.3615671694278717,
        0.02142750658094883,
        -0.3494426906108856,
        -0.31861111521720886,
        0.2716130018234253,
        0.3474540710449219,
        0.26884451508522034
      ],
      "outShape": [
        1,
        11,
        11,
        16
      ]
    },
    {
      "type": "pool",
      "windowH": 2,
      "windowW": 2,
      "strideH": 2,
      "strideW": 2,
      "outShape": [
        1,
        5,
        5,
        16
      ],
      "channels": 16
    },
    {
      "type": "flatten",
      "size": 400
    },
    {
      "type": "dense",
      "inputSize": 400,
      "outputSize": 64,
      "activation": "leakyRelu",
      "weights": [
        -0.040420543402433395,
        0.035746507346630096,
        -0.1621578186750412,
        -0.05603650212287903,
        -0.123919278383255,
        0.0028806286863982677,
        -0.04279302433133125,
        -0.05782772973179817,
        -0.1540282666683197,
        0.038718726485967636,
        0.051361195743083954,
        -0.032434675842523575,
        -0.10256722569465637,
        0.007508867885917425,
        -0.04527267441153526,
        0.052989810705184937,
        -0.0989585593342781,
        -0.07221339643001556,
        -0.06274553388357162,
        -0.14917120337486267,
        0.06984475255012512,
        0.11137477308511734,
        -0.17621000111103058,
        -0.01746528595685959,
        0.03894785791635513,
        0.0037494886200875044,
        0.02885979413986206,
        0.0927441269159317,
        0.06679973751306534,
        -0.060325320810079575,
        -0.030588088557124138,
        0.08930587768554688,
        -0.06370729953050613,
        -0.011397208087146282,
        -0.06401126086711884,
        0.0763578861951828,
        0.07231862097978592,
        0.03431778401136398,
        0.08697418123483658,
        -0.13555395603179932,
        0.20503143966197968,
        -0.07242613285779953,
        -0.13147954642772675,
        0.1521943062543869,
        -0.038838353008031845,
        -0.026420388370752335,
        -0.10545597970485687,
        -0.05295875668525696,
        -0.03242963179945946,
        0.07573682814836502,
        0.043739963322877884,
        0.1752740889787674,
        0.007681375835090876,
        0.14349640905857086,
        0.03783290833234787,
        0.04120544344186783,
        0.07795213907957077,
        0.015817418694496155,
        -0.027115290984511375,
        0.06961160153150558,
        0.09759693592786789,
        -0.06857490539550781,
        -0.01736348494887352,
        -0.003586621955037117,
        -0.03613023832440376,
        0.10450371354818344,
        0.04618600010871887,
        0.05842377617955208,
        -0.11246892809867859,
        -0.012113823555409908,
        -0.03559577837586403,
        0.1152726486325264,
        -0.04772341623902321,
        0.043239839375019073,
        0.09002656489610672,
        0.04420137405395508,
        -0.04359464347362518,
        -0.0393359400331974,
        -0.06774076074361801,
        0.04524761810898781,
        -0.06247764080762863,
        -0.005686983000487089,
        0.005878190975636244,
        -0.29729217290878296,
        -0.02301029860973358,
        -0.05970168113708496,
        -0.13542801141738892,
        -0.10085106641054153,
        -0.14517773687839508,
        -0.029737062752246857,
        -0.01652183197438717,
        -0.011342321522533894,
        -0.05694316327571869,
        0.026276547461748123,
        -0.08885996788740158,
        -0.0020521555561572313,
        -0.11526580154895782,
        -0.04615216702222824,
        -0.11405687034130096,
        -0.1337195336818695,
        -0.10474956780672073,
        0.08598234504461288,
        -0.043613117188215256,
        -0.01971808820962906,
        -0.10637027770280838,
        0.04936572164297104,
        -0.005235515534877777,
        -0.11292988806962967,
        0.007815112359821796,
        0.02272454835474491,
        -0.029021354392170906,
        0.10088182985782623,
        -0.06233465299010277,
        -0.024653682485222816,
        -0.04769895225763321,
        0.0262388214468956,
        0.05134457349777222,
        0.10311659425497055,
        0.08289840817451477,
        -0.17624251544475555,
        0.06678977608680725,
        -0.006070239003747702,
        0.053964320570230484,
        0.05890616029500961,
        0.010165167041122913,
        -0.07783592492341995,
        0.01862073875963688,
        -0.06690619140863419,
        -0.03420589491724968,
        0.07716085761785507,
        0.031264957040548325,
        0.048174839466810226,
        0.02715681493282318,
        0.03014688938856125,
        0.18929794430732727,
        -0.07203619182109833,
        0.08962934464216232,
        -0.09946736693382263,
        0.18385595083236694,
        0.09018271416425705,
        0.05397460237145424,
        -0.10168953239917755,
        0.04797057434916496,
        -0.04935065284371376,
        -0.07655370980501175,
        0.04620715603232384,
        0.05637389421463013,
        0.10668923705816269,
        0.07890408486127853,
        -0.06488136202096939,
        -0.04950398579239845,
        0.13084374368190765,
        0.07187410444021225,
        -0.027378438040614128,
        0.05042426288127899,
        0.04578843712806702,
        0.16841207444667816,
        -0.09258562326431274,
        -0.10518278181552887,
        0.07980222254991531,
        0.02044934220612049,
        -0.04095950722694397,
        -0.040444936603307724,
        -0.1076127365231514,
        0.008048261515796185,
        0.07395407557487488,
        -0.15071728825569153,
        0.02330058626830578,
        -0.14274516701698303,
        -0.041462235152721405,
        0.0013106126571074128,
        -0.03994656726717949,
        0.10960769653320312,
        0.06660846620798111,
        -0.09184646606445312,
        -0.01087064016610384,
        -0.0786391943693161,
        0.17789919674396515,
        -0.024024900048971176,
        -0.1709311604499817,
        -0.04642905667424202,
        -0.08746322244405746,
        -0.017247522249817848,
        0.009073328226804733,
        -0.14521928131580353,
        -0.040693819522857666,
        0.08172459900379181,
        -0.04509454593062401,
        -0.03416196256875992,
        0.004881223663687706,
        -0.0851188600063324,
        0.096019446849823,
        -0.028894662857055664,
        -0.02819579653441906,
        -0.014887621626257896,
        0.05236482992768288,
        0.006744514685124159,
        0.09259457141160965,
        0.180302232503891,
        -0.09762118756771088,
        -0.009196407161653042,
        -0.05896880850195885,
        0.03555840253829956,
        0.04788738116621971,
        0.04694879800081253,
        -0.020710276439785957,
        0.051924578845500946,
        -0.03829405829310417,
        -0.04628583416342735,
        -0.04910728335380554,
        0.06131879240274429,
        -0.03343617171049118,
        0.07245299220085144,
        0.05780550464987755,
        0.04846460744738579,
        -0.05976802483201027,
        0.05989209562540054,
        -0.0835815817117691,
        0.01544412411749363,
        -0.05910615995526314,
        -0.035587918013334274,
        0.007847185246646404,
        0.007143646478652954,
        -0.12870460748672485,
        -0.03221568092703819,
        0.011989937163889408,
        -0.10164642333984375,
        0.11975859850645065,
        -0.0035093992482870817,
        0.04438280686736107,
        0.18219472467899323,
        0.013445548713207245,
        0.09900959581136703,
        -0.08489211648702621,
        -0.04527037963271141,
        0.10167979449033737,
        -0.0001629352627787739,
        0.0217087734490633,
        0.013141486793756485,
        0.1035030260682106,
        -0.131164088845253,
        -0.02748967707157135,
        0.08137824386358261,
        0.03579277917742729,
        -0.033957649022340775,
        0.12102626264095306,
        0.060838036239147186,
        -0.11783172935247421,
        -0.0638979896903038,
        -0.03293858468532562,
        0.010796984657645226,
        0.09881740808486938,
        -0.02158571407198906,
        0.04205317795276642,
        -0.11975537985563278,
        -0.0794815719127655,
        -0.09259513020515442,
        0.028078999370336533,
        0.058932118117809296,
        -0.09279720485210419,
        0.052983153611421585,
        -0.0848190039396286,
        0.045826639980077744,
        -0.029771646484732628,
        -0.1067960113286972,
        -0.0006875271210446954,
        0.10566261410713196,
        0.13650575280189514,
        0.046040259301662445,
        -0.04547296091914177,
        -0.0841732919216156,
        0.003619004739448428,
        -0.01778433285653591,
        0.019662199541926384,
        0.05496038496494293,
        -0.0638987347483635,
        0.11589759588241577,
        0.07713775336742401,
        0.14281637966632843,
        -0.1679854840040207,
        -0.06583257019519806,
        -0.07220862805843353,
        0.12812179327011108,
        0.005460836458951235,
        0.0831734910607338,
        -0.011551416479051113,
        0.11156610399484634,
        0.019251776859164238,
        -0.048836786299943924,
        -0.005504475440829992,
        0.13922910392284393,
        -0.02791198529303074,
        0.1245243102312088,
        -0.06432685256004333,
        0.13339582085609436,
        0.052898213267326355,
        0.028749335557222366,
        -0.07722456008195877,
        0.008388586342334747,
        0.0396474227309227,
        0.13400191068649292,
        -0.002334378892555833,
        -0.054792046546936035,
        -0.03573675453662872,
        -0.10591339319944382,
        -0.15353147685527802,
        -0.10962649434804916,
        0.010019212029874325,
        -0.05522074177861214,
        0.025350429117679596,
        0.08317824453115463,
        -0.16149355471134186,
        -0.12022427469491959,
        0.003247902961447835,
        0.041890356689691544,
        0.13667403161525726,
        0.026510560885071754,
        -0.07062935084104538,
        0.015804467722773552,
        -0.06594403088092804,
        -0.0601775161921978,
        -0.013362368568778038,
        -0.0823657289147377,
        0.0068196686916053295,
        0.007042037323117256,
        -0.010816744528710842,
        0.01787370629608631,
        -0.09036550670862198,
        0.08121564984321594,
        -0.05601641908288002,
        -0.090282142162323,
        -0.018579872325062752,
        0.17090807855129242,
        0.014624293893575668,
        0.08749925345182419,
        0.003885918529704213,
        -0.07163272053003311,
        0.027651628479361534,
        -0.12765495479106903,
        -0.03160863369703293,
        -0.005569052416831255,
        -0.002861968707293272,
        0.1992141157388687,
        -0.009522967971861362,
        0.02591838128864765,
        -0.04930688813328743,
        0.09205541759729385,
        -0.0234852097928524,
        0.18803083896636963,
        -0.04075348749756813,
        -0.03576932102441788,
        0.08319318294525146,
        -0.04158161208033562,
        0.017346715554594994,
        0.013914639130234718,
        -0.14645783603191376,
        -0.005840698257088661,
        0.04274421185255051,
        -0.06040208786725998,
        -0.004186630714684725,
        0.06492231041193008,
        -0.011790559627115726,
        0.0015905356267467141,
        0.1092066764831543,
        -0.02566254884004593,
        0.027802500873804092,
        0.004289907868951559,
        -0.02105601318180561,
        -0.07767466455698013,
        0.09662866592407227,
        0.04842667281627655,
        -0.03221200779080391,
        0.06291498243808746,
        0.06810830533504486,
        -0.013852084055542946,
        0.0353722870349884,
        0.004900570493191481,
        -0.04335137829184532,
        -0.0872281864285469,
        0.00035690265940502286,
        0.09535364806652069,
        0.04560912773013115,
        -0.07385993748903275,
        -0.03807595372200012,
        -0.012947682291269302,
        -0.08079620450735092,
        0.01607949659228325,
        -0.05613211542367935,
        0.06890995055437088,
        -0.08436433225870132,
        0.1005982831120491,
        -0.08073640614748001,
        0.07817520946264267,
        -0.0649876669049263,
        -0.0016578732756897807,
        -0.07151371240615845,
        -0.010246689431369305,
        0.010017764754593372,
        0.08225426822900772,
        -0.05673666298389435,
        -0.02973319962620735,
        -0.04147946089506149,
        0.02939770743250847,
        0.12247420102357864,
        0.009782647714018822,
        0.09466546028852463,
        -0.08520147204399109,
        -0.021660666912794113,
        0.1024022176861763,
        -0.0203847736120224,
        -0.06525808572769165,
        -0.05733092501759529,
        0.12109660357236862,
        0.020976964384317398,
        0.023492474108934402,
        -0.024672385305166245,
        -0.014925305731594563,
        -0.014664952643215656,
        -0.07274924218654633,
        0.2649610936641693,
        0.016954602673649788,
        0.024376319721341133,
        -0.10701795667409897,
        -0.004061522427946329,
        0.266353577375412,
        -0.008124466054141521,
        -0.06877845525741577,
        -0.07828712463378906,
        0.2099592685699463,
        0.03231745585799217,
        -0.05499417707324028,
        -0.05148573964834213,
        0.04887519031763077,
        0.025134585797786713,
        -0.09913060069084167,
        0.2800760865211487,
        0.08681294322013855,
        -0.04872305318713188,
        -0.10986282676458359,
        -0.035378117114305496,
        0.3912295401096344,
        -0.0766294002532959,
        -0.1560940444469452,
        -0.19674138724803925,
        0.15482574701309204,
        0.046818215399980545,
        0.09462736546993256,
        0.07736437022686005,
        -0.004650597460567951,
        0.044096074998378754,
        0.07879958301782608,
        0.21631133556365967,
        0.005297812167555094,
        -0.0012145601212978363,
        0.07471686601638794,
        0.017869414761662483,
        0.3353032171726227,
        0.025663448497653008,
        -0.12571179866790771,
        -0.03005777671933174,
        -0.09261315315961838,
        0.05388401448726654,
        0.09902563691139221,
        0.08716141432523727,
        -0.02780100516974926,
        0.20774513483047485,
        -0.013343137688934803,
        -0.1702261120080948,
        -0.06062789261341095,
        -0.06473948806524277,
        0.0665924996137619,
        -0.04408847913146019,
        0.00045171857345849276,
        -0.0038017798215150833,
        0.056947655975818634,
        0.05427220091223717,
        -0.15585541725158691,
        -0.007095560897141695,
        -0.010163683444261551,
        0.019465971738100052,
        -0.010376744903624058,
        -0.008545882999897003,
        0.06549753248691559,
        -0.08511150628328323,
        0.06145339086651802,
        -0.1816413253545761,
        0.005162110086530447,
        -0.04627591744065285,
        -0.09715158492326736,
        -0.0909670814871788,
        -0.05629293993115425,
        -0.10423625260591507,
        -0.005961148999631405,
        0.09114517271518707,
        -0.10963709652423859,
        -0.17000925540924072,
        -0.07270178198814392,
        0.14325712621212006,
        -0.10310668498277664,
        -0.07691475749015808,
        -0.01702459156513214,
        -0.11191543191671371,
        0.13714434206485748,
        0.05378067493438721,
        -0.00010565335105638951,
        -0.036421872675418854,
        -0.07829920202493668,
        -0.03417956456542015,
        0.021215396001935005,
        -0.03671197220683098,
        -0.13907159864902496,
        -0.09531579911708832,
        -0.040725383907556534,
        0.0746147409081459,
        0.03027229756116867,
        -0.10913333296775818,
        0.04713606834411621,
        0.012894727289676666,
        0.04485173150897026,
        0.06851617991924286,
        -0.12574903666973114,
        -0.0021216541063040495,
        -0.009801936335861683,
        0.012570166029036045,
        0.05486247316002846,
        0.0012057623825967312,
        -0.025794483721256256,
        -0.029432905837893486,
        0.02343132719397545,
        -0.0028571654111146927,
        -0.01613108068704605,
        0.13764256238937378,
        -0.11051763594150543,
        0.11034903675317764,
        0.2377438247203827,
        0.021310731768608093,
        0.015937423333525658,
        -0.007875570096075535,
        -0.07376980036497116,
        -0.024949098005890846,
        0.15609769523143768,
        0.10699080675840378,
        -0.035599809139966965,
        0.13948127627372742,
        0.06237813085317612,
        0.00938634667545557,
        0.008681870996952057,
        0.20404469966888428,
        0.06334380060434341,
        0.07148271054029465,
        -0.058527931571006775,
        0.013450098223984241,
        -0.06415316462516785,
        0.00718168867751956,
        0.03647017106413841,
        0.001433531753718853,
        0.029812203720211983,
        0.013732368126511574,
        -0.004339953884482384,
        0.1345667690038681,
        -0.03087439015507698,
        -0.09338010847568512,
        0.045121368020772934,
        -0.1622655689716339,
        -0.01009503286331892,
        -0.012777745723724365,
        -0.15038339793682098,
        -0.059410210698843,
        -0.13808518648147583,
        -0.02735067345201969,
        -0.06959737092256546,
        -0.041693445295095444,
        0.019300324842333794,
        -0.05649604648351669,
        0.008067367598414421,
        -0.13853637874126434,
        0.07843160629272461,
        -0.0954705998301506,
        -0.02934892661869526,
        0.0025143970269709826,
        -0.020293286070227623,
        0.06547685712575912,
        -0.1038876473903656,
        -0.07676426321268082,
        -0.002408219501376152,
        -0.016629304736852646,
        0.012499294243752956,
        0.12233887612819672,
        0.04900587350130081,
        0.01547275297343731,
        0.11795944720506668,
        0.015060952864587307,
        0.07544900476932526,
        0.002885508118197322,
        -0.12265314161777496,
        -0.13571497797966003,
        0.0018497960409149528,
        0.051419250667095184,
        -0.058213524520397186,
        -0.1305050402879715,
        0.04360172525048256,
        0.005248525645583868,
        -0.039907306432724,
        0.03395938500761986,
        -0.07916134595870972,
        0.06948164850473404,
        0.06694018095731735,
        0.06308131664991379,
        -0.009885445237159729,
        -0.12878398597240448,
        -0.018302520737051964,
        -0.11887659132480621,
        0.01924373023211956,
        -0.05903903767466545,
        0.21837550401687622,
        -0.06901365518569946,
        0.04483580216765404,
        -0.018015239387750626,
        0.057233743369579315,
        0.07778090983629227,
        -0.11669692397117615,
        0.1050422191619873,
        0.008709785528481007,
        0.052107978612184525,
        -0.0018956915009766817,
        -0.028547480702400208,
        -0.045767344534397125,
        0.034076932817697525,
        -0.045164164155721664,
        -0.04380182921886444,
        -0.05529342591762543,
        -0.05563299357891083,
        -0.06369981169700623,
        0.02770116925239563,
        0.04006313532590866,
        -0.17289036512374878,
        0.06744104623794556,
        0.018276046961545944,
        0.038218431174755096,
        -0.011077861301600933,
        0.0022111174184828997,
        -0.03113602288067341,
        0.006883065681904554,
        -0.13803517818450928,
        0.011307395063340664,
        0.07784243673086166,
        -0.08330550044775009,
        -0.08041433244943619,
        -0.09243617951869965,
        -0.007805763743817806,
        0.037310097366571426,
        0.09028550237417221,
        -0.05489080026745796,
        -0.010503584519028664,
        0.09244553744792938,
        -0.07436361908912659,
        -0.06412634253501892,
        -0.1545787900686264,
        0.05436050146818161,
        -0.08321923017501831,
        -0.03565119579434395,
        0.0024721112567931414,
        0.038765799254179,
        -0.06534120440483093,
        -0.035834576934576035,
        -0.05063408985733986,
        0.12829503417015076,
        0.0763995349407196,
        -0.009312384761869907,
        -0.022785887122154236,
        -0.038742225617170334,
        -0.02613097056746483,
        -0.017415935173630714,
        -0.019899336621165276,
        0.06324086338281631,
        -0.12156103551387787,
        0.10849429666996002,
        0.0027531457599252462,
        0.020973628386855125,
        -0.19368255138397217,
        -0.04865531250834465,
        0.05478789657354355,
        0.08067536354064941,
        0.09058849513530731,
        0.03690549358725548,
        -0.0539948046207428,
        0.1009056568145752,
        -0.0022555249743163586,
        0.019608857110142708,
        0.006608461961150169,
        0.20809148252010345,
        -0.06579332053661346,
        0.17758627235889435,
        0.12276150286197662,
        0.009901264682412148,
        0.051342952996492386,
        0.05648251250386238,
        -0.00902342889457941,
        0.1367795765399933,
        0.0918261855840683,
        -0.025681274011731148,
        -0.011846291832625866,
        0.04186015948653221,
        0.04731307923793793,
        0.04681294411420822,
        -0.0668344795703888,
        0.1252439320087433,
        -0.10802175104618073,
        0.056963011622428894,
        -0.0005723401554860175,
        0.15062843263149261,
        0.09398152679204941,
        0.009400328621268272,
        -0.009786014445126057,
        0.11522272974252701,
        0.12055889517068863,
        -0.026541974395513535,
        0.13379767537117004,
        0.05349444970488548,
        0.12441496551036835,
        0.012742164544761181,
        -0.04345507174730301,
        -0.04839944839477539,
        -0.19705262780189514,
        -0.04763304814696312,
        -0.09676143527030945,
        -0.048628970980644226,
        -0.01866620033979416,
        -0.162272110581398,
        -0.022468995302915573,
        0.019908802583813667,
        -0.13156606256961823,
        -0.06568345427513123,
        0.015945585444569588,
        0.015896352007985115,
        -0.05001813545823097,
        -0.006408234126865864,
        -0.11575375497341156,
        -0.18287843465805054,
        -0.1092490553855896,
        -0.0961146280169487,
        -0.008706963621079922,
        -0.05799612030386925,
        0.09104839712381363,
        -0.17064137756824493,
        -0.01253721583634615,
        0.01678205467760563,
        -0.10976395010948181,
        0.030224518850445747,
        -0.028122810646891594,
        -0.025473063811659813,
        -0.015062094666063786,
        0.00708016799762845,
        0.10882280021905899,
        -0.1295625865459442,
        -0.12283888459205627,
        -0.10540951043367386,
        0.12736785411834717,
        -0.3080553114414215,
        -0.029744505882263184,
        -0.06046334281563759,
        0.01632458157837391,
        -0.0737028568983078,
        -0.11469238996505737,
        -0.12864843010902405,
        -0.13517794013023376,
        0.05263512581586838,
        0.020953398197889328,
        0.09479881823062897,
        0.008126207627356052,
        0.04635559394955635,
        -0.011593474075198174,
        0.10831247270107269,
        0.10803008079528809,
        -0.0913584902882576,
        -0.029451893642544746,
        -0.07885156571865082,
        0.07650840282440186,
        -0.0666315034031868,
        -0.1710507869720459,
        -0.07418771088123322,
        -0.11081164330244064,
        0.0683814063668251,
        0.011815308593213558,
        -0.03278994932770729,
        -0.14476951956748962,
        0.10237682610750198,
        0.07652046531438828,
        0.1331145167350769,
        0.061988599598407745,
        -0.0778624564409256,
        -0.1434728503227234,
        -0.12619049847126007,
        0.09786353260278702,
        0.06253734230995178,
        -0.016772771254181862,
        -0.06789879500865936,
        0.0025863992050290108,
        0.07144437730312347,
        0.09965366870164871,
        0.00029737624572589993,
        -0.06979987770318985,
        -0.01491656806319952,
        0.03669087588787079,
        -0.031922027468681335,
        -0.11336588114500046,
        -0.0905616357922554,
        0.04641093313694,
        -0.004727070219814777,
        0.015561213716864586,
        0.10734012722969055,
        0.034246381372213364,
        -0.008247959427535534,
        -0.07135708630084991,
        0.006681536324322224,
        0.05233227089047432,
        0.05826490372419357,
        -0.02750983275473118,
        0.09046300500631332,
        0.15591056644916534,
        0.126082181930542,
        -0.13015463948249817,
        -0.037665218114852905,
        0.1375090330839157,
        -0.08351363241672516,
        -0.017225755378603935,
        0.05510220304131508,
        -0.2747240662574768,
        0.05932480841875076,
        0.06003325805068016,
        0.04756617546081543,
        0.12409231811761856,
        0.017572464421391487,
        -0.06230875104665756,
        -0.02726881019771099,
        0.06773976981639862,
        0.04027325659990311,
        0.02505137212574482,
        0.0197919849306345,
        0.15219826996326447,
        -0.08083926886320114,
        0.04069921746850014,
        0.13753002882003784,
        -0.03863392397761345,
        0.0625465139746666,
        0.027018487453460693,
        -0.046851109713315964,
        0.09195826947689056,
        -0.031429048627614975,
        0.07866264879703522,
        0.0035379629116505384,
        -0.09336893260478973,
        0.03441573306918144,
        -0.1081375703215599,
        0.03433816134929657,
        0.10530361533164978,
        -0.12457515299320221,
        0.04707640781998634,
        0.09170462936162949,
        0.03324148803949356,
        -0.02211318165063858,
        -0.04801792651414871,
        -0.07484611868858337,
        0.11150678992271423,
        -0.05261337384581566,
        -0.11710496246814728,
        0.09759331494569778,
        0.006551147438585758,
        0.2038273960351944,
        0.002195785753428936,
        -0.07029858231544495,
        0.03969259187579155,
        0.0721806138753891,
        -0.006309880409389734,
        -0.00036591297248378396,
        -0.01941184513270855,
        0.11450015008449554,
        -0.013155984692275524,
        0.013861496932804585,
        -0.07918602973222733,
        -0.025097940117120743,
        0.039792124181985855,
        -0.04932156950235367,
        0.04101502522826195,
        -0.20049609243869781,
        -0.03331100568175316,
        -0.11645937711000443,
        -0.05580763518810272,
        0.03676064312458038,
        0.008191373199224472,
        0.003339784685522318,
        -0.08586970716714859,
        0.01542462594807148,
        -0.05430733785033226,
        -0.006122266408056021,
        0.030421076342463493,
        -0.010192851535975933,
        -0.04315430670976639,
        0.09037120640277863,
        0.17727631330490112,
        0.13742110133171082,
        -0.003229668131098151,
        -0.004798137582838535,
        0.15362371504306793,
        -0.0782012939453125,
        -0.024363679811358452,
        0.09253042936325073,
        -0.04127813130617142,
        0.09440688043832779,
        -0.029059864580631256,
        0.07087653875350952,
        0.13276857137680054,
        0.05693579092621803,
        0.02796648070216179,
        -0.03364881873130798,
        0.02170756086707115,
        0.09628503024578094,
        0.08353791385889053,
        -0.03950027748942375,
        0.10210756212472916,
        -0.0811319649219513,
        0.057811759412288666,
        0.07598379254341125,
        0.05819462984800339,
        -0.09417657554149628,
        -0.021709850057959557,
        0.12329009175300598,
        -0.053585685789585114,
        0.044364701956510544,
        -0.027333084493875504,
        -0.0844937264919281,
        -0.13134008646011353,
        0.010344499722123146,
        -0.01300241332501173,
        0.01796303689479828,
        0.02459006942808628,
        -0.05265489220619202,
        0.06597187370061874,
        -0.003706688294187188,
        -0.02684999816119671,
        -0.0013333745300769806,
        0.012577109038829803,
        0.0366281159222126,
        -0.07681210339069366,
        -0.06789753586053848,
        0.040851421654224396,
        -0.03713744506239891,
        0.025537434965372086,
        -0.004091134760528803,
        -0.010686884634196758,
        0.11078272759914398,
        -0.21383357048034668,
        -0.01188547071069479,
        0.016200026497244835,
        -0.03885404020547867,
        -0.2750548720359802,
        -0.010133009403944016,
        0.036149393767118454,
        -0.06869671493768692,
        -0.06465376913547516,
        0.03845499828457832,
        0.1099894568324089,
        -0.08002354949712753,
        0.02705526165664196,
        -0.0995531976222992,
        0.013180386275053024,
        0.03802236169576645,
        0.08653470128774643,
        0.04312824085354805,
        -0.024833407253026962,
        0.010710468515753746,
        0.06360016018152237,
        0.032812315970659256,
        -0.037785325199365616,
        -0.1018611490726471,
        -0.036577001214027405,
        -0.0034868824295699596,
        0.05190003663301468,
        -0.05878262221813202,
        0.14275367558002472,
        0.0021874404046684504,
        0.01469425018876791,
        -0.19933009147644043,
        0.14811556041240692,
        0.01544901728630066,
        -0.04598139971494675,
        -0.057053886353969574,
        -0.13000273704528809,
        0.10521471500396729,
        -0.019681589677929878,
        0.01846400648355484,
        0.02625899761915207,
        -0.018722577020525932,
        -0.05499330163002014,
        0.05938563123345375,
        -0.09892284870147705,
        -0.04106668010354042,
        -0.024425631389021873,
        -0.13463497161865234,
        -0.02116508036851883,
        -0.03403453156352043,
        -0.016964765265583992,
        -0.06313095986843109,
        -0.09719070047140121,
        0.00614016642794013,
        -0.07739011943340302,
        0.0033674328587949276,
        -0.07327786833047867,
        0.013686951249837875,
        0.03977286070585251,
        -0.12346325069665909,
        -0.1863282322883606,
        -0.126105397939682,
        0.05427633970975876,
        -0.05827771872282028,
        -0.06744164228439331,
        -0.10459887981414795,
        0.05381184071302414,
        0.05592833086848259,
        -0.1766670197248459,
        0.001063234987668693,
        -0.066348597407341,
        -0.05878767743706703,
        0.09217856824398041,
        -0.04195185378193855,
        0.06559400260448456,
        -0.0343342088162899,
        -0.22782115638256073,
        -0.0484505333006382,
        -0.08067156374454498,
        -0.08468388020992279,
        -0.1134965643286705,
        -0.12199212610721588,
        -0.006984209641814232,
        0.0774991363286972,
        0.06841874122619629,
        -0.13243941962718964,
        -0.08967213332653046,
        -0.027988266199827194,
        -0.13259153068065643,
        0.028749532997608185,
        0.04201338067650795,
        0.004953282419592142,
        0.0571562759578228,
        -0.03476357087492943,
        0.08660116791725159,
        0.11892348527908325,
        0.03614407405257225,
        -0.03143665939569473,
        0.012683470733463764,
        0.004705366212874651,
        0.03337807208299637,
        -0.02359684184193611,
        -0.050493188202381134,
        -0.02585591748356819,
        -0.06837815046310425,
        0.016969280317425728,
        0.050769511610269547,
        0.0023393058218061924,
        -0.02106788381934166,
        -0.051224008202552795,
        -0.04028800502419472,
        -0.02265261858701706,
        0.022237062454223633,
        -0.04525154083967209,
        -0.06040061637759209,
        -0.09129320830106735,
        -0.13463757932186127,
        0.0682636946439743,
        -0.09361973404884338,
        0.10184863209724426,
        0.033287469297647476,
        0.056899283081293106,
        -0.002553316066041589,
        0.012215819209814072,
        -0.1516338288784027,
        0.015471121296286583,
        0.12277904897928238,
        0.1789764016866684,
        -0.06273951381444931,
        0.05765163153409958,
        -0.08249185979366302,
        0.04216887429356575,
        0.06820917874574661,
        -0.07334029674530029,
        0.0883679986000061,
        0.03993983566761017,
        -0.009095636196434498,
        -0.08576326817274094,
        0.07985781878232956,
        0.022125255316495895,
        -0.1801120936870575,
        -0.1233726441860199,
        -0.030605288222432137,
        -0.03491813316941261,
        0.0012696909252554178,
        0.028687704354524612,
        -0.049770768731832504,
        -0.12401941418647766,
        0.12581990659236908,
        -0.005353301763534546,
        0.01517156045883894,
        -0.02544904686510563,
        -0.04965732991695404,
        -0.05864140763878822,
        0.024075716733932495,
        0.06075615808367729,
        -0.12025414407253265,
        0.050934940576553345,
        0.10115654766559601,
        0.06539855152368546,
        0.026502184569835663,
        0.11223975569009781,
        -0.014094767160713673,
        -0.08472049981355667,
        0.17036904394626617,
        0.06186410412192345,
        0.001546685118228197,
        -0.07910449802875519,
        -0.11865264922380447,
        0.07385574281215668,
        -0.05139290168881416,
        0.02760658971965313,
        0.17736144363880157,
        0.09130565822124481,
        0.11568868160247803,
        0.039055485278367996,
        -0.06152915582060814,
        0.07137344777584076,
        -0.02684519998729229,
        0.0007571587339043617,
        -0.012501057237386703,
        -0.06950771063566208,
        0.08583863079547882,
        0.06472006440162659,
        -0.04016755521297455,
        -0.07660302519798279,
        -0.22125165164470673,
        0.03191395848989487,
        -0.01972336694598198,
        0.04606064409017563,
        -0.0631280392408371,
        0.06758143752813339,
        0.02352047525346279,
        -0.08129856735467911,
        0.06598008424043655,
        0.07693547010421753,
        0.17509862780570984,
        -0.025403397157788277,
        0.02235688827931881,
        0.004899034276604652,
        -0.07069575041532516,
        0.003643997246399522,
        -0.1672540307044983,
        0.09675613045692444,
        -0.15640799701213837,
        0.06854382157325745,
        -0.047871097922325134,
        0.11076125502586365,
        -0.07022050023078918,
        0.07382413744926453,
        -0.026593616232275963,
        0.021505458280444145,
        0.0868627279996872,
        0.04900425672531128,
        0.01238812506198883,
        -0.035104718059301376,
        -0.05950740724802017,
        0.026513753458857536,
        -0.04465143010020256,
        0.04698383808135986,
        0.19335947930812836,
        -0.012124764733016491,
        0.10118221491575241,
        0.06957393884658813,
        -0.16723722219467163,
        0.06994745880365372,
        0.0003450428484939039,
        -0.04600853845477104,
        0.06308683753013611,
        0.01874847710132599,
        -0.04053664579987526,
        0.019236862659454346,
        -0.015430008061230183,
        0.02875601314008236,
        -0.0795164704322815,
        0.17461001873016357,
        0.27040165662765503,
        0.16432423889636993,
        0.07772660255432129,
        0.10699421912431717,
        -0.02552526816725731,
        0.14257442951202393,
        0.030180273577570915,
        0.11237862706184387,
        0.09984221309423447,
        0.19898974895477295,
        0.042107705026865005,
        0.030285390093922615,
        -0.10621611773967743,
        0.019389426335692406,
        0.04068388417363167,
        -0.03176036849617958,
        -0.13245122134685516,
        -0.03569329157471657,
        -0.10156608372926712,
        0.005734243895858526,
        0.027285823598504066,
        -0.046999845653772354,
        -0.037664253264665604,
        0.04812944307923317,
        -0.010288952849805355,
        -0.033503901213407516,
        0.059529971331357956,
        -0.0008952200878411531,
        0.04729277640581131,
        -0.023272013291716576,
        0.029733389616012573,
        -0.03477093204855919,
        -0.009166989475488663,
        0.09891535341739655,
        -0.053389035165309906,
        0.034414418041706085,
        0.06666629016399384,
        0.11249589920043945,
        -0.03320719301700592,
        0.026851659640669823,
        -0.022282134741544724,
        0.0793992131948471,
        0.011371993459761143,
        -0.00264502945356071,
        0.00009230314753949642,
        0.03562072664499283,
        -0.01461376529186964,
        0.04373549669981003,
        0.10308254510164261,
        -0.049534283578395844,
        0.04058761149644852,
        0.11935818940401077,
        -0.04162115976214409,
        0.14442799985408783,
        0.05851352959871292,
        0.02046438865363598,
        -0.04182446748018265,
        0.09562405943870544,
        0.03923830762505531,
        0.021981453523039818,
        -0.016130879521369934,
        -0.020788121968507767,
        0.053117141127586365,
        0.03142978250980377,
        0.1294594407081604,
        -0.15035656094551086,
        -0.0034968028776347637,
        0.012362335808575153,
        0.04585099220275879,
        0.030543748289346695,
        -0.016292423009872437,
        0.048390671610832214,
        0.06671317666769028,
        -0.08146603405475616,
        -0.00674840621650219,
        -0.001968937925994396,
        -0.08709447830915451,
        -0.03146614506840706,
        0.024709245190024376,
        0.0474378764629364,
        0.1689826101064682,
        -0.09512805938720703,
        0.07845928519964218,
        0.05971571058034897,
        0.11652909964323044,
        -0.009333833120763302,
        -0.012450016103684902,
        0.038998402655124664,
        0.039778728038072586,
        -0.03661620616912842,
        0.06978359073400497,
        -0.014878278598189354,
        0.08161412179470062,
        -0.007183765061199665,
        0.017620854079723358,
        -0.026039836928248405,
        -0.10628727078437805,
        0.051910508424043655,
        0.037390630692243576,
        0.026802625507116318,
        -0.08898942172527313,
        0.0057677351869642735,
        -0.014057562686502934,
        -0.10189218074083328,
        -0.15662147104740143,
        0.03758293390274048,
        0.004299204330891371,
        -0.033821869641542435,
        -0.023751096799969673,
        -0.12639378011226654,
        0.023326104506850243,
        -0.05293063819408417,
        0.0872119590640068,
        0.05433804914355278,
        -0.07776082307100296,
        0.10861579328775406,
        -0.0043403031304478645,
        0.04386994615197182,
        -0.04446076601743698,
        0.020722854882478714,
        0.05520951375365257,
        0.062382154166698456,
        -0.029436929151415825,
        -0.011300632730126381,
        0.19311483204364777,
        0.025022409856319427,
        -0.06320924311876297,
        0.07441120594739914,
        0.19857031106948853,
        -0.02985038049519062,
        0.05836789309978485,
        0.10936232656240463,
        -0.23279257118701935,
        0.06345268338918686,
        -0.02470427006483078,
        -0.045387934893369675,
        -0.062382154166698456,
        0.08398950099945068,
        0.05378568172454834,
        0.05562107637524605,
        0.04954609274864197,
        -0.0009478758438490331,
        -0.06566393375396729,
        -0.11770934611558914,
        0.07877232134342194,
        -0.07861068844795227,
        -0.024436410516500473,
        0.018948132172226906,
        -0.060776419937610626,
        0.13315437734127045,
        -0.01973622851073742,
        0.00447586365044117,
        0.09145782887935638,
        -0.01722783036530018,
        -0.060567185282707214,
        -0.07975153625011444,
        0.13159842789173126,
        0.004633483476936817,
        -0.00283452938310802,
        0.05559686943888664,
        0.03679123520851135,
        -0.05466634780168533,
        -0.02252998575568199,
        0.08138418942689896,
        -0.014967010356485844,
        0.1157282292842865,
        -0.033088456839323044,
        0.023269815370440483,
        -0.011821958236396313,
        0.03209495544433594,
        0.11747709661722183,
        0.008898478001356125,
        0.04226779565215111,
        -0.015606560744345188,
        0.17074796557426453,
        -0.08359897136688232,
        -0.06087527796626091,
        -0.03508344665169716,
        0.03404299542307854,
        -0.1154012605547905,
        -0.08827612549066544,
        -0.11574821919202805,
        -0.0021651333663612604,
        -0.02186726965010166,
        0.012097198516130447,
        0.022837886586785316,
        -0.06421685218811035,
        -0.06455386430025101,
        0.005379365291446447,
        -0.049068473279476166,
        -0.06948085874319077,
        -0.02798311971127987,
        0.02507253922522068,
        0.10217157006263733,
        0.0443696491420269,
        0.05990401655435562,
        0.006644532550126314,
        -0.001806926797144115,
        -0.043932825326919556,
        0.0661630630493164,
        -0.016854947432875633,
        -0.014254912734031677,
        0.10675351321697235,
        0.024872833862900734,
        0.0019596542697399855,
        0.029039625078439713,
        -0.046481434255838394,
        0.024969812482595444,
        -0.10770823061466217,
        0.01300257258117199,
        0.058532800525426865,
        0.09303637593984604,
        -0.039297427982091904,
        0.12180763483047485,
        0.07168436050415039,
        0.03613599017262459,
        0.1520821750164032,
        0.04713306203484535,
        -0.0028813837561756372,
        -0.09818444401025772,
        -0.07081717252731323,
        -0.020449098199605942,
        0.06270676106214523,
        0.10576450079679489,
        0.1525638848543167,
        0.06241470202803612,
        -0.17741826176643372,
        0.0958508849143982,
        -0.15539155900478363,
        0.17366166412830353,
        0.004926890600472689,
        -0.06433594971895218,
        0.1054481640458107,
        0.018791504204273224,
        -0.020880157127976418,
        -0.03122888132929802,
        0.02146529033780098,
        0.09737148880958557,
        -0.14429880678653717,
        -0.015559854917228222,
        -0.0620107427239418,
        -0.01897859387099743,
        -0.10985297709703445,
        -0.248334601521492,
        0.023602891713380814,
        0.08877968043088913,
        -0.0416782908141613,
        0.08562757074832916,
        0.012446693144738674,
        0.04537640139460564,
        0.0729411169886589,
        0.02978803776204586,
        -0.06617654860019684,
        0.028630437329411507,
        0.0351303331553936,
        -0.04891148582100868,
        -0.204647496342659,
        -0.1459154337644577,
        -0.038088005036115646,
        -0.08671289682388306,
        -0.14349761605262756,
        0.0375317707657814,
        -0.05497114360332489,
        -0.05582175403833389,
        -0.10963787138462067,
        -0.13460105657577515,
        0.06442523747682571,
        -0.03226897865533829,
        -0.0564434714615345,
        -0.0015435697278007865,
        -0.07262978702783585,
        -0.01804887130856514,
        -0.056955259293317795,
        -0.022322960197925568,
        -0.012576770037412643,
        -0.11398796737194061,
        -0.022786760702729225,
        0.05431024730205536,
        -0.058208055794239044,
        0.07611550390720367,
        0.0809454470872879,
        -0.017094386741518974,
        -0.16691167652606964,
        0.04287227243185043,
        -0.08894018828868866,
        -0.04354635253548622,
        -0.04843376949429512,
        0.04645594581961632,
        -0.09900758415460587,
        -0.03526575490832329,
        0.01635410264134407,
        0.002086603781208396,
        0.014491955749690533,
        -0.17830786108970642,
        -0.04646595939993858,
        -0.0762670636177063,
        -0.07531847059726715,
        -0.0316011905670166,
        -0.029994331300258636,
        0.046635981649160385,
        -0.11801803112030029,
        0.021322133019566536,
        -0.06427596509456635,
        -0.011813294142484665,
        0.05924603343009949,
        -0.03364516422152519,
        0.04116469994187355,
        -0.022935854271054268,
        0.08100808411836624,
        0.04748184233903885,
        -0.00024791748728603125,
        0.028987308964133263,
        0.012337110005319118,
        -0.05964649096131325,
        0.04342428222298622,
        0.09679245203733444,
        0.04483238607645035,
        0.046116359531879425,
        0.003279656870290637,
        0.09816470742225647,
        0.06607641279697418,
        0.003994401078671217,
        0.018786568194627762,
        -0.031623248010873795,
        0.12996551394462585,
        -0.00007622180419275537,
        -0.06880874186754227,
        -0.01866082288324833,
        -0.002667112974449992,
        -0.07556422799825668,
        0.06259306520223618,
        -0.007073370739817619,
        0.020737169310450554,
        -0.04610731080174446,
        -0.12988387048244476,
        0.03529045730829239,
        -0.06894165277481079,
        0.06953394412994385,
        -0.00956067442893982,
        -0.2574445903301239,
        -0.08862913399934769,
        -0.15298637747764587,
        0.01326681300997734,
        -0.08445441722869873,
        -0.08011608570814133,
        -0.002281324239447713,
        -0.027168631553649902,
        0.0046452865935862064,
        -0.08756521344184875,
        0.05258994176983833,
        -0.18854185938835144,
        -0.12450608611106873,
        0.02693554386496544,
        -0.0704585388302803,
        0.018944701179862022,
        -0.1552276760339737,
        -0.016336429864168167,
        0.024301407858729362,
        0.022534804418683052,
        -0.12446587532758713,
        -0.016614485532045364,
        -0.07841815054416656,
        0.07918872684240341,
        0.17185749113559723,
        0.024367377161979675,
        0.0016665792791172862,
        -0.09469239413738251,
        -0.1775214821100235,
        -0.20876260101795197,
        -0.08834588527679443,
        -0.03021526336669922,
        -0.11830320209264755,
        -0.02143794856965542,
        -0.1006191149353981,
        0.05787777528166771,
        -0.09978112578392029,
        0.03765791654586792,
        -0.029714778065681458,
        0.013206862844526768,
        0.06597032397985458,
        0.060085248202085495,
        0.1128617525100708,
        -0.03636245056986809,
        -0.10812936723232269,
        -0.028162820264697075,
        -0.2671548128128052,
        -0.02527618780732155,
        -0.22792008519172668,
        -0.0001234638039022684,
        -0.0462445467710495,
        -0.05340132117271423,
        -0.062198709696531296,
        -0.10709922760725021,
        -0.00016936029714997858,
        0.03535950556397438,
        0.16987459361553192,
        -0.05424738675355911,
        0.08260129392147064,
        -0.07903581112623215,
        -0.3097832500934601,
        -0.18303239345550537,
        -0.2755012810230255,
        -0.0172966867685318,
        -0.2121192067861557,
        -0.11067229509353638,
        -0.1716766208410263,
        -0.052469152957201004,
        -0.037736523896455765,
        -0.1926988810300827,
        -0.0484573096036911,
        0.050642043352127075,
        0.06223917752504349,
        0.03129192441701889,
        0.056109361350536346,
        -0.020759688690304756,
        0.007392548024654388,
        -0.12308704107999802,
        0.016162382438778877,
        -0.06864045560359955,
        0.07848072052001953,
        -0.04933948069810867,
        -0.04893798753619194,
        -0.06600727885961533,
        -0.05263684317469597,
        -0.1832025647163391,
        0.025569910183548927,
        0.02557988464832306,
        -0.016206152737140656,
        -0.018236881121993065,
        -0.0712786316871643,
        0.15462970733642578,
        0.002817010274156928,
        0.14646990597248077,
        0.0013007964007556438,
        -0.04818524792790413,
        0.12942205369472504,
        0.015541072934865952,
        0.1781209409236908,
        -0.050725843757390976,
        -0.038864266127347946,
        -0.13837634027004242,
        0.0923161581158638,
        -0.046245940029621124,
        0.014694228768348694,
        -0.08135067671537399,
        0.016446789726614952,
        0.12662746012210846,
        -0.06578561663627625,
        0.1997319608926773,
        -0.06811218708753586,
        -0.056353066116571426,
        0.11028606444597244,
        -0.011894275434315205,
        0.05183840170502663,
        0.02597043476998806,
        0.02842070534825325,
        0.19961602985858917,
        -0.004327435977756977,
        -0.07744083553552628,
        -0.0479428805410862,
        -0.01799493469297886,
        0.06656446307897568,
        0.1232343465089798,
        -0.05468981713056564,
        0.10896246135234833,
        -0.07088810205459595,
        0.02056598663330078,
        0.020426049828529358,
        0.17619454860687256,
        0.045321494340896606,
        -0.00020254726405255497,
        -0.07352728396654129,
        0.0785822793841362,
        -0.021914664655923843,
        -0.044075485318899155,
        0.019356707111001015,
        -0.07227408140897751,
        0.0014175587566569448,
        0.1303916871547699,
        0.03200997784733772,
        0.145534485578537,
        -0.12270919233560562,
        0.029080793261528015,
        0.024544987827539444,
        0.16766022145748138,
        -0.016179576516151428,
        0.03911321982741356,
        0.07737616449594498,
        0.08497779816389084,
        -0.07440085709095001,
        0.0316992849111557,
        -0.009800394997000694,
        0.1677994430065155,
        -0.041384272277355194,
        -0.05957130342721939,
        0.0036244152579456568,
        -0.052297789603471756,
        -0.04716828465461731,
        -0.033656045794487,
        -0.032965730875730515,
        -0.0838620588183403,
        -0.05265021696686745,
        -0.004542236682027578,
        -0.04854433983564377,
        -0.09475427865982056,
        -0.031791169196367264,
        -0.02485458366572857,
        -0.048337750136852264,
        -0.08843201398849487,
        -0.08915193378925323,
        -0.047376733273267746,
        -0.19310852885246277,
        0.13814863562583923,
        -0.13172201812267303,
        -0.07139158248901367,
        0.03645792976021767,
        -0.043318793177604675,
        0.13940055668354034,
        -0.021619347855448723,
        -0.043513450771570206,
        -0.04312934726476669,
        0.008849888108670712,
        -0.06915896385908127,
        0.006755202077329159,
        -0.04152330756187439,
        0.01632278598845005,
        0.024986648932099342,
        -0.0022739204578101635,
        0.17371106147766113,
        -0.13922695815563202,
        -0.10217537730932236,
        0.006818479858338833,
        -0.24763351678848267,
        0.1610042005777359,
        0.027315352112054825,
        -0.04966229572892189,
        -0.04817875102162361,
        0.0007022605859674513,
        -0.0031540996860712767,
        0.01839117333292961,
        0.13029871881008148,
        0.0059259855188429356,
        -0.05412616580724716,
        -0.04227349907159805,
        0.056927215307950974,
        -0.0036627626977860928,
        -0.05455593392252922,
        0.0646694228053093,
        0.03215188905596733,
        0.16113635897636414,
        -0.023435568436980247,
        -0.07847154140472412,
        -0.0638328567147255,
        -0.04232505336403847,
        -0.031139476224780083,
        -0.013581602834165096,
        0.11748658120632172,
        0.049586221575737,
        -0.04381284862756729,
        0.031223352998495102,
        0.104332834482193,
        -0.04671306535601616,
        0.009318131022155285,
        -0.08754009008407593,
        0.017919505015015602,
        0.010726810432970524,
        0.033014506101608276,
        -0.1320233792066574,
        -0.026756661012768745,
        0.046033501625061035,
        0.05813726410269737,
        -0.004790520761162043,
        0.05967925861477852,
        0.0436176173388958,
        -0.021643172949552536,
        -0.045372072607278824,
        -0.15308542549610138,
        -0.08397911489009857,
        -0.07911086082458496,
        -0.11179868876934052,
        -0.06374891847372055,
        -0.08097288757562637,
        -0.010890783742070198,
        -0.03534972667694092,
        -0.10764365643262863,
        0.013158205896615982,
        -0.017424512654542923,
        -0.004097386728972197,
        -0.028911950066685677,
        0.04702096804976463,
        -0.09082364290952682,
        -0.13899168372154236,
        -0.022114254534244537,
        -0.06173831224441528,
        -0.027579370886087418,
        -0.05073416605591774,
        0.02377679944038391,
        -0.015832994133234024,
        0.017411453649401665,
        -0.08374051749706268,
        -0.011838322505354881,
        -0.11183461546897888,
        0.0015914126997813582,
        0.027431735768914223,
        -0.08707506954669952,
        0.023373831063508987,
        -0.003281571436673403,
        0.008279775269329548,
        -0.08464183658361435,
        -0.003567536361515522,
        0.11111057549715042,
        -0.07670734077692032,
        0.14117762446403503,
        0.033700015395879745,
        0.05636977404356003,
        -0.05149947479367256,
        0.034414906054735184,
        -0.023557443171739578,
        0.006772947032004595,
        0.009061606600880623,
        -0.05181053280830383,
        0.05354057997465134,
        0.040421951562166214,
        0.01886327750980854,
        0.14293062686920166,
        0.05053890123963356,
        -0.05357564613223076,
        0.04535836726427078,
        0.015890425071120262,
        -0.04597349092364311,
        -0.030162671580910683,
        0.016866810619831085,
        0.09579666703939438,
        -0.007957910187542439,
        -0.05104298144578934,
        0.009853200055658817,
        -0.03718974068760872,
        0.10734906792640686,
        -0.12808355689048767,
        -0.06933478266000748,
        -0.09225650876760483,
        -0.04002958536148071,
        -0.0947013646364212,
        -0.1310591846704483,
        0.04042116925120354,
        -0.08379173278808594,
        0.028083277866244316,
        0.0316542387008667,
        0.03166018798947334,
        -0.0017993078799918294,
        0.04233096167445183,
        0.06565944105386734,
        0.15077143907546997,
        0.05427442863583565,
        -0.07179086655378342,
        0.08993460237979889,
        -0.2422909140586853,
        0.026260744780302048,
        -0.008204816840589046,
        -0.141755148768425,
        -0.024724343791604042,
        -0.11389119178056717,
        -0.013479362241923809,
        0.04767897352576256,
        -0.01974434405565262,
        -0.08396198600530624,
        0.02165784128010273,
        0.00617986312136054,
        -0.05803341045975685,
        -0.005706530995666981,
        0.03873078525066376,
        -0.006438233889639378,
        -0.10249853879213333,
        -0.05018126592040062,
        0.03766951709985733,
        -0.037274155765771866,
        0.07499509304761887,
        -0.060731157660484314,
        0.02670210413634777,
        0.043518759310245514,
        0.008293509483337402,
        -0.025788424536585808,
        -0.07358922064304352,
        -0.007498414721339941,
        0.005699262488633394,
        0.04474916681647301,
        -0.08063969761133194,
        -0.062574103474617,
        -0.077768474817276,
        -0.06722386181354523,
        0.03947896137833595,
        -0.07626332342624664,
        0.04249114543199539,
        -0.02798043191432953,
        0.031734682619571686,
        -0.038754165172576904,
        0.03393073379993439,
        -0.07570745795965195,
        -0.05353271961212158,
        0.010777649469673634,
        -0.156345933675766,
        0.037039436399936676,
        -0.11001943051815033,
        -0.07168085128068924,
        -0.047235749661922455,
        0.012401353567838669,
        -0.05364372581243515,
        -0.24465247988700867,
        0.10770610719919205,
        0.014004705473780632,
        0.058933909982442856,
        0.029472609981894493,
        0.10259491950273514,
        -0.05723441392183304,
        -0.0071923877112567425,
        0.03523755073547363,
        0.09207914769649506,
        0.08605091273784637,
        -0.09108110517263412,
        0.04848134517669678,
        -0.05897478014230728,
        0.03911122307181358,
        -0.0004133452021051198,
        -0.06368448585271835,
        -0.032471995800733566,
        -0.049640413373708725,
        0.11085110902786255,
        0.027031151577830315,
        0.05352900177240372,
        -0.10836444050073624,
        -0.02734597772359848,
        -0.0717754140496254,
        0.14766943454742432,
        -0.012030593119561672,
        -0.005844976752996445,
        0.04418561980128288,
        -0.09394364804029465,
        0.02609202079474926,
        0.05665397271513939,
        -0.1332530677318573,
        0.016910864040255547,
        -0.09633667021989822,
        0.03050651215016842,
        0.026162315160036087,
        0.03963365778326988,
        0.08736573904752731,
        0.0027955607511103153,
        -0.006529420148581266,
        -0.046912770718336105,
        -0.012772179208695889,
        0.044954825192689896,
        -0.06573939323425293,
        -0.09533604979515076,
        -0.04668550565838814,
        -0.07390298694372177,
        -0.09466961026191711,
        -0.047087009996175766,
        -0.0934523418545723,
        -0.046009648591279984,
        -0.045524150133132935,
        0.06748802959918976,
        -0.05547152832150459,
        0.03475068882107735,
        -0.04528428241610527,
        0.0031340045388787985,
        -0.08262255787849426,
        -0.1330399513244629,
        -0.1829790472984314,
        -0.046403609216213226,
        -0.1188911497592926,
        -0.10974310338497162,
        0.005396090913563967,
        0.04545116424560547,
        0.041303496807813644,
        0.034300439059734344,
        -0.021756689995527267,
        0.10149332135915756,
        -0.16017715632915497,
        -0.040362514555454254,
        -0.006055806297808886,
        -0.06669912487268448,
        0.01785941980779171,
        0.07643314450979233,
        -0.09846717864274979,
        0.033599380403757095,
        -0.08286241441965103,
        0.007843888364732265,
        -0.12366510927677155,
        0.10286539793014526,
        0.008992609567940235,
        0.015207841992378235,
        0.006010651588439941,
        0.030802130699157715,
        0.07886803895235062,
        -0.0010806397767737508,
        -0.017434829846024513,
        0.07456763088703156,
        -0.00567797664552927,
        -0.015498995780944824,
        -0.16871947050094604,
        -0.04554430767893791,
        -0.1281966120004654,
        -0.023642953485250473,
        -0.029707539826631546,
        0.09493784606456757,
        -0.09906714409589767,
        -0.010441291145980358,
        0.0715937614440918,
        -0.069666288793087,
        -0.03899843245744705,
        0.008657480590045452,
        -0.02104080282151699,
        0.06368909776210785,
        0.008430897258222103,
        -0.06761132925748825,
        -0.041381411254405975,
        -0.11889661848545074,
        -0.04216892644762993,
        -0.07129745930433273,
        -0.08953289687633514,
        -0.04090455546975136,
        -0.09545373916625977,
        0.00716088293120265,
        -0.0270327590405941,
        -0.08183817565441132,
        -0.06197056546807289,
        0.008792889304459095,
        0.020786093547940254,
        -0.04333380609750748,
        -0.05925791710615158,
        0.005409037694334984,
        0.017640694975852966,
        0.005686878226697445,
        0.03411392122507095,
        -0.13701589405536652,
        -0.09404715150594711,
        0.08767113834619522,
        -0.049520086497068405,
        -0.00459186639636755,
        -0.019406994804739952,
        -0.0635283812880516,
        0.02140188030898571,
        -0.0458427295088768,
        -0.012844720855355263,
        -0.058380547910928726,
        0.04327119141817093,
        -0.0772862359881401,
        0.07313995808362961,
        0.15895609557628632,
        0.03606152907013893,
        0.03776945918798447,
        -0.08611755073070526,
        -0.07001377642154694,
        0.006642498541623354,
        -0.00413017300888896,
        -0.058534618467092514,
        0.026515474542975426,
        0.08421296626329422,
        -0.0619518980383873,
        -0.026967400684952736,
        -0.031603630632162094,
        0.020405761897563934,
        -0.0018382022390142083,
        -0.018034553155303,
        0.052823737263679504,
        0.026359744369983673,
        0.009977777488529682,
        0.11442027986049652,
        -0.006245586555451155,
        -0.04437786713242531,
        -0.06190981715917587,
        0.031394973397254944,
        0.019564902409911156,
        0.11008493602275848,
        -0.09463098645210266,
        -0.0414084829390049,
        -0.06130353733897209,
        -0.05634680762887001,
        0.04542692378163338,
        0.019801925867795944,
        0.0075935618951916695,
        -0.03410172089934349,
        0.000743959448300302,
        0.08148603141307831,
        0.08328735083341599,
